#pragma once
const int w2[10][500] = {
{439, 580, -563, -56, 190, 602, 624, 413, 514, 501, -778, 785, 236, -256, -353, 192, 245, 588, 221, 516, 21, 386, 500, 418, -6, 327, 532, 354, 456, 488, 170, 625, 600, -195, 79, -749, -459, 378, -549, 480, 425, 476, 380, 290, 10, 756, 536, 302, -258, 570, 422, 252, 491, 407, 62, 170, 350, 612, 586, -141, 293, 418, 253, 290, -40, 136, 414, 274, 706, -355, 574, 388, -370, 371, -49, 268, 309, 795, 451, 260, 489, 321, 352, 456, 76, 290, 87, -507, 106, 279, 563, 581, 484, 169, 579, 418, -34, -323, 167, 240, 68, 212, 126, 423, -450, 489, 256, 511, -276, 405, 44, -331, 372, 162, -623, 47, 580, 397, 341, 500, 29, 213, 445, 558, 540, 535, 538, 136, -17, 60, 194, 63, -31, 447, 295, 606, 328, 192, 458, -358, 321, 142, -175, 201, 238, 111, 153, -274, 562, 147, -282, 148, 180, -85, -574, -41, 175, 67, 183, 506, -284, 791, 319, -607, 406, 607, 171, 167, 706, -129, 369, 415, 247, 570, -323, 514, -590, -548, 451, 303, 69, 596, 582, 506, 743, 479, -202, -175, 495, 496, 487, 287, 216, -467, 502, -193, 473, -59, 529, 720, 729, 162, 212, 584, -2, 467, 317, 445, 364, 299, -544, 380, 520, -538, 166, 472, -275, -854, 23, 513, -600, -257, 556, 441, -358, -139, 252, 554, 253, 504, -351, 264, -62, 402, 564, -570, 196, 257, 516, -474, 137, 312, 145, 197, 236, 97, -475, 291, 515, -334, -291, 223, -22, -654, -497, -12, 173, -148, -336, 342, 278, -36, -472, 474, 86, -328, -303, -128, -272, -236, -388, -210, -146, -245, -525, -288, -194, -346, -70, -236, -376, -155, -149, -733, -483, 130, 58, -329, -95, -241, -162, -174, -302, -267, 628, -211, -68, -326, -595, -421, -66, -301, -140, -164, -453, -447, -460, -162, -39, -451, -166, -258, -360, -382, -503, -440, -246, -339, 73, -272, -26, -261, 308, -283, -541, -240, -261, -103, 77, -302, -166, -297, -382, -137, -568, -454, -389, 249, -423, -427, -74, -35, -113, -417, -89, -173, -473, -373, -506, -215, -430, -521, -499, 227, 98, -192, -334, -3, 337, -450, -411, -492, -290, -411, 225, -449, 202, -226, -359, -305, -544, -298, 186, 418, -117, -93, 233, -332, -594, -386, -444, -531, -469, -261, -403, -157, -265, -443, -121, -267, -278, 386, -536, -402, -255, -395, -358, -471, -386, -407, -481, -377, -546, -464, -61, -426, -443, -556, -558, 17, -492, -71, -316, 221, -242, -93, -516, -435, -211, -510, -229, -146, -434, 49, 338, -241, -133, -238, -273, -269, 397, -290, -63, 425, -192, -193, -428, 364, -322, -8, -440, -165, -300, 46, -67, -461, 55, -512, -346, 131, -131, -343, -438, -18, -395, -256, -270, -248, -292, -223, 182, -328, -50, -160, -258, -180, -418, 252, -388, -87, -15, 418, 113, -178, -530, -607, -226, 24, -277, -132, -467, -397, -484, -209, 242, 144, -387, -351, -222, 201, -391, -315, -447, 408, -568, -301, -352, -165, -113, -473},
{641, 691, -1143, -54, 190, 1153, 759, 688, 780, 670, -1033, 1042, 519, -465, -733, 330, 367, 866, 479, 649, 160, 584, 320, 447, 334, 488, 624, 384, 724, 750, 334, 613, 859, -132, 444, -1287, -965, 538, -926, 712, 873, 708, 699, 356, -149, 921, 719, 505, -580, 766, 728, 403, 613, 708, 18, 71, 322, 689, 837, -150, 620, 727, 554, 357, 130, 50, 708, 420, 991, -778, 762, 586, -562, 538, -109, 215, 155, 804, 862, 497, 821, 669, 414, 744, 104, 488, 360, -1099, -82, 506, 615, 749, 703, 86, 856, 373, -51, -1023, 128, 382, -83, 129, 103, 685, -867, 769, 312, 702, -427, 479, 59, -650, 385, 284, -943, 64, 805, 514, 484, 608, 439, 352, 818, 909, 506, 902, 570, 306, -93, 263, 561, 241, 20, 843, 324, 511, 593, 446, 721, -779, 449, 286, -332, 127, 171, 174, 289, -262, 874, 304, -741, 325, 380, 70, -1192, -246, 449, 262, 301, 705, -583, 1062, 609, -665, 481, 684, 128, 422, 1004, -318, 781, 534, 272, 743, -493, 449, -1120, -1269, 778, 345, 144, 1027, 683, 791, 840, 552, 7, -439, 819, 860, 664, 621, 487, -948, 513, -452, 798, -21, 740, 1169, 1123, 320, 456, 799, 187, 650, 512, 772, 469, 531, -1106, 969, 783, -1234, 525, 753, -486, -1390, 206, 646, -1282, -546, 912, 758, -304, 79, 420, 768, 639, 925, -504, 352, 21, 588, 830, -796, 502, 503, 995, -1118, 171, 321, -109, 332, 322, -23, -1034, 386, 790, -645, -523, 264, 11, -887, -599, -73, 172, -163, -416, 467, 330, -20, -686, 735, 286, -744, -801, -152, -667, -306, -645, -426, -31, -391, -809, -394, -396, -572, -197, -194, -733, -33, -218, -946, -786, 224, 77, -302, 56, -289, -216, -331, -269, -642, 801, -215, -58, -578, -671, -271, -153, -317, -323, -208, -894, -739, -531, -28, 149, -828, -505, -418, -492, -685, -723, -684, -373, -442, 136, -575, 28, -391, 536, -459, -828, -395, -383, -140, 153, -633, -394, -449, -537, -107, -882, -561, -702, 241, -889, -661, -233, -257, -157, -700, 154, -189, -770, -490, -925, -601, -939, -744, -805, 198, 221, -179, -436, 29, 587, -452, -851, -605, -466, -673, 191, -854, 180, -298, -503, -415, -812, -726, 239, 445, -168, -48, 378, -632, -840, -517, -882, -881, -722, -268, -455, -188, -688, -787, -233, -520, -546, 565, -854, -575, -340, -630, -654, -850, -308, -829, -744, -504, -665, -721, 30, -760, -592, -1023, -728, -86, -726, 18, -536, 201, -311, 82, -619, -576, -139, -997, -601, -345, -581, 89, 400, -273, -112, -227, -334, -363, 643, -368, -230, 422, 66, -289, -908, 565, -255, -2, -378, -334, -681, 15, -400, -784, -95, -769, -369, 95, -17, -600, -555, 7, -741, -421, -512, -367, -432, -387, 165, -220, -148, -27, -670, -223, -790, 226, -798, 36, -76, 672, 236, -294, -833, -933, -622, 139, -552, -17, -810, -496, -888, -287, 412, 253, -536, -518, -358, 190, -645, -356, -540, 552, -673, -556, -390, -431, -286, -712},
{-139, 200, -89, -423, -241, 102, 171, -31, -209, 277, 179, 96, -298, 379, 26, -270, -251, 19, -256, -145, -291, -150, -27, -116, -358, -149, -83, -230, -48, -58, -276, 47, -5, -506, -291, 38, -69, -99, -113, -86, -11, -99, -115, -224, 421, -30, 40, -179, -433, -116, 19, -146, -64, -27, -324, -356, -243, 17, 87, -333, -96, -103, -202, -285, -367, -381, -103, -163, 121, -365, 85, -143, 252, -197, -414, -149, -150, 2, 72, -139, -91, -191, -227, 9, -373, -170, -247, 84, -296, -256, 4, 10, -15, -325, 94, -76, -384, -362, -416, -219, -397, -358, -382, 211, -18, -34, -204, 100, 214, -202, -322, -390, -187, -299, 73, -320, 124, -89, -200, -124, -363, -227, 218, 280, -22, 43, 212, -234, -431, -201, -329, -403, -348, -58, -172, -99, -185, -418, -39, -324, -150, 215, -457, -280, -235, -315, -230, -440, -129, -342, -418, -230, -317, -304, -128, -344, -281, -443, -389, 36, -506, 62, -147, 77, -120, 30, -352, -300, 21, -408, -182, -79, -231, 82, 149, -160, -215, -287, -127, -115, 256, -93, -4, 313, 25, -68, -376, 193, -93, 48, -193, -69, -186, -96, -69, -430, 92, -343, -194, 179, 12, -176, -226, 88, -302, -108, -227, -34, -167, -132, 5, -108, 66, -219, -228, -61, -371, 137, -286, -16, -160, 281, 215, -88, -435, -448, -176, 100, -244, 40, -427, -208, -423, -59, 288, 22, -243, -213, -63, 16, -244, -201, -272, 250, -370, -222, -321, -136, -78, -379, 294, 391, -476, -119, 15, 447, 412, 329, 338, 403, -506, 517, 129, -164, -277, 93, 31, 336, 100, 292, -29, 195, 218, 220, -24, 237, 302, 147, 345, 329, 67, 330, 389, -288, 41, -612, -387, 309, -417, 361, 381, 392, 289, 153, -26, 457, 315, 190, -338, 331, 301, 184, 348, 293, -34, 7, 177, 358, 440, -144, 231, 283, 149, 133, -85, 35, 289, 194, 498, -436, 368, 177, -193, 216, -201, 148, 140, 430, 461, 191, 342, 276, 130, 372, -120, 135, 63, -374, -153, 109, 402, 384, 378, -23, 433, 253, -101, -437, -53, 161, -85, 67, -22, 373, -417, 333, 163, 380, -159, 228, -109, -346, 132, -6, -383, -98, 477, 277, 188, 313, -1, 85, 430, 487, 316, 420, 368, 73, -226, -7, 95, -7, -68, 341, 147, 302, 154, 99, 300, -347, 191, 146, -257, 15, 53, 20, 86, -285, 452, 21, -359, 152, 35, -48, -521, -150, 126, -90, 38, 328, -317, 609, 245, -313, 210, 431, 16, 98, 578, -212, 247, 212, 68, 338, -184, 261, -460, -528, 327, 159, 185, 452, 362, 425, 426, 285, -122, -112, 368, 436, 239, 252, 150, -461, 248, -229, 357, -85, 307, 574, 519, 52, 161, 376, -44, 303, 254, 296, 226, 234, -477, 337, 348, -496, 105, 351, -310, -562, -40, 340, -579, -164, 452, 343, -318, -197, 103, 402, 237, 406, -361, 129, -109, 325, 476, -368, 141, 158, 377, -441, 19, 113, -68, 223, 82, 58, -444, 155, 314, -372},
{-178, -52, -38, 0, 94, -35, -65, 23, -125, 22, -64, -6, 38, 62, 20, 6, -31, 0, -125, -89, 39, -14, -28, -27, -21, -47, -43, -70, 22, 1, -176, -98, -45, 61, -86, 56, -30, 59, 14, -30, -124, 19, -2, -62, -125, -71, 83, 24, -101, 59, 94, -127, -60, -159, -128, -187, 76, 56, -106, -96, -120, -39, -46, 75, -2, -40, 0, -86, -3, -89, 17, -64, 85, -27, -58, -96, -108, 87, 19, -54, 19, 48, 33, 22, -112, -51, 128, -53, 82, -86, 71, -49, -57, 48, -47, 60, 85, 18, -74, -38, -63, -6, -16, 13, 77, -113, -33, -40, -13, 93, 17, -17, 42, -116, -122, -21, 142, -83, 13, 24, -32, -43, 55, 28, -121, 134, -44, -157, -87, -184, 60, 154, 81, 33, 43, 67, 21, -21, 77, -30, 125, 183, 5, -36, 38, -29, -15, -65, 18, 89, 35, -41, 5, -47, -96, 0, -150, 77, 25, -54, 32, -41, -65, -138, 9, 79, 98, 63, 56, 99, -75, -69, 111, 21, -60, -136, -66, 55, -35, 124, -37, -78, 164, -133, -38, -109, -62, 142, 3, -81, 68, 96, -58, 23, 137, 110, 103, -80, -67, 144, 5, 52, 52, -33, -36, -37, -58, 76, 8, 34, 26, -10, -103, -70, -56, 125, 40, -122, 23, 57, 75, 2, 156, -21, -104, 42, 77, -61, -181, 151, -77, 67, 54, 35, -21, 111, 131, 136, -37, 67, -23, 23, 73, 130, 34, 96, -27, -74, 42, -108, -77, 58, 8, -14, 182, -27, -17, 80, 19, -70, 3, 49, 12, -185, 40, 27, -69, -28, -37, -4, -18, 7, 0, -49, -128, -40, 3, -3, -43, -17, 41, -28, 22, 56, -106, -152, -66, 89, 55, -64, 13, -2, -103, 116, -111, 61, 6, 130, 91, 9, -119, 175, 5, -57, -8, -3, 68, 75, 40, -6, 37, 40, 39, 20, 80, -43, -25, 0, -8, 107, -16, -19, -131, 64, -43, -32, 0, 44, -114, -99, -10, -30, -8, -34, 19, 15, -38, -13, -61, -21, -6, 87, 100, -102, 72, 15, 38, 51, -22, 12, 160, 15, -91, -47, 80, -176, 7, 5, -97, -164, -116, -10, 30, 101, 43, 11, -66, -9, -81, -61, -135, -29, 73, -10, 28, 19, 4, -40, -52, 77, 18, -137, 2, -121, 76, -23, 131, 32, -44, 7, 49, 119, 96, 5, 30, -89, -91, -51, -90, -2, 72, -6, -2, -18, 27, -3, 51, -135, -1, 6, 8, 63, 74, 34, -14, -68, -20, -17, -86, 64, 61, 60, -28, 64, 11, 153, -51, 53, 51, 59, -78, 1, 55, -26, 31, 89, 32, 85, -91, 89, 6, -100, 50, -23, 22, -24, -149, -91, -126, 67, -138, -15, -56, -34, 24, -17, -17, -21, 31, 79, -20, -64, -43, 33, -92, -65, -77, -45, 54, -67, 133, -53, -43, -16, -79, 47, -42, -61, -30, 55, -17, -23, 57, 44, 75, -59, -29, 10, -20, 55, -13, 21, -36, -106, -113, 111, 48, -67, 38, 17},
{49, 175, -92, -72, 89, 94, 43, 115, 105, -91, -127, 67, 64, -33, -218, 76, 34, 117, -36, 62, 73, -149, 241, 141, -112, 76, -43, 24, 16, 22, -57, 156, 85, -73, -102, 48, -259, 92, 18, 24, 113, 29, 194, 74, 17, 61, 158, 81, 46, 4, 65, 156, 27, 152, 13, -121, 79, 176, 69, 129, 170, 59, -8, 45, 77, 64, 28, 113, 82, -14, 85, 0, 3, 55, -64, 60, -41, 63, -42, 70, 174, 53, 145, 99, -71, 154, -59, -38, -57, 54, 77, 99, 135, 1, 43, 204, -48, -123, 52, -40, -122, 6, -94, -33, -83, 78, 28, 90, 99, 168, -93, -92, 20, 63, -40, -3, 38, 62, 62, 63, -65, -112, 82, -11, 46, 102, 155, 121, -182, 100, -4, 226, -30, 161, 163, -55, 16, -86, 105, -66, 61, 26, 36, -25, 88, 51, 16, -88, 24, -1, -7, 18, -55, 34, -234, 126, 49, -176, -22, 89, 38, -10, 13, -26, 34, 88, 127, 2, 89, -107, -14, 106, 92, 57, -138, -9, -40, -245, 72, 117, 12, 7, 41, -112, 175, 144, 71, 20, 17, 38, 195, 181, 0, -25, 46, -45, 101, -7, 59, 41, -22, 151, 101, 9, 116, 58, -98, -24, 209, 63, -171, 60, 12, -253, 75, 38, -10, -58, 96, -21, -241, -43, 53, 232, -71, -63, 83, 90, 19, -15, -63, 44, -28, 30, -11, 36, 8, 12, 10, 15, 64, 125, 48, -234, 0, 242, -189, 199, 178, -98, -4, 155, 23, -65, 33, 95, 81, 135, 70, 70, 75, 33, -22, 40, -44, -4, -37, 71, -200, 134, 7, 20, 287, 96, -171, 169, -34, 30, 137, 49, -37, 120, -67, -221, 47, -29, -55, 194, -1, 7, 56, 0, 95, 54, -30, 70, 87, -67, -152, -15, 13, 166, 102, 94, -19, -89, -24, 100, -11, -130, 56, 6, -11, 11, -117, 11, -22, 85, 106, -2, 92, 26, 123, 140, -133, 61, -9, 45, -16, -9, 65, -2, -69, 43, -100, 81, 18, 1, -134, -23, -5, 43, 206, -7, 110, 223, -40, -148, -101, 30, -5, 25, -42, 43, -29, 58, 25, 259, 123, 2, -88, 139, 67, 57, -40, -67, 11, 77, -4, 24, -27, -128, 61, 79, 169, 64, 129, 32, -111, 48, 14, 77, 130, 3, 19, -94, 57, -162, 32, 66, 115, 46, -54, -49, 218, -77, -2, -128, 55, 22, 53, 20, -21, -28, -113, 41, 152, -298, -94, 58, -140, 104, 70, -72, 103, 200, 145, -16, 40, -51, 16, 122, 32, 69, -43, 59, 2, -80, 139, 160, 73, 62, 62, 10, 113, 110, 51, 39, 87, -13, 9, 40, 252, 12, -38, -31, 49, -50, 74, 143, 43, 69, 53, 147, 72, 5, -32, 113, 93, 172, -75, 123, 20, -118, 77, 165, -120, 27, 9, 132, 24, -9, 154, 150, -27, -156, 36, 148, -1, -73, -20, -88, -151, 39, 223, 68, -160, 136, 52, -76, 58, 121, 83, 106, 140, 181, -162, 43, -105, -57},
{185, 153, -158, 23, 58, 203, 278, 80, 164, 121, -179, 269, 25, -198, -225, 28, 161, 228, 31, 121, 110, 171, 236, 164, -40, 185, 173, 88, 243, 165, 92, 97, 196, -7, 270, -130, -254, 249, -202, 214, 164, 150, 217, 158, 172, 205, 194, -8, -240, 174, 207, 53, 131, 251, -59, -88, 135, 176, 209, -77, 223, 84, 218, 5, 39, 37, 80, 190, 258, -132, 222, 164, -103, 175, 7, 175, 72, 194, -4, 167, 214, 181, 179, 182, 29, 161, 169, -276, 96, 120, 194, 185, 224, 60, 300, 188, 33, -221, -44, 56, -16, 157, 73, 325, -265, 145, 104, 158, 80, -49, 39, -4, 121, 97, -180, 0, -64, 196, 137, 140, 81, 245, 284, 83, 192, 170, 237, 152, 39, 105, 53, -76, 114, 219, 91, 48, 235, 8, 169, -160, 73, 6, -56, -5, 164, -39, 124, -20, 125, 19, -140, 129, 150, 139, -216, 7, 152, 14, -33, 199, -147, 213, 269, -82, 224, 186, -42, 43, 188, -51, 76, 221, 142, 175, -12, 181, -215, -336, 173, 229, -11, 139, 215, 287, 245, 233, 6, -108, 166, 190, 112, 310, 297, -260, 107, -118, 255, 0, 198, 397, 181, 158, 161, 144, 64, 147, 46, 170, 96, 212, -302, 234, 74, -296, 200, 182, 3, -92, 120, 239, -263, -113, 222, 189, -33, 51, 119, 200, 63, 121, 37, 197, 15, 136, 129, -99, 82, 167, 203, -109, 8, 170, 75, 44, 105, 210, -176, 140, 206, 6, -211, -32, -78, -293, -278, -122, -14, -113, -187, 92, 248, -168, -365, 225, 95, -282, -443, -143, -323, -196, -304, -174, -202, -151, -345, -136, -157, -143, -126, -179, -368, 34, 74, -379, -407, 45, 42, -188, 83, -80, -155, -111, -211, -369, 184, -120, -62, -353, -134, -116, -173, -163, -202, -144, -582, -244, -96, -7, -53, -255, -292, -248, -244, -254, -341, -279, -121, -99, -24, -346, -85, -266, 161, -249, -350, -176, -128, -101, -8, -179, -247, -167, -283, -51, -324, -243, -313, 65, -362, -345, -160, -259, -126, -277, 34, -296, -338, -148, -382, -277, -480, -422, -287, 108, 58, -226, -136, -60, 161, -195, -473, -380, -245, -377, -7, -429, 92, -7, -387, -167, -383, -362, -17, 147, -190, -73, 145, -238, -407, -274, -297, -482, -294, -209, -246, -146, -356, -190, -170, -377, -264, 217, -356, -274, -297, -312, -292, -293, 8, -422, -275, -221, -255, -353, 10, -432, -346, -335, -244, -136, -293, -17, -255, 174, -272, -59, -204, -335, -84, -420, -350, -173, -207, -65, 134, -55, -24, -39, -193, -210, 199, -254, -163, -2, 46, -153, -528, 208, -18, -59, -196, -69, -369, -57, -263, -319, -172, -339, -273, 15, 8, -322, -307, -88, -355, -128, -315, -82, -226, -244, 33, -99, -190, 101, -368, -132, -451, -13, -393, -13, 12, 338, 37, -190, -379, -259, -274, 50, -245, -78, -356, -172, -339, -130, 204, 56, -235, -215, -101, 212, -283, -148, -438, 221, -309, -184, -166, -283, -177, -262},
{-254, -72, 35, -216, -299, -157, -117, -80, -69, 73, 36, -125, -169, 46, 131, -178, -285, -121, -193, -101, -150, -90, -79, -113, -218, -122, -173, -98, -128, -124, -219, -82, -80, -185, -235, 110, 145, -109, 88, -144, -38, -130, -87, -153, 171, -49, -59, -182, -134, -96, -104, -105, -194, -56, -316, -149, -26, -61, 33, -173, -205, -208, -179, -102, -134, -111, -64, -153, -28, -121, 67, -157, 120, -121, -180, -144, -43, -151, 15, -57, -106, -91, -222, -66, -194, -208, -210, 39, -193, -177, -66, -113, -87, -155, 29, -124, -185, -96, -258, -57, -191, -244, -136, 69, 66, -155, -87, -36, 142, -179, -252, -151, -155, -185, 0, -225, 38, -42, -239, -155, -195, -167, 18, 56, -121, -77, 90, -152, -196, -282, -141, -266, -105, -174, -225, -16, -222, -78, -92, -119, -203, 168, -279, -215, -57, -112, -145, -93, -92, -140, -198, -124, -122, -199, -7, -242, -215, -150, -138, -38, -116, -139, -155, 100, -136, -13, -138, -108, -208, -284, -68, -163, -91, -52, 115, -14, 37, -29, -157, -271, 71, -212, -105, -111, -79, -188, -271, 196, -64, 28, -214, -17, -234, 69, -145, -98, -150, -271, -191, -12, -110, -284, -228, -77, -199, -107, -96, -160, -89, -175, 56, -14, -125, 93, -215, -92, -296, 11, -205, 20, 48, 174, -50, -104, -178, -107, -221, -45, -159, -116, -202, -146, -119, -85, 53, 57, -185, -120, -175, 109, -175, -50, -227, 71, -206, -145, -37, -137, -114, -146, 173, 142, -210, -87, 2, 259, 217, 101, 240, 106, -199, 220, 32, -86, -255, -17, 106, 272, 121, 206, 78, 190, 202, 168, 4, 76, 181, 55, 136, 89, 48, 99, 212, -4, 131, -187, -134, 153, -188, 120, 144, 82, 241, 165, 132, 295, 237, -35, -247, 103, 110, 41, 129, 191, -28, -67, 163, 189, 236, -186, 161, 127, 154, -7, -7, -23, 133, 43, 284, -129, 285, 176, -110, 157, 55, 112, 54, 134, 68, 173, 170, 86, 148, 112, 45, 196, 75, -271, 76, 121, 135, 183, 215, 50, 248, 127, -9, -179, 63, 96, -64, 132, -11, 187, -151, 202, 105, 189, -43, 18, -41, 2, 119, 83, -100, 1, 41, 107, 98, 106, 48, 127, 191, 148, 134, 89, 242, 79, 52, 52, 96, 56, 49, 186, 6, 161, 145, 16, 164, -182, 124, 164, -134, -61, 179, -53, 37, -21, 189, 157, -145, 170, 138, -57, -236, -99, 134, -12, 22, 221, -165, 163, 167, -83, 224, 120, 30, 45, 201, -85, 134, 161, 46, 198, -23, 191, -318, -253, 114, 98, 10, 212, 213, 146, 226, 191, 43, -144, 150, 148, 97, 224, 211, -144, 80, -91, 198, 22, 228, 327, 174, 125, 56, 172, 14, 124, 68, 88, 90, 126, -187, 218, 137, -240, 171, 152, -152, -222, 102, 171, -263, -84, 252, 130, -65, 37, 69, 207, 34, 116, -9, 149, -69, 141, 174, -39, 67, 131, 125, -134, 20, 184, -40, 36, 94, 104, -168, 121, 105, -15},
{132, -55, 21, -6, -25, -13, 2, 36, -217, -66, 45, -116, -24, 82, -68, 203, -164, -64, 109, -18, -41, -52, -148, 95, 131, -197, -4, -173, -58, -95, 62, -63, -175, 98, -5, -7, -121, 60, 62, -37, -32, 40, -77, 23, -49, -173, -151, -22, -80, 29, -202, -113, 137, 36, 60, 53, -174, -147, -70, -159, 17, 2, 101, 78, -35, -108, -29, 65, 40, -40, -84, 12, -119, -158, 59, 228, -21, -106, 32, -74, -106, -84, -37, -11, 125, -14, -155, 86, -15, -138, -3, -112, 9, -8, -19, 48, -11, 57, -1, -250, -78, -66, 95, -13, -13, -24, 79, -189, 72, -122, 33, -52, -115, -120, 211, 31, 116, -69, 74, 21, -35, -20, -54, -109, -102, -200, 17, -148, 38, 99, -157, -87, -8, -96, -175, -72, -236, 46, -126, 49, -61, -33, 102, -76, 39, -90, -107, -76, -105, -35, -55, -92, -3, 30, -88, -16, -23, -57, 100, -159, -1, -23, -7, 82, -52, -243, -62, -49, -111, 10, -218, -6, -57, 155, 43, -62, -65, 111, -49, -37, 155, -109, -3, 81, -66, 140, 68, -24, -136, 35, 26, -7, -124, -56, 50, -39, 77, 44, -34, -106, -196, 84, -132, -25, -20, 51, -78, -113, 38, -4, 112, -51, 59, 50, -50, 26, 72, 9, 111, -10, -105, -8, -64, -38, 15, 101, 69, -50, -32, -24, 80, -14, -78, -117, -155, 61, 84, -30, -195, -165, -8, -171, -63, -39, 100, -32, -46, -19, -206, -163, -110, 23, -205, -67, 120, 122, -17, 149, -15, -123, 10, 82, 30, 27, 77, 154, -60, 119, 58, 125, 202, -184, 153, 174, 75, 154, -31, 63, 6, -40, 36, 73, 152, 164, 7, -56, 60, 33, -110, -36, 104, -45, 172, 56, -48, 6, -118, 15, 110, 0, 43, 103, 113, 96, -70, 141, 31, -11, -23, 125, 24, 2, 63, -58, 164, -200, 11, 90, -18, 108, 6, 71, -33, -156, -48, 58, 41, 104, 56, 28, -161, 4, 30, 129, -62, -1, 29, 71, 51, -131, 181, 68, 59, -78, 75, 107, -30, -58, -240, 189, -88, -12, 39, 39, -28, 13, 12, -51, 0, -46, 205, 0, 25, -35, -127, 102, -11, 120, -146, 132, -19, -148, -96, 97, 56, 95, -50, -33, -10, 120, 32, 46, -45, 93, 54, 23, 5, -26, 199, -44, 41, -111, 95, 71, 116, 91, 38, -127, -76, -48, 26, 134, -120, -12, -55, -35, -173, 54, -36, -20, -92, 51, 132, 107, 28, 54, 62, -116, 120, -30, -28, -5, 101, 78, 118, 30, -15, -160, -32, -21, 120, 162, 40, -5, -44, 130, -30, -83, 101, -47, -8, 92, 7, 49, -29, -14, 177, -38, -114, 36, 73, 106, -50, 141, 21, 84, 7, 30, 37, 81, 35, -37, 70, -101, 15, -139, -241, -26, 49, 116, -42, -144, 16, 41, -12, -170, -69, 43, 25, -21, 79, 58, 58, -31, -192, -78, -66, 149, -17, 53, -4, 162, 33, -27, 65, 123, -55, 134, -10, -85},
{37, -34, -364, -163, 115, 19, 100, -87, 117, 158, 13, 142, -206, 187, -101, -261, -190, 92, -110, 93, -102, -9, -116, -72, -57, -65, 127, -74, -52, 68, -247, 145, 196, -201, 24, -59, -86, -138, -107, 45, -103, 23, -32, -228, 19, 149, 63, -134, -208, -126, -123, -55, -43, -64, -383, -36, -56, 12, 40, -164, -73, -95, -22, -81, -129, -170, 38, -13, 24, -476, -24, -39, 196, 16, -208, -127, -210, 115, 137, 47, -85, 17, -75, 33, -34, 39, -3, -124, -150, -2, -100, -33, -74, -60, 27, -202, -117, -208, -67, -149, -300, -299, -197, -58, -12, 43, 8, -202, -85, -59, -153, -426, -29, -142, -126, -260, 84, -8, -108, -10, -68, -140, -28, 125, -45, 71, 98, -97, -170, -102, 14, -150, -286, 20, -50, 8, -111, -65, -63, -263, -49, 274, -120, -142, -258, -273, -25, -192, 124, -226, -265, -94, -43, -278, -67, -305, -47, -156, -165, 17, -70, 121, -32, -58, -143, -85, -65, -227, 88, -175, -198, -107, -40, 168, 37, 136, -202, -195, 0, 0, 71, -6, -103, 99, 60, -17, -274, 92, 66, -39, 46, -60, -156, -210, -210, -180, 2, -79, -120, 65, 175, -102, -53, 12, -276, -59, -179, 68, -126, -112, -96, 116, -25, -30, -185, 50, -341, -82, -171, -125, -177, -41, 139, -139, -269, -165, -29, 135, -33, 170, -200, 13, -197, 23, 216, -56, -7, -39, 204, 86, -156, 77, -310, 23, -44, -72, -294, -173, -6, -304, -1, -34, -100, 136, 69, -12, 14, 31, 47, 34, -81, 159, 161, -233, -75, 74, 302, 114, 21, 39, 86, 137, 1, 205, -10, 143, 17, 126, 209, 1, 110, -48, 26, 16, 99, 86, -81, 200, -100, 155, 86, 60, -5, -14, 56, 31, 78, 72, -46, 117, 167, -41, 114, 133, 32, -132, -39, 79, 9, -44, 238, -8, 198, -19, 38, -26, -36, 142, 74, -116, 86, 115, 9, 103, 105, 28, -7, 87, 38, 8, 145, 150, 6, 95, 79, -73, 61, -143, 141, 103, 89, 83, 29, 71, 165, -12, 99, -151, 0, 95, 33, 226, 62, 192, -214, 32, 36, 118, -12, -73, 187, 51, 43, 157, -137, 43, -192, 139, 55, 74, 157, 100, 242, 14, 148, 206, 32, 173, 26, 169, 172, 43, 165, 133, -30, -94, 283, 38, -23, -109, 39, -53, 22, 118, 2, -48, 109, 59, -85, 93, 10, -11, 70, 323, -229, 73, 116, 111, -59, 19, -106, 102, 274, -61, 73, 15, -10, 145, 159, 66, 80, 137, 61, 70, 117, 102, -132, -239, 150, 130, 26, 55, 113, 48, -68, 15, 90, -28, -36, 67, 48, 175, 95, -162, -32, -93, 152, 99, 65, 125, 148, 53, 157, 51, 217, 167, 13, 164, -16, 115, -165, 85, 108, -139, 239, 110, 107, -8, 76, 112, -208, -17, 95, 63, 27, 54, 105, 91, 113, 239, 72, 141, 109, 54, 75, -35, 53, 144, 125, -162, 139, 26, 232, -25, 3, 165, -56, 47, 94, 225},
{195, 38, -20, 232, 335, 223, 208, 156, 231, -50, -271, 168, 226, -254, -187, 286, 203, 227, 148, 432, 295, 60, 452, 350, -9, 239, 194, 204, 118, 280, 94, 408, 184, 166, 409, -79, 80, 351, 27, 49, 173, 125, 185, 210, 66, 280, 303, 145, 270, 338, 51, 303, 336, 240, 209, 289, 139, 50, 57, 50, 288, 186, 292, 296, 273, 196, 238, 308, 178, 165, 230, 156, -167, 101, 271, 522, 452, 330, -81, 208, 171, 167, 160, 71, 363, 301, 193, -172, 319, 125, 320, 107, 363, 307, 328, 395, 249, 279, 354, 257, 78, 205, 199, 43, -256, 216, 468, 174, -19, 257, 186, 291, 262, 254, -266, 273, -107, 299, 162, 328, 74, -96, 26, -162, 241, 189, 180, 155, 264, 406, 84, 151, 278, 131, 182, 283, 2, -188, 220, 132, 274, -359, 323, 287, 527, 305, 199, 115, 232, 72, 240, 280, 250, 323, -17, 250, 33, -166, 210, 136, 232, 11, 113, -203, 175, 170, 258, -38, 42, 205, 196, 291, 303, 330, -352, 390, 113, 261, 132, 281, -415, 293, 308, 3, 367, 212, -19, -88, 275, 102, 221, 239, 114, 10, 209, 179, 223, 287, 259, -4, 58, 357, 109, 150, 84, 235, -27, -56, 309, 340, -38, 241, 226, 204, -43, 292, 138, -224, 224, 245, 49, -99, 242, 32, 111, 11, 297, 239, 170, 112, 141, 317, 18, 254, -104, 27, 64, 140, 122, -310, 272, 371, 372, -554, 236, 319, 160, 192, 214, 24, -187, 29, -139, -307, -233, -76, -163, -55, -178, 160, 248, 61, -176, 313, 165, -264, -90, 29, -32, -217, -190, 3, -289, -184, 48, -298, -87, -234, -59, -180, -105, -333, -135, -48, -301, 73, 7, -332, -176, -81, -69, -83, -51, -212, 42, -109, -269, -80, -429, -341, -60, -332, -161, -157, -193, -270, -223, -92, 32, -282, -165, -149, -99, -299, -156, -439, -216, -273, -13, -302, -14, 39, 237, -136, -246, -457, -487, -162, 313, -231, -176, -128, -192, 17, -263, -339, -206, 133, -250, -21, -199, -2, -298, -231, -244, -307, -203, -375, -395, -175, -115, -225, -246, 7, 246, -47, -384, -240, -24, -331, 56, -332, -226, -208, 179, -216, 126, -354, -94, -270, -5, -19, 127, 319, -191, -41, -88, -230, -245, -292, 8, -69, -331, -39, -260, -170, 18, 203, -141, -173, -206, 448, -309, -281, -363, -351, -184, -212, -390, -61, -309, -282, -230, -295, -223, -313, -57, 166, -246, -74, -297, 38, 17, 137, -80, -232, -290, 81, -5, -224, -111, -334, -304, 18, 546, -244, -291, -381, -65, -315, 568, -172, -227, 63, -412, -115, 41, 240, -317, 17, -207, -210, -213, -53, -196, -303, 27, -224, -181, 44, 18, -327, -203, 8, -140, -202, -16, 36, -287, -254, 61, -192, -33, -268, 55, -182, -275, 138, -164, -208, -275, 3, -59, -52, -212, -76, -244, -105, -114, 121, -150, -253, -35, -246, 5, -68, -8, -62, -116, 182, -227, -228, -295, 485, -160, -365, -205, -127, -221, -138}
};

const int b2[1][10] = {
{-569, -123, -61, -37, -964, 1962, 537, 178, 180, 314}
};
