#pragma once
const int w1[225][250] = {
{-659, -552, 1386, 75, -488, 103, 689, -403, 151, 39, 42, -188, -1285, 1789, 433, 114, -84, 199, 50, 97, -212, -198, 257, 400, -461, -45, -294, -428, 146, 169, -939, 351, -502, -59, 165, -751, -889, 515, 44, 282, 415, -681, 251, -272, 1453, 246, 404, 1113, -197, -482, -393, 1278, -696, 271, -668, -243, -37, -471, -363, 297, 135, 425, 199, -104, -1013, 406, 395, -216, -268, -951, -393, -121, 63, -656, 863, -291, 581, -387, -169, 118, 693, 242, 265, -694, -289, -497, 690, 646, 773, -148, -1272, -1066, -829, 800, 530, 241, 204, -112, -82, -231, -705, 136, 77, -1072, -370, 741, -626, 762, 425, -579, -545, 85, 229, 711, -303, -108, 567, 550, -176, 884, 671, 523, -748, 745, -325, -32, -666, -592, 613, 382, 624, 749, 27, -308, 528, -796, 100, 33, 535, 149, 425, -685, -913, 521, -454, 753, -522, 453, -279, -49, -306, -86, 509, -1455, 480, -231, -430, -226, 502, 97, -438, 173, -128, -983, 54, -173, 299, -188, -165, -396, 820, 115, 1073, -282, 109, 718, -221, -183, 293, 485, -154, 874, -180, -244, -845, -385, 14, -838, -321, 666, -47, -1108, -67, -498, 116, 296, -654, 1243, -750, -88, -988, 212, -77, 520, 52, -934, 597, 344, -734, 284, 161, -56, -1039, 111, -487, 590, 557, -48, -665, -430, -773, 494, -141, -230, -168, -573, 262, -179, -150, 22, -497, 512, -609, 644, 0, -205, -228, 730, -327, 268, -121, 742, 259, -12, -171, 142, -12, -553, -1, 157},
{210, 154, -574, -297, 195, -808, 353, -283, 121, -450, -2, 21, -440, 754, 341, -540, -564, -562, 345, -261, 95, 786, 165, -1210, -78, 47, -414, 639, 380, 193, 507, -924, 738, -351, 1099, 81, -157, 46, 216, -652, -324, 326, -629, 282, -894, 1440, -972, -445, -142, 143, 284, 47, 2, 1098, -845, 525, -335, 595, 361, 386, -242, 376, 246, 592, -378, -475, 467, 346, 88, -842, 698, -154, 908, -384, 151, -78, -470, -862, -336, -1334, -26, -450, 522, -483, -1408, -513, 136, -74, 134, -868, 337, 946, 417, 177, 1002, 160, -266, -266, -722, -241, -512, 451, -856, -136, -734, -20, 33, -433, -378, 453, 684, -516, -710, -21, 294, -563, 682, 77, 1762, 708, -123, -220, -381, -413, -237, 475, 13, 369, -277, 185, 603, -214, 4, -433, -23, -663, -258, 103, -389, 467, -755, 28, -316, 520, 44, -466, -412, -47, 928, 197, 377, 800, -584, -1268, 395, 946, 523, 148, 50, 233, 625, -815, 123, -169, 24, -510, 288, 325, -412, 480, 632, -894, 125, 291, -480, -1171, -384, -267, 9, 1082, -847, -167, -931, 305, -192, -112, -1038, -439, 296, -118, 1438, -795, -472, -98, 880, -436, -303, -68, 857, 540, 202, -529, -381, -430, 627, 99, -153, 46, 188, -301, 709, -793, -383, 660, -146, 218, -53, -608, -169, -722, -928, -231, 527, -405, 54, 781, 1169, 296, -913, -314, 192, 165, -314, -187, -24, 143, -911, -619, 300, -591, -582, 1395, 367, -202, -90, 348, 1032, 383, -140, 123},
{-53, -693, 85, 212, 305, -298, -226, -85, -784, -874, 658, -469, -427, -511, -913, 590, -52, 79, -128, 233, -334, 611, -398, -120, -206, -295, 1305, 697, 273, -432, -1014, -119, 15, -176, 91, -61, -548, -249, -432, 693, -60, 311, -1003, 304, 192, -408, 322, -1263, 477, -358, 1148, 1, -542, -49, -1020, 180, -437, 96, -74, -151, -184, -71, -647, -358, -793, 290, -1186, -198, -350, -211, -685, 854, 358, 873, -564, 637, 389, -833, 287, 1160, -12, 148, -1184, 739, 196, -7, -579, -929, 329, -693, -412, 71, -310, -331, -559, -206, -380, 344, 184, -450, -111, 195, -660, -624, -439, -850, -91, 753, -600, 180, -953, 132, -316, -1234, 341, 205, -629, 85, 210, 971, -995, 83, 451, 1204, 425, 272, 472, 686, 606, 436, 866, 372, 183, 123, 45, -336, -10, -407, 14, -185, 561, -685, 814, -590, -553, -694, 410, -246, 194, 311, 963, -595, -46, 885, 342, 4, 299, -353, -1025, -438, -682, -133, -96, 7, -797, -94, 217, -314, 312, -717, 522, -814, -371, -505, 1013, 384, -876, -94, -356, -643, -53, 325, -202, 1078, 143, -461, 1171, -18, 79, 40, -133, 91, -436, -565, 689, -760, 277, -574, 807, 737, -325, -670, -117, -510, 119, -1150, -646, -209, 1459, -386, -591, 485, 1019, -1082, -318, -1134, -44, -364, 1185, -979, 702, 763, 196, 325, 76, 1163, 739, -718, 49, -536, 54, 1205, -610, 487, 570, -660, -439, -896, -543, 2, 21, 677, 347, -498, -712, -508, 660, -276, 1262, -43},
{-389, 413, -417, -143, 795, -616, -983, -1015, 395, 249, -457, -286, -676, 603, 976, 235, -920, 839, 75, -39, 615, 422, 1352, -353, -815, -101, 130, 425, -780, -272, -404, -353, -1338, -505, 652, 48, -410, -347, 168, -144, -45, -163, -340, 316, 395, -418, 97, 596, -118, 54, -56, 971, 608, 137, 932, -684, -281, -212, -262, -196, 526, 174, -593, 740, 585, 168, 66, -169, 141, 1198, 215, 1133, -216, 689, 449, -82, 822, -560, 614, -315, -507, 391, 456, -229, -105, -73, -74, -598, 319, -1111, -1145, 546, 390, 713, 138, -335, 231, 1141, -582, -208, 60, 680, 166, -609, 330, -277, -525, -720, 12, -683, 434, -1406, 514, -289, -4, 584, 429, -303, -59, 174, -323, 6, 46, -635, -69, 1196, 698, 538, -90, 244, -537, -486, -492, -723, 197, 638, 417, -497, -76, 1107, 1116, 23, -274, 508, 177, -571, -169, 547, -339, -589, -450, -51, 589, -189, 131, -61, 45, 607, -87, 103, -434, 1150, 389, 523, 339, 517, 261, -635, 229, -674, -997, -341, -338, -182, -495, -781, -3, 752, 293, 394, 629, -668, -809, -331, 201, 259, -1002, -1186, -200, 388, 987, 907, -569, -190, 222, 653, 281, -351, 528, 198, -465, -485, 140, 719, -647, 665, 121, 90, 58, 58, -382, 763, 630, 975, 70, -478, 708, -417, 178, 1351, -604, 138, 340, -1241, -450, 3, -195, 712, -320, 701, -961, -118, 111, 522, 1267, -192, -178, -727, -867, 567, 165, 386, 106, -11, -395, 40, 251, 577, 1094, -1122},
{-2006, 557, 355, -1025, 170, -353, 625, 201, -1007, -783, -403, 108, 145, 12, 280, -89, -48, 141, -2, 183, -934, -1043, 439, 455, 18, 302, 992, 514, -380, -283, 1335, -1182, -776, -67, -613, 179, 584, 8, -480, 157, -429, 505, 176, -341, 531, -78, 82, -594, -657, 216, -22, 85, -440, -283, -865, -104, -116, -327, 484, 82, -518, -536, -333, 258, 245, -368, -1121, -724, -72, -934, -443, -1453, -268, 193, -677, -32, 237, -141, 108, 216, -119, 45, 875, -735, -73, 1140, -41, 101, 3, 375, -68, 249, -157, 229, 1069, -425, -156, 230, -552, 330, -394, -84, 66, -276, 416, -893, -607, 176, 374, 751, -842, -978, -523, 907, -249, 654, 773, -431, 567, -1422, -136, 253, 803, -311, -145, -1260, -187, 345, 188, -275, 860, 83, 72, -143, 332, -422, -1012, -74, -468, 50, 248, -936, -1031, -1629, 346, 28, 119, -801, 144, -257, 634, 464, 240, -493, 146, -507, -263, 502, -377, 45, 106, -737, 462, -767, 1155, 1, 1032, -426, -1002, 78, -309, 348, 702, -2, -190, 17, -430, 237, 367, -198, 125, 506, 48, 132, 980, 838, 412, 200, -605, -45, 374, 117, 365, -1021, -800, 205, -452, -144, -68, 38, -31, 207, -278, 976, -250, 220, -60, 313, 90, 342, 512, -146, 378, 296, 183, -227, 459, 565, -273, -158, -39, -730, -485, -324, -52, 19, -404, -233, -264, 120, -399, 754, -260, -117, -476, -995, 168, 264, -994, 161, 313, 381, -473, -421, -308, -583, -521, 759, -358, -500},
{1600, -1219, 35, 289, -913, -68, 450, -335, -313, 549, -1115, -319, -12, -357, 183, 163, -269, 620, 1451, -399, 1010, 1121, 640, -302, 661, -93, 536, -427, -1096, 253, -238, -395, -1516, -755, -251, 575, 379, 155, 147, -536, -535, -421, 742, -119, -1440, -7, 239, -9, 264, 706, 286, -126, 421, -329, -1222, -208, 1197, -371, -852, -484, -43, 642, 355, -276, -840, -260, 65, 292, -430, -556, 204, -103, 695, -585, 81, -1207, 251, -129, 178, -513, -882, -546, 275, -1012, 515, -395, 567, -15, 327, 195, -381, 424, 1029, 625, 87, -346, 155, -1098, 167, -617, -900, 337, 262, -117, 446, -512, -198, -1167, -303, -395, -641, -366, -884, 437, -294, -595, 289, -213, 332, -1308, 680, -73, 150, 648, 715, -1222, 387, 802, 426, -526, 458, -131, -918, 0, -186, 317, -230, -582, 77, 193, 15, 355, 268, 247, 99, -69, -348, 730, 295, 359, -1015, -159, 473, -87, -136, -147, 373, 475, -768, -413, -106, -568, -330, 349, -270, 246, 125, -142, -231, 198, 404, 498, 39, 865, 331, -32, -482, -111, -780, -860, 360, -1893, 504, 271, 135, 323, 962, 35, -626, -324, -175, -600, 630, -155, 6, -956, 21, -111, -172, -60, -493, 299, 323, -562, 414, 497, 348, -1044, 287, 554, -381, 738, 644, 285, -228, 58, -294, -245, -218, -194, -866, -519, -975, -307, 1059, -171, -168, 417, -296, -430, -813, 535, -66, 409, -749, -396, 217, 1409, 806, 40, 127, -535, -698, 230, -893, 543, -155, 263, -510, 359},
{-464, -752, -1074, 1446, -642, -315, -262, -364, -614, -20, -430, 88, -817, 484, 715, -12, 178, -92, 657, -192, 90, 1232, -469, -692, -52, 24, 684, 352, -8, 420, 310, 679, 8, -200, -235, 279, -118, -225, 91, -430, -75, 980, 110, 638, 83, -316, 201, -1144, -746, 203, 627, -627, -657, 338, 235, -27, 1532, 120, -669, -520, -298, -883, -363, 399, 404, 14, 67, 85, -711, -663, -78, -60, -346, -225, -62, 494, 632, 600, 547, -734, 341, -1249, 416, 247, -432, -754, -849, -81, 228, -1381, -474, -1290, -196, 488, -322, 235, 302, -52, -149, 657, -197, 227, -401, 1023, -685, 144, 322, 1267, -121, 265, -712, 349, -13, 715, 309, -295, -544, 354, 188, 11, 570, -186, -397, 150, 354, 333, -617, -1031, 533, 40, -302, 1281, 575, 89, -101, -603, 205, 208, 1068, -709, 111, 427, 488, -118, -534, 22, 181, 23, -747, 696, -311, -183, 176, 22, -383, 403, -53, 153, 1000, -374, 377, 480, -1111, -46, -890, -509, 112, -280, 36, 388, 629, -950, -269, -914, -560, 271, -56, -1386, -503, -94, -376, -1049, -623, 342, -630, -509, -589, -47, -325, -260, -730, -199, -603, 283, -602, 760, 559, -75, 35, 301, 605, 383, 79, -439, 194, 86, 407, 733, 261, 23, -547, 322, -911, 52, 710, 859, -405, 529, 82, 30, -652, 23, -128, -421, -1174, -295, 542, 273, -546, 38, 181, 655, -353, -1275, -241, 555, 46, 258, -944, 59, 96, 259, 252, 67, -174, 234, 857, 166, 989, 1042},
{624, 956, -938, -783, -504, 201, -587, -444, 312, -323, -372, -39, 648, -757, 843, -200, 18, -454, -1014, 475, 575, -27, -26, 459, 35, 439, -504, 845, -27, -44, 550, 555, 95, 959, 195, -195, -214, 302, 202, -408, -64, 355, -271, 278, -402, 220, -205, -128, -1019, -1311, 531, 3, 662, -201, -600, -520, 303, 521, 113, 705, 110, 379, 1397, 362, -520, -123, -163, -696, -84, -687, 601, -543, -12, 245, 480, 1166, -526, 850, 716, 1152, -126, -91, -82, -302, 954, 214, 415, 272, -1280, -1806, -681, -522, -135, 642, 374, -968, -297, 76, -460, -355, 284, -456, -424, 1063, -105, 1074, 857, 183, 96, 786, 159, 71, -165, 329, 388, -316, -480, 464, 392, 273, -753, -982, -172, 364, 321, 667, 132, 9, -594, -14, 870, -1309, -221, 1020, 145, 170, 225, -65, -400, -1240, -457, -62, -124, 30, -188, 469, 212, 1042, 104, -549, 236, 204, -194, 1024, 135, -22, -88, -979, 315, 889, 542, 122, 772, 741, -137, -475, -977, -492, -608, -75, -158, -370, -539, 42, 78, 1164, -579, 636, -335, -622, -603, -379, 972, -1132, 883, -171, -407, -119, -602, 12, -428, -79, -1162, -809, -763, 656, 23, -896, 96, 53, -390, 829, 560, -154, 382, -73, 720, -1120, -292, 626, 69, 491, -393, -84, 36, 790, 81, 211, -745, 29, -118, 586, -487, -256, -182, 279, -1080, -516, -839, 282, -663, -1370, 562, -493, -36, -743, -139, 385, 18, 76, -463, 1067, 575, -307, -443, -497, -795, -284, -100, 252},
{-46, 563, 1860, 515, -67, -157, -417, -546, -536, 101, -187, -266, 352, 67, 1410, 145, -124, 373, 905, -989, 285, 266, 59, -255, -624, -207, 33, -635, -345, -241, -336, -422, -515, -1021, -625, -207, -688, 337, 801, -87, 250, -1615, 273, -565, -278, 155, -928, 382, -1180, 228, 817, 60, -625, 691, -529, -172, 345, 508, -259, 516, 233, 97, 409, -141, -130, 474, -900, 127, -569, -837, 6, -29, 631, 185, -439, 497, -901, -913, 691, -46, 81, -212, 924, 199, 899, 434, -882, 705, -47, 175, 429, -366, -694, 362, -73, -870, -657, 8, 663, 628, 627, 191, 164, -479, -523, 336, 90, -640, -188, 499, -840, 133, 669, 846, 765, 917, 619, 87, 915, -203, 187, 681, -639, -296, 314, -397, 438, -37, -430, 462, 541, 319, 48, -6, -116, -437, 798, 333, -178, -38, -561, -326, 748, -641, 846, -62, 35, -129, -269, -1342, 607, 72, -823, 670, -168, -31, 201, -346, -253, -177, -478, -396, 535, -495, 530, -692, 945, 1060, 29, 232, 223, 345, 64, -675, -217, -802, 366, 547, -142, 284, 1109, 337, 730, -10, 989, 147, -421, -885, -141, 443, -12, -17, 123, 383, 711, 681, -133, -1021, -177, -406, -373, -76, 894, -479, -657, -35, -612, 406, 625, 47, 1758, 822, -383, -466, 149, 130, 446, -979, -335, 405, 541, -450, -999, 44, 937, -525, 43, -947, 601, -36, -1183, 323, -394, 488, 172, -461, 651, -478, 60, -342, 60, 114, 16, 302, -435, 649, -770, -520, -1217, 217},
{-1012, -884, 72, -680, 364, -845, 647, 61, -1072, 725, 41, 10, 1667, 522, -68, -274, -849, -92, -1191, 141, 317, 614, 473, 322, 782, 260, 172, 135, -492, 569, -194, 153, -525, -293, -28, -1255, 221, -486, -650, 394, 481, 222, -357, -476, 740, -51, -275, -230, 7, -284, -290, -202, -406, 1022, 187, 43, 376, -859, 251, -1257, -190, 1022, -138, 666, -715, -1469, -748, -705, 189, -634, 53, -1008, 741, -2044, 99, 59, 292, 1355, 342, 226, -173, 350, 277, -600, 736, 444, -847, -330, -942, 80, 675, -271, -194, -1121, 584, 5, 432, -453, 572, 55, 601, 75, -427, -86, -1136, -52, 76, -1044, 241, -303, 58, -91, 59, 1034, 297, 687, -455, -16, 5, 377, -33, -796, -386, 23, -725, 217, -927, 63, 28, 34, 60, 54, 242, 456, -288, 299, -152, -357, -590, -968, -421, -181, 1035, 239, -961, 130, 95, -143, -948, 475, 483, 547, 13, -509, -40, -255, -825, -626, 48, 571, 719, -226, 814, -166, 25, 330, 734, -222, -193, -64, -345, -281, -1115, 481, -158, 662, -338, -346, -1001, 251, 183, 375, 152, 69, -598, 60, 323, 296, 342, 86, -358, 248, 1347, 543, 168, -347, 130, 477, 160, 42, 34, 494, 1204, -412, -13, -773, -540, -393, 114, -605, -234, 191, 87, 644, -129, -121, -1037, 348, 336, 628, 242, -316, 541, -546, -11, -722, 497, -807, -262, 605, -477, 261, -203, -451, 582, -3, 704, -178, -400, 998, 563, 210, 724, 284, -362, -233, -251, -198, 127, -571},
{714, -47, -134, -409, -310, -178, 275, -791, 444, 301, 28, -55, 425, 66, -146, -246, -747, 721, 569, -209, 60, 3, 658, 849, 191, -391, 1608, 250, -708, -655, 611, 684, 371, 616, -940, -44, -1117, -1065, 64, 93, -436, 954, -749, -305, -546, 5, -561, -406, 223, 1454, 652, 426, 548, 885, -432, 363, -1249, -27, -497, -429, 218, 20, -294, 855, -28, 27, 254, -77, -482, 164, -245, -586, 416, 986, 368, 96, 275, -434, 251, 85, -81, -331, 128, 312, -179, -1107, -473, -90, -805, 245, 124, 121, 596, -254, -379, -561, -582, 331, 1, -262, 838, 876, -696, 395, -796, -400, -636, -957, 64, -929, 19, -517, 30, 278, 1190, -347, -513, 857, -334, 280, 1849, 461, 160, 481, -826, -403, -324, 741, -218, 178, 622, -16, 260, 51, 437, -273, 1295, -517, 103, 1015, -523, 889, -228, -622, -396, 807, 145, -549, -890, -49, 312, -1139, -701, -343, -626, 1011, -902, 468, 823, 397, -1482, 114, -67, -204, -181, 235, 628, -702, -303, -921, 157, -419, 204, -84, -326, 858, -81, -569, -64, -1016, 251, -296, -493, -43, -505, -463, -269, -947, -1105, -617, 945, -4, 1279, -442, 320, -10, -1132, 828, -834, 65, -518, 929, -739, 279, -171, 454, 55, -187, -279, -596, 237, -299, 435, 1489, -306, -560, 137, 483, 469, -855, -167, 688, -948, -251, 802, -568, -208, -151, 577, -590, 686, -467, 249, -20, 379, 1135, -491, -680, -530, 241, 482, -574, 129, 363, -674, 65, -793, 43, 105, 303},
{-372, -110, -810, 269, -6, -188, -18, 73, 315, 63, -238, -107, -19, 345, -268, -55, -240, -890, -57, -927, 14, 660, 343, 52, -744, -1212, 8, 806, 35, 468, 1221, 372, 54, 626, 46, 403, -578, 362, 124, 712, -50, -103, -900, -263, -527, 318, -323, -344, -183, 985, -611, 973, -912, -1589, -875, 250, 386, -182, 31, -163, 666, -412, -863, -17, -218, 856, 216, 21, 247, 1128, 128, -881, 799, -129, -355, -253, 502, -377, -612, -203, 35, -618, 785, 160, -334, -212, 397, -305, 853, -834, -31, -426, 72, -906, 2, -401, 521, 150, -108, -18, -480, -80, -2461, 125, 626, -42, -288, -379, -608, 459, 1184, 978, 215, -901, 511, 468, 943, 340, -396, 1137, -39, -448, -19, 156, 225, -611, -251, -37, 228, 802, 96, -583, 591, -52, -355, -670, 588, -442, 109, 120, -82, 499, 51, -183, 387, -277, 392, 1425, -240, -546, -843, -105, 448, -867, 651, 1324, -622, -264, 371, -424, -547, -174, 356, -916, -1023, -314, -94, -1138, 255, -72, 91, -391, 4, 111, -153, -5, -130, 668, 462, 650, 324, 430, -376, -708, -622, -267, 81, -1769, 368, 892, -257, 1037, -491, -43, -452, 950, -167, -253, -87, -422, 458, 45, -599, 74, -72, -600, 345, -947, 851, -139, 429, -1170, -151, 1, -644, -822, -686, -146, -168, -121, 172, -302, 299, 350, -287, 947, 385, 1106, -112, 206, -394, 27, 1291, -290, 24, -32, -48, 38, 377, 87, -269, 442, 128, -476, -272, 789, -628, 291, 271, 47},
{-160, 691, 382, 657, -556, -994, -756, 387, 583, 51, -558, -751, 216, 711, 603, -637, -12, -1634, 322, 108, 514, 133, 77, 756, 1243, -339, -436, -158, -651, -57, -778, 690, 184, -1667, 759, -402, 662, 257, -792, 276, -23, 43, -540, 791, 141, -399, 547, -1, -1011, 359, -453, -460, 146, 685, -382, 89, 189, -347, -666, -693, 212, 569, 605, -293, -62, -369, -491, -411, 1846, -854, -432, -124, 312, 238, 634, 513, 1102, 173, 358, -263, 201, 355, -125, -74, 182, 497, -360, 129, 608, -120, 286, -111, 206, 264, 902, -765, -737, -780, 563, 523, 164, 231, -276, 602, 1422, -759, 322, -720, 128, -680, 989, 964, 652, 401, 334, 723, 126, -260, -626, -1119, -33, 683, 441, 906, -410, -449, -27, 274, 485, -360, -416, 889, -412, -31, 236, 432, -42, 602, -741, 937, 699, -1089, -737, -1186, -1379, -111, 256, 205, -240, -810, 699, -455, -242, 489, 899, 199, 527, -113, -148, 37, -74, 1054, -552, 641, 627, -404, 347, -52, 532, 709, -867, 437, -701, -825, 693, -437, 1416, 968, 212, -452, 120, -243, 979, -51, 469, -81, -265, 1340, -200, -83, -828, 451, 159, 780, 745, 523, 446, -189, 820, 224, -1273, 377, -329, 900, 564, 450, -238, -820, 64, 519, 57, -803, 968, -469, -1105, -169, 439, 506, 176, -58, -16, 184, -306, 219, 420, 328, 145, -705, 292, 181, 625, -211, -689, 438, -431, 570, -164, -76, 229, 98, -236, -1172, 988, 445, 133, -592, -761, 725, 84, 701},
{-591, 195, -241, 862, 640, -119, -91, -502, -1825, -357, -637, 25, -345, 1143, 326, 971, 1640, -253, -281, -997, -323, -24, 631, 548, 355, -495, -1314, 204, -813, -611, 585, -224, -1465, 387, 724, -737, 914, -816, -710, 386, -33, -132, -214, -355, 794, 404, 429, 877, 130, -279, 26, 130, -708, 12, 686, 2, 230, -341, 783, 74, 175, -495, -501, -447, -196, 107, -521, 332, 609, 439, -951, 241, 616, -852, 447, -285, 136, 655, -1600, -340, -53, -1019, 238, -17, 116, 583, -556, -56, -489, -260, -265, -289, -274, -628, -228, -355, 7, -1182, 146, -219, 61, 339, -176, 111, -704, -346, -440, -473, -550, 469, 306, 1149, -21, 225, 574, -496, -316, -215, 1070, 1167, -397, 92, 661, -407, 565, -360, 729, 79, -70, -1824, 180, -391, -542, 411, 507, 762, -113, -921, -661, 209, 571, 188, -25, -699, 1258, 1539, 259, 949, 283, 527, -3, 829, -362, -286, 282, -87, 406, -26, 124, -438, -1067, -523, -115, -249, -20, -356, -319, -730, 55, 135, 424, -815, 101, 260, -23, -597, 1097, -100, 210, -149, 207, -182, 607, 283, 47, -305, -270, 1250, 819, 89, 172, 235, -1609, 536, -374, 3, -103, 181, -342, -715, -19, 72, -972, 444, 652, -283, 323, 227, 608, -93, -163, -304, 393, 525, 628, 355, -233, -200, 392, -671, -585, 132, 1155, -749, -444, 159, 594, -420, 48, -518, 18, 21, -184, -776, 70, 655, -80, -521, -1170, -712, -523, 263, 1125, 123, 58, 6, 895, 615, 48, -676},
{741, 524, -1234, -1932, -421, 245, 261, 987, -62, 375, 349, 504, 1520, 466, -253, 52, -84, -182, -398, -32, -371, 9, -78, 124, 908, -799, -107, 548, 184, -1090, 992, -547, -28, -12, -201, -674, -68, -238, 868, 450, -517, 111, 549, -462, 241, -131, 47, -33, -73, -298, -508, -45, -136, -337, 148, -193, 675, 190, -1229, -251, 921, 567, -463, 279, -43, 642, -206, -339, 241, -444, 176, 402, -185, -871, -111, 387, -438, 469, 162, 215, 806, -712, 711, 602, -649, -232, 41, 512, -246, 24, 476, -85, 266, -244, 116, -614, -754, 85, 481, -637, 214, -161, 11, 1330, -34, 69, -362, 724, -350, 49, -505, -274, 1391, 88, -1, 137, -303, 240, 204, 443, -111, -748, 69, 76, 500, 847, 79, -21, -114, -359, -139, -255, 153, -377, -767, -1260, -507, -686, -84, 526, 168, 47, -455, -296, 153, 463, -227, 596, 107, 1172, -77, -127, -629, -192, -111, 575, 324, 38, -489, -199, -370, -282, -245, 225, 220, 243, -61, -829, 183, 132, -376, 228, 360, 211, -249, 162, 149, -144, 242, -999, 43, -949, -841, -97, -501, 633, -63, 239, 87, -777, -122, -20, -318, -157, -505, -773, 108, -1515, -349, 817, -881, 93, 265, -243, 135, -1206, -1047, -459, 433, 477, -210, -529, -355, -130, 130, 629, -165, -427, -84, -306, 673, 300, -285, 203, -255, -160, -1644, -260, -796, -160, 135, 337, 703, -268, -380, -138, -93, 231, -820, -573, -294, -557, 204, 416, 78, 441, -196, -205, -338, 482},
{-663, -401, -185, -475, -469, -428, -449, -684, -625, -1014, 228, -760, -695, 1258, -1049, -820, 216, -256, 127, 293, 111, -199, 360, 215, 486, -1402, -40, -135, -467, -519, 700, -620, -74, -740, 1087, -1078, -1270, -146, 161, 117, -20, -627, 478, 830, 51, -795, -325, 70, -320, 74, -288, -214, 357, -540, -1, -1327, 272, 181, 401, 215, -392, -371, 46, 72, -409, 235, -221, -713, -483, -462, 511, 800, -276, 349, -335, -961, -608, 63, 963, -54, 816, 225, 219, -61, 205, -668, -7, 475, -307, -446, -169, -568, -304, -440, -318, 318, 400, -676, -35, 8, 581, 11, -39, 8, 315, -297, 560, -113, 702, 846, 533, -684, -169, -398, 103, -53, 462, 779, -288, -108, -578, 213, -73, -494, 178, 324, -64, 423, -108, 252, -870, -194, 764, 209, 587, -59, 135, 6, -478, -482, -450, 446, 775, -378, -116, -11, -236, 237, 269, -852, 177, -358, -944, -973, -565, -328, -147, -100, 243, -686, 537, -509, -457, -57, 157, -739, -329, -716, 788, -252, -729, 1162, 333, 740, -677, 522, 609, -368, 775, -497, 1102, -237, 1237, -403, 660, -354, 239, -1224, -444, -577, -976, 595, 926, -396, 281, -95, 59, -733, 1813, 29, -308, -592, 342, -175, -33, -494, -363, -270, 24, -680, 1435, -86, -344, 77, -730, 456, -430, -571, 420, 425, 421, -646, 409, -360, 514, -134, -506, -208, -274, -19, 37, -113, -458, -171, 191, 207, 1124, -520, 226, -745, 836, 361, -289, -922, 201, -428, 433, -258, 19, -104},
{132, -111, 308, -652, 210, -331, -37, -524, 37, -747, 100, 69, -322, 1024, 1160, 385, 245, 1195, 548, -45, -32, -982, -521, -735, 222, -90, -270, -912, -394, 29, -292, 115, 42, 496, -1111, 465, -219, 162, 68, 718, -253, 198, 553, -70, -979, 174, -657, -46, -929, -978, -13, 676, 479, 9, 1107, -123, 613, -615, 1122, -407, 347, -841, -336, 619, 42, -649, -460, -437, 692, -184, 31, -38, 529, -502, -920, 944, 932, -355, -588, 304, 10, 192, -42, 163, 220, 671, 192, 700, -511, 724, 78, -670, -158, -1210, 931, 170, 495, 212, 690, -32, -132, -121, -67, -68, -85, -752, -239, -156, -145, 556, 124, 720, 259, 187, 385, -607, -414, -450, 117, -46, 818, -148, -27, -180, 387, -11, -115, 320, 889, -636, 100, 219, 393, 132, -86, -316, 774, -248, 793, 1228, -664, 124, 973, 1089, -355, 112, -1015, -427, 228, -471, 301, -215, -61, -19, 1233, -585, 377, 583, -270, 282, -567, 27, -285, -118, -433, 36, -575, 70, -441, -1105, 1235, -208, -334, 195, 139, -551, 463, -164, -212, 176, -762, 925, -1496, -227, 679, 330, -139, -261, 156, 75, 708, 320, 674, -1083, -326, 492, -108, 316, 95, 162, 148, 353, 345, 159, 311, 801, 106, 348, 67, 356, -837, 1096, -433, 209, 1028, -587, -319, -186, -67, 372, -261, -1125, 63, 239, 78, -56, -278, 481, 227, -158, -27, -152, -494, -253, 260, -690, 565, -851, 370, -321, 31, -380, 403, -778, 239, -1010, -276, -128, -191, 418},
{83, 304, 5, -461, 288, 4, 515, 473, -542, -572, -547, 469, 650, 256, -262, 1074, -207, 340, -250, -539, -665, -852, 44, -82, -873, 406, 449, -642, -890, 440, 524, 479, 442, -1220, -860, 311, -136, 179, 994, -773, 1, 587, -521, -429, -663, -244, -164, 595, 871, -258, -195, 94, -548, -668, 31, 885, 196, 660, 780, 379, -724, -582, -733, -358, 554, -453, -423, -243, -242, -306, 531, -120, 50, -145, -86, -46, 269, 157, -811, 631, -401, -471, 1332, 327, -568, 519, 200, 943, -534, 1159, 163, 51, 451, -542, -604, -677, -775, -199, -426, 129, -234, 17, 1638, -164, 645, -25, -490, -143, -95, 464, 115, -35, 920, 323, 831, 921, 159, 598, 43, 430, -104, -161, -269, -224, 170, 40, 440, 230, 999, 264, -651, 70, 651, -52, -513, -468, -728, 535, 103, -128, 228, 403, -226, -665, 927, -502, 110, 840, -223, 1189, -35, -553, -432, 43, -703, -407, 161, 485, 120, -380, 844, -380, -496, -168, 383, -279, -282, -362, -1176, -488, -885, 540, 402, 125, 217, 579, 174, -362, -156, -308, -20, 445, -11, -96, 156, -922, 361, 1432, 368, 548, -301, -357, -1465, -424, -367, 582, 97, 560, 251, -58, -313, 59, -295, -624, 382, 55, 430, -314, 24, -25, -177, 109, 1689, -810, -361, -52, -450, -511, -935, -574, 383, -417, 218, 385, 944, 484, 195, 185, -835, 266, -312, -316, -510, 149, 131, -794, -737, -947, -478, 473, 591, -474, -61, 181, -290, -188, 901, 120, -533, -296},
{627, -77, -564, -957, 111, -58, -14, -55, 938, 66, -548, 68, -839, 100, -274, 750, 522, -50, -629, 611, -924, 1153, 132, 195, -594, -533, -195, 810, -511, 852, 713, -606, -1131, -169, 620, 410, 916, 804, -233, 819, -570, -105, -889, 209, -567, 145, 500, 541, -1126, 1270, 850, -406, -321, -424, 423, 51, 106, 115, -170, 376, -75, 194, 652, -200, -246, 520, -64, -147, -376, 584, 485, -268, 444, -142, 55, -94, -887, -38, -197, 733, 355, -20, 125, 283, -252, 181, 381, 425, -260, 322, 264, -719, 140, -186, -235, 169, -903, -315, 602, -137, 485, 189, 745, -439, 71, 1270, -58, 493, 147, -125, -720, -480, 604, -122, -124, 652, 972, 460, -539, 2, -690, -67, 706, 1467, -449, -744, -38, -350, -884, 59, -1225, -318, 52, 54, 415, 47, -181, -208, -33, -318, -32, 236, 617, 1150, -83, -160, -352, -741, -72, -389, -541, 510, -15, -413, -420, 214, 390, -857, 224, 164, 535, 764, -994, -549, -177, 321, 463, 538, -462, -236, 3, 166, 1022, -773, -545, -861, -380, 854, 163, 996, 752, -901, 683, 17, -1337, 347, -121, -606, 466, 526, -413, -457, 448, 1054, 103, -17, -14, -40, -815, -746, -831, -212, 404, -702, -221, -386, -497, -320, 714, -694, -281, -389, 80, -248, -1284, 163, 986, -1754, -584, -435, 243, 76, -431, 700, 180, -679, -426, -433, 191, -438, 762, 69, 225, -4, -289, 491, 166, 535, -995, -1459, 286, 422, -146, 724, 99, -498, -42, 398, -615, 267},
{173, -452, 3, 459, -820, 316, 253, 174, 20, 288, -105, 273, 240, 10, -28, -13, 1041, -273, -353, 267, 434, -634, -202, 505, 346, -322, 164, 144, -809, 164, -43, -200, -562, -1220, -917, -966, 802, -614, -15, -165, 295, 722, -317, -411, 1077, 277, -30, 449, 284, -1348, 988, -541, 45, 342, -610, 442, 1047, 334, 309, 96, 292, -126, -697, 301, 286, 802, -12, 69, 359, -1098, -667, 140, -241, -34, 161, 1320, -503, 63, 268, -295, 276, 11, 36, -95, 366, 75, 546, 125, 142, -342, 134, -246, 178, 278, -976, -136, 103, 1126, 629, -336, 1203, -1464, 466, 572, 545, 510, -359, -655, 331, 633, 206, 802, -390, 232, 420, -67, -642, 377, -429, 118, -232, 566, 162, 892, -338, -1267, 902, -1630, -856, 243, 27, -29, -561, -154, 423, 343, -73, 60, -284, -1053, 313, 389, -367, -28, -1179, -551, 509, -401, 36, -15, 1029, 332, -1036, 1092, 261, 208, 909, -216, 531, -345, -732, -130, -161, -310, 75, -186, 199, 124, 117, 62, 252, -295, 740, -334, 93, 223, 413, -744, -491, 1013, 732, -26, 1130, 482, 65, -584, -52, -144, -1422, 441, 322, -135, -852, 467, 748, -572, 391, 385, -734, -229, -33, 131, 304, 24, -446, 272, 104, -432, -195, 545, 649, -65, 487, 746, -394, -494, 626, 48, -22, -358, 155, -74, 188, -797, -263, -108, 49, 1515, -269, 355, 132, -99, -82, 33, 1038, 298, 1114, 190, -85, 931, 835, 183, 467, 242, 333, -917, 14, 597, -627, -421},
{-792, 6, -736, -347, 284, -431, -34, 536, -82, 65, -139, 1026, -816, -1128, -181, 527, 310, -381, -701, -77, -44, -52, -478, -252, -70, -189, -236, 1243, -151, -866, 691, 617, 202, -221, -239, 479, -262, 169, 228, -166, -767, -287, 935, -437, 154, 323, 123, -718, 536, -67, 577, 85, 147, 157, -289, 222, 172, 296, -265, -247, 265, -569, -238, 608, -343, -33, 365, -1007, 56, 637, 69, 103, 64, 198, 120, 9, 926, 620, -234, -636, -96, 482, 69, -840, -176, -855, -53, 139, -956, -92, -323, -145, -113, 525, 132, -27, -209, 1141, 141, -356, 177, -178, -833, 1318, 40, 339, -179, -15, -579, -520, 480, -284, -297, -315, -78, 224, -139, 256, -141, 399, -109, -554, -329, 415, -315, 434, 384, -366, 480, 253, -629, -550, 788, 297, 876, 427, 524, 106, -55, -296, -45, 587, 714, 214, -137, -737, -9, 57, 1, -641, 578, 486, 380, 583, -954, -423, 762, -287, -302, -20, -164, 25, -953, 634, -312, 311, 151, -167, -205, 240, 199, 46, 793, -109, 493, 88, 58, -165, -52, 467, -404, 363, 9, -32, 318, 163, 171, -270, -1518, 147, 486, 573, 98, 506, 786, -656, -29, 601, -483, 617, 1422, 277, 358, -1054, -62, -329, -664, 1006, -412, -494, 38, 269, 153, 148, -253, 24, -690, -190, 213, -137, -482, -367, 137, 394, -127, 156, 8, -48, 54, -70, -410, -211, 588, 395, -57, 205, 152, -146, -95, -276, -221, 216, 750, 726, 255, 380, 1255, 213, -376, 31},
{297, -195, -437, 234, -509, -332, 97, -53, -451, -801, 121, 176, -24, -723, -89, -369, -376, 281, 1, 485, 700, -157, -633, -161, -903, 4, 173, 62, -308, 779, 995, -6, -98, 641, -740, 210, 441, 371, -202, 454, -502, -845, -137, 196, -657, 30, 399, -1053, -1063, -325, -165, -379, 417, -52, -344, 5, -582, 485, 53, 82, -711, -136, -610, -193, -168, -173, -52, -813, -31, -428, 161, 172, 389, 800, -1276, 441, -191, 263, 481, -957, -520, 301, -543, -45, -90, -700, -618, -837, -73, -61, -280, 457, -76, -144, -519, -230, -547, 94, -48, 239, -100, -553, -108, 286, 327, -239, 241, 558, -561, -210, 276, -162, 1344, -202, 868, -285, -383, 591, -392, -167, 97, 109, 1203, 356, 477, -507, 411, 697, 157, -304, -456, -1112, 126, -228, -132, 66, 744, 757, -490, 144, -628, -680, 196, -777, -117, -291, 1311, -850, 450, -187, 333, 652, -470, 294, 137, 222, -274, -840, 188, -171, 392, 278, 138, 566, -126, 1048, -231, 83, 492, 689, 563, 46, -412, 102, -407, 722, 380, -218, -1002, -91, -464, -613, -908, 382, -602, -39, 68, -31, -209, 348, 1101, 768, -215, -56, 12, -375, 23, 369, 127, -146, 363, -307, 237, 1323, -570, 252, -537, -750, -976, 175, 68, 338, -144, -173, -463, 1150, 46, -69, 549, -346, 652, 34, -133, -216, -503, 936, 584, 315, 520, -662, -279, -433, -7, -328, -1197, -207, -992, 199, -252, 364, 122, -374, -253, -230, 662, 157, -131, -146, -186, -55},
{-258, -547, 285, -203, -70, -20, -448, 291, -625, -611, 345, 722, -200, -1120, -523, -884, -92, -1251, 652, 566, -687, -155, -270, -1073, 449, -576, 268, 539, -115, -652, -388, 661, 698, 786, -1387, 6, 293, 359, 701, -253, 426, -50, -1133, 202, -579, -60, 772, 96, 508, 202, -160, 497, 242, 1070, -59, 461, 52, -184, -803, 391, -119, 353, 306, -37, 552, 406, -47, -240, 325, 13, 138, 24, 274, 76, -38, 227, -168, -212, 6, -139, 594, 156, -739, -769, -23, 23, -447, 460, 105, -650, -164, 249, 247, -115, -190, 168, 295, 266, 271, 196, 100, 708, -39, -404, 136, -316, -567, -408, 485, 555, -428, -517, -594, -666, 255, -1147, -58, -120, 223, -698, -2243, -538, 12, 465, 573, -507, -768, 956, -41, 342, -430, -4, -1169, -210, -596, 483, 1510, 89, -218, -836, 72, 331, -850, 455, -85, -344, 676, -516, 260, 316, -1167, 46, -1134, -650, -849, 106, 235, -537, 615, -1020, -1020, -684, -398, 386, 250, 517, 832, 522, 523, -587, -541, -384, -27, 115, -329, -799, 135, -391, 370, -333, -330, -100, -451, -648, 179, 297, 563, -89, -33, 479, -188, -317, 622, 208, 499, -481, 705, 481, 163, -455, 427, -148, 674, -842, -100, -479, -543, -862, -84, 159, 492, -398, -1506, 64, 1217, 565, -206, -423, -1410, -213, -311, 614, -485, 802, -510, -107, -108, 462, 316, -1041, -1565, -366, -43, 386, 539, 907, -302, 119, -145, -73, 17, 128, 33, -77, 55, -201, -813, -181, 330, 474},
{-352, 39, 382, 346, -233, 634, 212, 914, 1161, 14, 589, -1051, 524, -586, 1217, 668, 454, -164, -1562, 439, 110, 166, 759, -948, -115, 16, -39, 29, 1081, 558, 162, -373, -517, 216, -501, 43, -92, -466, 217, -46, 97, 19, -75, 285, -368, -673, -148, -44, 313, 414, 370, -197, 711, 142, -602, 402, 735, 414, 218, -138, 84, -475, 94, 480, 28, 375, 616, -530, 243, 250, -19, -86, 218, 178, -311, -441, 465, 954, 1090, 84, 269, -1456, 358, -273, 218, 356, 404, 294, -850, 435, 1029, 11, -417, -736, 192, 667, -310, 361, -1121, 2, -29, 452, 88, 365, -584, 980, 125, -284, 263, 520, -505, 351, 548, -103, 456, -104, 246, 933, -184, -801, -1246, -243, -1233, -606, -50, -164, -364, -821, -487, -829, 1109, -202, 1034, 306, -411, 773, 1321, -746, 66, 429, -25, 680, 174, 789, 696, -122, 452, -1252, 657, -117, 190, -664, 882, -627, 65, 704, -107, 847, 185, -46, 908, 1026, -1367, 3, -649, -510, 437, 459, 539, -480, 142, -1553, -97, 1013, 221, -83, -295, -714, -375, -815, 563, -240, 80, -1049, 11, -549, -484, -250, 463, -179, 584, -457, 1228, 161, 240, -182, 882, 440, 57, 199, -32, -637, -550, -218, 123, 266, -54, 65, -343, -487, -176, 256, -208, -527, 173, -6, 760, 220, 637, -122, -66, 372, -533, -55, 483, 177, -127, -357, 942, -292, -165, 165, -130, 38, 51, -105, -13, 216, -542, -667, 110, 16, -230, -330, 408, -226, -409, -448, -80, 188},
{-692, 102, 1303, -266, 1395, 659, 191, 202, 73, -95, 676, -545, -127, -132, 157, -647, -175, -103, 171, -681, -327, 442, -309, -340, 174, 406, -46, -276, 190, -581, -596, 883, 22, 275, -495, 309, -174, -1353, 293, 254, -447, 130, -146, -110, -573, -1048, 811, -267, -667, -48, -163, -7, -548, 482, -682, 352, 596, -719, 731, 783, 1285, -114, 199, -219, 32, -140, -1174, -146, 335, -593, 115, 298, 558, 409, -477, -576, -453, -31, -718, 179, -494, 460, -85, 416, -44, -348, 160, 699, -397, -316, -140, -269, 606, 296, -895, -70, -34, 105, -491, 383, -319, 70, -613, 493, 193, -182, -326, -265, -103, -810, -64, 406, 236, -57, -134, 94, -713, -567, -249, -274, 374, 812, -488, -399, 302, 236, 846, -171, -39, -56, -775, 240, 775, -195, 324, 526, -229, 508, 1014, 932, 534, -285, 18, -749, 468, 355, 169, 850, 732, 445, 313, -552, -372, -646, 55, 1095, -100, -503, -492, 387, 262, -140, -954, -101, -830, -517, 183, 264, -79, 261, -78, 364, 606, 644, 109, 129, -139, 1109, -292, 381, -85, 99, 104, -559, -241, 164, 516, -453, 600, 423, -340, -498, 358, 132, -371, -491, 380, -330, -1136, -743, 380, -516, -42, 100, -156, 366, 736, 789, 587, -298, -394, -286, -541, -208, -588, -169, 163, -153, 98, 432, 64, 212, -257, -112, -106, 347, -655, 271, -411, 701, -718, 258, -187, 214, 265, 902, 24, 233, -312, 331, 633, -879, 15, 288, 5, 60, 849, 127, 237, -262},
{88, 381, -188, -844, -545, -580, 451, -682, -284, 262, 725, 13, -351, -187, -306, -1115, -190, -621, 313, -722, 420, 847, 284, 57, 333, 41, 240, 304, 442, -109, -963, 375, -158, 505, 587, -1214, 584, 247, 609, 557, -160, -142, -36, -120, -102, -931, 543, -678, -177, 371, 531, -741, 393, -611, 480, -371, -267, 527, 439, -615, -865, -656, 295, 448, -94, -755, 210, 421, 24, 489, 86, -240, 446, 411, -30, 328, 25, 571, -91, -453, 331, 54, -405, 894, -670, 454, 114, 1245, 829, 322, 20, -1113, 147, -2546, -516, 279, -74, -532, 1122, -384, 381, 833, -244, 151, -1091, -528, 88, -682, -117, 134, -270, 69, -156, -231, -809, 150, 48, 198, 413, -77, 196, 536, 147, -132, 486, -547, -238, -178, 92, 73, -6, -640, -210, -639, 380, 570, 708, -205, -203, -194, -276, 22, 523, -442, -491, 340, -919, -277, 721, -522, 417, 1074, -171, -81, 104, 482, -147, -533, -513, 153, -494, -786, -702, 786, 198, 135, -134, -106, 224, 209, -415, -558, 1495, -711, -141, 70, 669, -48, -35, 769, -467, 444, -489, 900, 87, 1373, 230, -1198, 441, 613, 326, 149, 304, -15, -599, -612, 301, -871, 253, 65, 89, 131, 22, -293, -9, -539, 702, -65, -80, -1712, -346, -167, -166, 545, 718, -18, 1, 70, -238, 399, 372, -926, -903, -469, 709, -231, -804, 304, 407, -244, -909, -269, 548, -411, 780, 736, -76, 182, -190, 282, 159, 31, 621, 1249, -318, 238, -988, -440, 128, -278},
{747, -391, -760, -556, 1122, 428, -31, -1582, -1068, 213, -328, 575, 488, -409, -777, -361, -18, -204, 277, -448, -184, 617, -295, 355, 129, -85, -1102, -29, 496, -146, -280, -47, -616, 298, 2, -221, 565, 490, -368, 1231, 47, -277, -535, 527, -229, -274, 520, 382, 235, 246, -248, 746, -314, 702, -646, -43, -412, 79, 71, 788, 193, -569, 227, 128, 296, -202, 625, -67, -189, -376, -271, -192, 869, 141, 135, -375, -547, -454, 146, 596, 612, -741, 273, -288, 326, 476, 134, 37, 225, 507, 28, 24, -1085, -248, -951, 668, -259, 65, 49, 598, 272, 201, -1116, -132, 856, 244, 658, 351, -1473, 895, -140, 265, 658, -210, 504, -269, -285, 395, -251, -417, 73, 129, 271, -941, -347, 654, 178, -446, -346, 220, 226, 116, -226, -477, -272, -115, -717, 158, -479, -496, -454, -278, -521, -338, 141, -645, -132, -660, 157, -203, 87, 259, -258, 89, 659, 268, 855, 497, 1349, 32, -522, -166, -222, 550, 338, 208, -108, -537, 308, 134, -791, 548, 194, 162, 163, 829, 472, 147, -769, -211, 485, -10, -570, -362, -404, -131, -38, -755, 1012, -142, 205, 401, 146, -121, 361, -275, -3, 128, 890, 514, 273, -277, -516, -545, -321, 447, 120, 94, 131, -197, -69, -239, -187, -192, 4, -234, -171, -550, -728, -102, 521, -429, -1131, 54, 37, 286, -272, 18, -5, -606, -908, 95, 482, 38, 418, -537, -300, 122, 350, -253, -322, 136, 429, 81, -451, -682, -1150, 596, -983, -223},
{-239, -167, 757, 355, 102, -427, 304, -309, 62, 78, 276, 15, 95, 568, 1192, 615, -36, 143, -1033, -84, -97, -710, -664, 475, 369, -262, 849, -511, -479, 248, 275, -523, 313, 141, 803, -188, 564, 718, 184, 1083, 383, -107, 32, -122, 398, -517, 699, 64, 294, -33, -108, -153, -264, -42, 841, -203, 186, 137, 378, -552, 463, 37, -318, 437, -747, 531, -45, 235, 430, 494, 2, -390, -165, 594, 225, 104, -222, 560, 317, -573, -100, 938, 461, -836, -143, -585, 707, 312, 527, 7, 503, -568, -12, -542, -301, -9, 385, -49, 1029, -858, -633, -391, 301, -57, -79, 250, 25, 232, -401, 881, 61, -65, -28, 187, -769, -794, 74, -73, 812, -615, -832, -848, -75, -61, 106, 208, -463, 101, 1386, -360, -82, -527, -107, -5, 221, 650, -288, -150, 179, 442, 413, -276, -242, 90, 184, -1273, -106, 145, -467, 440, 108, -903, 260, 188, 747, 253, 593, -515, 413, 324, -393, -247, -59, 142, 753, -1035, 83, 371, 184, 380, -450, -48, 978, -406, -205, 8, 169, -45, 16, 189, 511, -534, 1002, 795, -59, 326, 574, 324, 386, 158, -138, 344, 62, 124, 590, 408, -346, 4, -1574, 379, 191, -330, -314, -378, -435, -31, 182, 237, 813, 350, -188, 531, 834, -952, 120, 1155, -108, -456, -163, -37, 278, 727, -121, 562, -18, 324, -449, -72, 31, 703, -340, -40, -638, 698, -200, 156, 392, -452, -54, 150, 1085, 43, -970, -912, 32, -11, 922, 127, -581, -504},
{-1038, 40, 731, 655, 890, -1672, -984, 459, 462, -399, -408, -238, 359, -603, 558, -279, 1216, -195, 30, -481, 830, -469, -266, 3, -1, 466, -673, -1270, -166, 113, -995, -142, 9, 666, 39, 371, -724, -89, -482, 47, 49, -353, -111, 501, -28, 140, -174, 851, -58, 109, 595, -535, 416, -99, 742, 138, 833, -258, -462, 367, 218, 497, 632, 46, 96, -465, 332, 305, -888, -683, 673, -653, 872, 852, 124, 74, -36, -191, 471, -783, -467, -510, -507, -473, 719, -416, 247, 367, 1036, -681, 109, 774, -101, -696, 496, -627, 614, -1172, 310, -1, -490, 1042, -180, 24, -1179, -47, -662, -176, -406, -82, -166, -360, 253, -68, 475, -447, 623, 382, -375, -1198, -819, 384, 917, -201, -318, 870, 996, -1024, 538, 459, 166, 243, 771, 594, 80, -351, 96, -812, 257, 236, -681, 651, 619, 479, -343, 7, 180, 128, 308, 227, 297, -689, -742, 419, 767, 351, 50, -490, -79, -206, 920, -399, -981, 207, -480, 664, -75, -552, -265, 480, 530, -870, -396, -406, 88, -1054, 27, 250, 419, 27, 127, -229, -26, 871, 949, -281, -118, 478, 222, -126, 186, 290, 248, -371, -663, 384, -257, 327, -880, 71, -759, 376, 1041, -242, -803, -298, 593, -842, 80, -484, -194, 211, -409, -676, 448, 7, 307, 0, 434, -232, 175, -680, 449, -220, 163, -1069, 510, -132, -283, 52, -379, 115, -203, 658, 565, 38, 253, 245, 1197, 584, 438, 413, -148, 174, -226, -450, 458, -157, 117, -982},
{-196, -656, -835, -618, 79, 559, 252, -33, -200, -189, -634, -441, -254, -1008, -218, 18, 774, -48, -16, -550, 930, -593, -316, -95, -359, -359, 199, 150, 218, -357, -153, -102, 228, 749, -348, 196, 61, -101, 845, -946, 171, 599, -1466, 317, -11, -1128, -365, -939, -816, -63, -404, -303, -191, 432, 893, 1228, 391, 143, 533, -107, 408, -999, -712, -179, 999, -628, 492, -839, 1167, 495, -71, -567, 171, 622, 30, 21, -518, 450, 167, -337, -210, 892, -380, 658, 553, 251, 307, 408, 647, -686, -590, -1205, 545, -163, 19, -810, -534, 711, -383, 574, -598, -113, 60, -34, -998, 171, 118, 213, 148, -34, 1044, 234, 284, 1189, -220, 943, 700, 271, -564, 268, -1053, 663, 142, -926, 528, -378, -758, 116, -493, 208, 936, 366, -474, -403, 628, -1066, 106, 500, 700, 1290, 646, -302, -661, -41, 780, -445, 641, -782, -634, 515, -344, -210, -640, 155, 357, -134, 87, 225, -1127, -161, 193, -268, -347, 3, 777, 82, -1, -188, -507, 303, 261, 133, -288, 294, 140, -761, -30, -332, -318, -542, 145, 172, 1035, -173, -205, 979, -121, 573, -54, -6, -571, 274, -749, 416, -410, 64, 388, 321, -647, 330, 439, 711, -522, 110, -190, -639, 1117, 207, -539, 201, -366, -376, 672, 46, 157, -170, 131, -1198, -221, -1139, -539, 69, 811, 703, -720, -387, -529, -168, -393, 811, 36, 74, -955, -142, -594, -30, -58, 531, -722, 212, -959, -301, 559, -203, 1679, 497, -708, -485, -604, 244},
{543, 297, 268, 141, -355, 920, 27, -970, -133, 91, 51, 270, 522, -366, -886, 210, -922, -429, 646, 1320, 1079, 858, -471, -623, 718, 473, 186, 433, -351, 197, -1065, 1259, 981, 421, 651, -536, -90, -586, 1122, -856, 152, 850, 94, 366, -854, -8, 100, 51, -1623, 240, -56, 171, -15, -177, -742, 82, 540, -583, 930, 48, -302, -67, -211, 458, 339, -54, -149, -223, -399, -12, -404, -1045, 742, 223, -521, -802, -197, -955, 1313, -1020, 303, -103, -186, 692, 222, -97, 312, 332, 367, -949, -624, -380, -11, 847, -733, -393, -338, -500, 384, -196, -502, 270, -906, 1221, -565, -1497, 20, 434, 629, 289, -668, 343, -682, -642, -379, -22, 907, 8, 84, 484, 214, -277, 393, -808, -143, 265, -302, 1091, 165, 794, 92, 426, 360, 263, 122, 105, -671, 417, 637, -180, 498, -362, 293, 487, 676, 656, -23, 941, -404, 17, -33, -933, -99, 524, 952, -730, 830, 321, -540, 456, -73, 118, 290, -1129, -886, 261, 631, 1178, -553, -385, -1532, -695, 439, -89, 548, -65, -652, -410, -1087, 169, 82, 837, 827, -324, -371, 172, -244, -899, -535, 163, -6, -145, -521, 178, 237, -170, -186, 240, 45, 323, -52, 1341, -725, -405, -443, -303, -580, -290, -317, 4, -1309, -135, -1290, -359, -233, -889, -944, 531, 393, -136, 493, -526, -884, -3, 762, -680, -707, -564, 258, 137, -753, -862, 853, -568, -967, -242, 57, 662, -917, 1219, -22, 144, -101, -162, 515, -897, 955, 504, 1304, 5},
{675, 179, 87, -662, 16, 172, 861, -58, 125, 348, 617, -1085, -648, -178, -566, -313, -776, -590, 1175, 113, -503, 251, 0, -451, 10, 619, -193, 226, 363, -517, -372, -546, -283, -245, 353, -131, 3, -727, 617, 940, -96, 596, -990, 546, 1077, -89, 586, -308, 270, -1010, 359, -721, 35, -572, -229, 850, 549, 413, 429, 908, 19, -478, 481, -236, 13, 737, -641, 330, -408, -389, -793, -943, -470, -964, 475, 119, -33, -35, 565, -245, -593, 863, 129, -436, 1245, 321, 148, -55, -264, -583, -244, -466, -61, 158, -157, -705, 51, -775, -113, 263, 362, 78, 126, -224, -1019, -392, 820, 791, -22, 753, -5, -110, -872, 21, 158, 203, -104, 859, -92, 385, -125, -215, 344, 1088, -200, -247, 474, 13, -1448, -706, -1008, -135, -648, 149, -419, 483, -597, 223, 179, 168, -253, 482, 206, 130, -194, -320, 898, 671, -85, 588, 579, 162, 506, 47, 432, -43, 197, -517, -501, 317, -444, -318, 403, 1060, -313, -388, 437, -460, 132, 575, 767, 554, 1031, 56, 245, 502, -753, 710, -288, 231, 482, 405, -248, 722, 403, 112, -496, 518, 44, -108, 61, 159, 1381, -440, -107, 254, -205, -776, 42, -18, 276, 1451, 166, 380, -203, -46, 1441, -196, 1176, -96, 708, 210, 103, 799, 57, 1226, -488, -305, 151, -179, -174, 530, -736, 549, -413, 1288, 111, -124, 39, 339, -200, -382, -212, -149, -1119, 368, 64, -1222, 229, -475, -163, -246, -362, -183, -203, 632, 395, 597, 216, -182},
{920, 17, 857, 961, -134, -874, 322, 483, -407, -23, 766, 37, 38, -37, -178, 1120, 931, -174, 23, 102, 248, 25, 286, 1014, 423, -656, 465, -278, 209, 325, 128, 28, -383, 56, 677, -70, 197, -168, -356, -59, -514, -904, -321, -488, -765, -583, 11, -506, 614, 28, -880, -461, -226, 1033, 762, -262, -135, 116, 1, 1326, -397, -15, -139, 1, 577, 372, -689, -154, 963, 1056, -349, 3, -584, 479, 90, -339, 84, 176, -431, 257, -673, 188, 8, -320, 98, -166, -226, 389, -437, 537, -323, -484, -18, -326, 704, 516, 201, 457, 257, 543, -383, 676, -624, 75, 537, -1136, 282, -896, 315, 732, 84, -409, -647, -475, -221, 98, -195, 151, 697, 454, -240, 106, -124, -101, 54, 98, 236, -563, -292, -519, 183, -801, 237, -516, 133, 682, 123, -987, -236, 1084, -455, 99, 598, -27, 236, -655, -94, -875, 183, 397, -3, 332, -24, 811, 138, -190, 44, -1044, 44, -103, 1148, -64, -365, 423, 394, -160, 225, -384, -392, 676, -821, 257, -233, -36, 93, -102, -1751, -748, 884, 131, -56, -849, 749, 1072, 403, -244, 352, -57, 177, 330, 336, 413, -422, 361, -772, 458, -395, 336, 462, -427, 502, -315, -997, 541, 68, -146, -93, -437, 30, -32, 886, 467, 236, 335, 304, 447, -814, -104, -141, -108, 709, -279, 345, 498, -1534, 443, -51, 472, -679, -120, -586, -879, 225, -276, 29, 114, 175, 466, 314, -182, -62, -23, 869, 157, 508, 461, -390, -158, -540, 643},
{-551, -573, 640, 40, 84, -643, -1570, -456, 301, -375, -351, -35, 650, -474, -768, -765, -286, -865, 326, -886, -598, -181, -338, 5, 385, -671, 370, -415, 330, 313, -210, -856, 417, -84, -620, 177, 225, -340, 412, -796, 442, 27, -913, 1282, -4, -708, 209, 644, 567, 383, -54, -1373, 305, -244, 209, 72, 569, 702, 324, -885, 163, 110, -424, 148, -822, -959, 396, -123, 714, 592, -344, 824, 70, -238, -221, 33, -22, 629, -364, 870, 219, 460, -68, -257, 351, -342, 441, -18, -543, -68, -23, 166, -4, 525, 481, 311, -504, -98, -91, 171, -397, -234, -1022, -20, -596, 414, 26, -320, 90, -193, -582, 298, -524, -944, -709, -389, -14, -1113, -280, 1078, 489, -589, -136, 309, -463, 452, 61, 157, -234, 295, -1466, 53, 62, -166, -705, 866, 290, 303, -98, -343, -60, -132, 57, 306, 81, 1266, 662, -93, -40, -736, 1062, -619, -109, 762, -468, 310, 539, -121, -284, 202, -176, 436, -53, 149, 402, 44, -208, 84, -328, -511, 860, 636, 418, -205, 805, -232, 874, -630, 510, 850, -165, -480, 573, 74, -143, 783, 347, 496, 1358, -1011, -261, 255, -641, -66, -683, -472, 300, -729, -407, -79, 298, 662, 105, -1289, 58, -622, 418, -187, 1035, 136, -633, 356, 168, 363, -917, 481, -706, -82, 265, 272, 20, -62, 824, 62, -192, -563, 45, 1239, 727, 929, -762, 88, 1307, 111, 1282, 480, 429, 25, 199, -1111, 314, 842, 365, -1205, 839, 516, -205, -3, 10, -280},
{-204, 348, 245, -799, -471, 239, -139, 262, -647, 1025, -601, -704, 128, -1468, 444, -337, -209, -711, 616, -34, -445, -480, -192, 25, 85, -385, 101, -461, 649, 415, -491, -441, -315, -259, -613, 211, -156, -56, -217, -179, 876, -78, -355, 201, -417, -702, -313, 298, -541, 854, -146, -603, 672, 658, 477, -186, -408, 364, -318, 104, 294, 622, 13, -476, -331, 395, -383, -40, 509, -29, 41, -1391, 127, 115, 207, -87, -503, 240, 714, -1313, -870, 526, 12, -63, 402, -881, -284, -583, -527, -247, 330, 954, -595, -897, 164, 476, 925, -256, 508, 21, -305, 824, 944, 899, -333, -429, -275, 9, 182, 284, 87, -490, -440, -18, -477, 139, -129, -486, -224, -1034, -527, 69, -227, -721, 1251, 618, 338, -639, -522, -152, 0, 480, 651, 353, 315, 1227, -496, 82, 288, -884, -6, -139, -101, -1145, 267, 47, -60, 416, 920, 520, -410, 332, 68, 567, 399, 384, 641, -251, -63, -214, 62, 518, -619, -721, -65, -610, 0, -38, 845, 14, -182, 133, 257, -501, -380, -160, -135, -741, -788, -486, -135, -1190, 155, 738, -636, 267, -463, 217, 246, 694, 541, 358, -326, 380, 187, 332, -282, 245, 421, 23, -719, 491, 156, 44, -45, -50, -157, -139, -831, -571, -66, 177, -871, -22, -125, -274, -631, -431, 260, 728, -354, -135, -380, -47, 487, -340, 98, -66, 604, 160, 1037, 6, -384, 445, -388, 278, 68, -13, 288, -607, -946, -316, 68, 865, 937, 323, 45, -659, 459, -912},
{-854, 81, -344, -719, -95, 257, 166, 725, 125, -710, 193, 24, -504, 1014, 103, 576, -935, 444, 720, 128, 552, -892, -269, 0, -541, 875, -562, 225, 273, 1257, 413, -244, -619, -932, 52, -1389, 228, 210, 757, 525, 511, -18, -472, 222, -1068, -172, 253, -51, -648, -344, -1076, 541, -103, 49, -279, 452, -427, 94, -241, -239, 372, 562, 110, -106, 480, 444, 411, -259, 242, 737, 310, 845, -14, 442, -703, -210, -309, 707, 811, -599, -44, -549, 198, 191, -203, 166, 0, -682, -316, 87, -544, 187, -85, 542, -312, 553, 390, 446, -170, 473, 292, -323, 241, 9, -294, 601, -1158, 1005, -1020, -265, -204, -270, 216, -914, 553, -487, 1046, 294, -201, -483, -1193, -595, -1189, 1, -411, 229, -438, -627, 332, 435, -140, 314, -109, -163, -82, 454, -542, -61, -96, -965, -648, -630, 938, 14, -568, -58, 423, 705, -213, 57, -456, -254, 122, 76, 179, 262, -58, -1359, 271, -267, -752, 607, 228, -404, -416, 388, -883, -168, 18, -148, -49, 74, 8, 473, -362, -736, 91, 358, 167, -79, -361, -434, 580, 187, 72, 666, 147, -412, -613, 944, -652, 137, 170, -290, 564, -564, 468, 631, -893, 69, 316, 769, 103, -94, 829, -982, 1, -252, -833, -652, -681, 660, 169, -2288, 5, -593, 405, -1570, 760, -337, -426, -119, 282, 345, -990, 156, -847, 566, -420, -371, -220, 539, 1233, 11, -410, -64, -531, -49, -757, 151, 757, 305, -269, 46, 504, -455, 60, 247, -179, -316},
{194, 586, -37, 414, -22, -113, 575, -208, -263, 409, -377, 0, -230, -706, 157, 377, 241, -796, 150, -50, 334, 26, -829, 37, 366, -369, -684, -183, 502, 198, -833, -74, 239, -31, -204, 233, -121, -376, 450, -326, -864, -23, 992, -627, -759, 447, 141, 63, 181, 388, 234, 129, 44, 379, -16, 264, -425, -110, 184, -296, -333, -496, 454, 182, 96, -253, 244, 230, -80, -450, 258, 54, 111, -440, 85, -1196, -5, -244, 41, -229, -47, 829, -591, -287, 217, -184, -3, 355, 506, -132, 329, 658, 201, 405, -221, 180, 125, -359, -230, 297, 921, 489, 64, -163, -317, -705, -570, -212, -103, -405, 29, -494, 913, 292, -70, 785, -271, 409, -131, -363, 766, 33, 539, -177, -35, -359, -679, 168, -771, -136, -494, -895, 774, 227, -1478, -202, -369, 1552, 714, -158, -570, 181, -608, -119, -330, 337, 217, -406, -435, 105, 303, -538, -254, 911, -56, 160, 241, 48, 578, -130, 212, -394, -40, -535, -605, -467, -441, -995, -236, -1121, -871, -521, -507, 664, -335, -607, -174, -292, 317, -360, -351, -649, 960, 24, -1652, -78, -93, 367, -771, 490, 483, 429, 187, 263, -60, -88, -27, 471, -487, 1291, 580, -167, 981, 662, 550, -390, 43, -37, -233, 298, 214, -466, -42, 272, -508, -37, -386, 70, -270, -213, -365, -203, -651, 328, -272, -363, -226, -67, -85, 293, -1118, 79, -746, 310, -8, 306, 71, 52, 323, 452, -218, 344, 148, 262, 359, 494, -628, -241, -151, -948},
{-660, -450, 799, 446, 408, 585, 443, 135, -227, 304, 146, -336, -6, -482, -19, 62, 213, 840, -487, 29, 581, -731, -271, 375, -211, -290, -272, 419, -363, -84, 98, -72, 435, 124, 1111, 283, 543, 677, 710, -681, -1011, 436, -292, -279, 245, -231, -345, -519, -123, 45, 1334, -746, -381, 287, -101, 189, -867, -595, -736, -428, -220, -73, -375, -784, -343, 553, 432, 472, 254, 592, 109, -77, -252, -992, 10, -190, 596, -201, 398, -345, -792, -392, 120, -401, -181, 450, 1153, -223, -122, 193, 852, -792, 289, 257, -263, -276, 60, 418, -747, -446, 426, 591, 464, 382, -581, -173, -12, -399, -837, -146, -61, -443, 45, -754, -380, -119, 181, 412, 455, -187, 328, 597, -19, -614, 71, 154, -111, 408, 656, 35, 99, 131, 117, 86, -160, 27, -75, 538, -395, -767, 318, -375, 233, 306, 212, -320, 418, -342, 161, 237, 510, -86, -484, 202, -750, -49, -152, -264, -938, -651, 86, -139, -867, -742, 1017, 679, -268, 796, 1383, -80, -261, 431, 247, -222, -684, -779, 579, 603, 79, -435, -212, 93, -405, 199, -412, -197, -133, -293, -161, 173, -528, -175, -424, -417, 956, 271, 354, -347, 459, -382, 967, -108, 622, -251, -28, -459, -308, 507, -245, -8, -446, -62, 733, -928, 180, -5, 102, -631, -365, -348, -529, -367, 117, -408, -579, 583, -655, 378, 878, -235, -1104, 379, 400, 323, -286, 510, -80, -219, 63, -256, 121, 258, 187, 95, 731, -63, 194, 270, -305, -123},
{-387, 654, 373, 581, -396, -445, 349, -432, 418, -90, 360, 83, -47, 91, 347, -149, -175, -525, -22, 240, -559, 516, -311, -728, 260, 346, -12, -29, 500, 575, -92, 481, 285, 66, 485, 1208, -674, 88, 389, -1048, 285, -409, -302, 478, -257, -109, -498, 501, 754, -866, 203, 1164, -248, 583, 93, 360, -311, 340, 268, -623, 556, 657, 499, -195, 182, -25, -324, 893, -280, 137, 468, 324, -847, -7, 281, 804, -22, 532, 240, -251, -87, 82, 93, 136, -750, -670, -132, 561, -274, 1038, -29, 125, 299, -331, -890, -725, -138, -119, 244, -339, -879, -620, 69, 170, -763, 329, 104, -525, 161, -245, -685, 484, -294, -21, 262, 5, -288, 476, -240, 72, 614, -47, -25, -501, 394, 457, -620, -342, 113, -263, 111, -43, 372, 552, 321, -702, 460, -407, 493, 946, 559, 36, -90, 491, 75, 359, -4, -546, -111, -1240, 793, -1119, 301, 64, 476, 744, 93, -537, 51, 124, 849, 34, 178, 659, -18, 515, -287, 535, 186, 310, -402, 208, -814, -559, 698, -334, 4, -421, -1031, 273, -426, -622, -422, -405, -508, 536, -78, -153, -367, -638, 430, -325, -743, -245, 7, 263, 547, 1068, -374, -174, 54, -570, -1079, 1090, 17, -75, 635, 239, -34, -362, 106, 520, -396, -594, 230, 627, -885, 961, 817, -531, -83, -293, 360, 299, -567, -561, 458, -917, -786, -27, -478, -392, 978, 390, 354, 514, 817, 51, 166, -326, 40, 704, 48, 887, 700, -415, 157, -2, -194, 100},
{-108, 297, 291, -49, 655, -127, -637, 663, -366, -50, 447, 307, -145, 408, 578, -839, 284, -220, 320, -652, 406, 407, -238, -114, -16, 476, 548, 87, -117, -1070, -237, 933, -9, -31, 727, -465, 520, -355, -534, 69, 74, -317, 88, 662, 857, -563, 331, -948, -413, 32, 163, -300, -589, -82, -236, 262, 930, 835, 218, -24, -219, 128, 119, 107, -840, 12, -974, -128, -319, -668, -757, 818, 529, -455, 76, -51, 8, 666, -656, -188, -820, 82, 524, 951, 537, -65, -596, 176, -165, -64, -503, 538, 926, 1355, -892, 879, 115, 156, 125, -197, 283, -515, -137, 175, 294, 669, 84, -95, -414, -600, 875, -511, 25, -170, 896, -797, 138, -117, 582, -405, -72, 308, -48, -425, 904, 109, 57, -565, 349, 575, -675, 645, 669, -48, -563, 24, -285, -245, 13, -565, -540, -650, -947, -1050, 961, 223, 978, 424, -308, -156, -191, -186, -230, -57, 808, -581, -391, 93, -393, -64, -465, 668, -240, 609, -115, -449, -816, 79, 255, -1408, 79, 223, -231, -281, -331, -233, 78, -124, 112, -216, -301, 368, 68, -65, -237, -386, -366, -286, -851, -337, 143, -676, 874, 0, -506, 179, -803, -265, 282, -1548, 579, 1, 385, 500, -18, 707, -123, -995, -154, 12, -373, -1188, 203, -348, 176, 554, -241, -522, -448, -672, -382, -15, -578, -670, 625, -51, -19, 339, 324, 1105, 514, 695, 929, 229, -237, 274, 791, 317, 674, -344, -303, -2, 23, 338, 722, -148, 176, 109, 1172, 267},
{-213, -467, 237, 338, 447, 280, -40, -48, -99, 768, 173, -989, 213, 155, -178, 407, -83, -233, -23, -75, -627, -108, 132, -744, 369, 666, -323, -13, 835, -64, -826, -381, -478, 327, -167, -520, 528, -271, 37, 176, 581, 27, -607, -185, -687, -487, -219, 257, -165, -537, 164, -1106, 390, -919, 170, 163, -272, 342, -446, -922, 437, -11, 194, -173, 405, 421, -554, 317, -46, -147, 324, 364, 309, -236, -971, -121, -580, -735, 351, -48, -151, -468, -50, 649, -630, -96, 616, 38, -1176, 575, -93, 300, 4, -564, 57, -214, 1253, 248, 344, -851, -152, -126, 160, -649, -733, -62, -679, 934, 44, -396, -142, -1298, 214, 56, -557, 149, 175, 168, -659, -709, -489, 464, -14, -19, 414, -492, -192, 204, 183, -235, 228, 863, 527, -685, -460, -530, -176, -540, -447, 388, -24, 86, 1148, 466, 269, -211, -274, -366, -742, -193, -517, -1, -458, -729, 685, 500, -1, -269, 126, -447, -1520, -51, 1162, -776, -59, 702, -121, 269, -865, -261, -456, 331, 329, -789, 260, 974, -141, -821, -183, 526, -29, -508, 389, -371, -776, -609, -68, -412, -269, -475, -18, -30, -15, -390, 715, -109, -535, -194, 459, 825, -508, 353, -391, 11, 161, 168, 905, -1379, 285, 646, -617, 1044, -652, -198, -216, 600, -16, -947, 492, 432, 398, 439, -732, 162, 68, 440, -373, -8, -21, -207, -763, 162, -544, 715, -976, -616, -377, 233, 311, -189, -123, -475, 325, 28, -43, 407, -248, -925, 215, -302},
{403, 189, -620, 3, 166, -304, -332, 138, -927, 512, -137, 353, -173, -292, 1288, -404, -358, 904, -483, 472, 750, 397, -137, -943, 432, 294, -369, -702, 155, -61, 398, 364, 1090, -324, 447, -622, -933, 105, -62, -3, 122, 517, -152, -244, -15, 314, -322, -450, 391, 334, -396, 415, 744, -998, -170, -289, 247, -283, -269, 223, -190, 259, 681, 142, 33, -917, 247, 232, 344, 207, -313, 334, 113, -885, 251, -235, 265, 340, -1010, -407, -143, 333, 90, -505, -28, -307, -446, -894, 161, 153, -425, -196, -146, 492, -99, 233, -494, -604, -1026, 28, -153, 294, 576, -684, -742, 639, 1007, 140, -797, 1068, -193, 8, -484, -785, -380, 650, 310, -823, 803, 61, -946, -1239, -517, 1076, -65, -638, 269, 83, -531, 831, 985, -160, 887, 57, 1179, 45, -998, 161, 925, -964, -652, -535, -210, 439, -296, 873, -557, -453, -1184, 963, 724, 101, -1328, 84, 132, -690, 9, 42, -310, 189, 317, 864, 325, 429, -29, -198, 379, -153, -867, -421, -209, -195, 873, -356, -785, 183, 451, -318, -241, 791, -241, 319, 528, -670, 299, -514, -161, -188, -22, -301, 579, 423, 193, -340, 1016, 151, -44, -977, 605, -764, -661, -188, -279, -212, -210, -488, -65, -715, 133, 306, 144, 212, 929, -1011, -290, 38, 826, 232, 332, 244, 384, 394, 1519, 69, -613, -827, 392, 686, -869, -745, -267, 82, -537, -512, -300, -458, -108, -281, -588, 135, -518, -233, -1038, 302, 142, -50, 306, 208, 423, -1156},
{582, -346, 770, -238, 116, 544, -417, 376, -1195, 475, -331, -182, 262, -105, 412, -999, -443, 10, 604, 248, 1184, 701, -923, -601, -282, 283, 142, 662, -850, -293, -265, 434, -350, -840, -408, -291, 509, -311, 51, 237, -1064, -282, 542, -257, -171, -336, -830, 565, 505, 281, 371, 64, -11, 223, 202, -616, 244, -219, 314, -338, -882, 40, -132, -216, 418, -467, 164, 129, 969, -178, 297, -380, -541, -245, 286, 339, -14, -211, -323, -71, -104, -314, 139, 20, -87, -473, 201, 73, 49, 300, -318, 172, 914, -275, -547, -229, 1375, 243, 21, -1125, -523, -317, 585, -256, 632, -408, 369, -314, 386, 85, -597, -98, 214, -372, 582, 156, 784, -324, 1014, -227, 495, 271, 114, -160, -670, -8, -185, -162, -909, 578, 15, -645, 293, 270, 44, 273, -88, -589, -397, -123, 393, 272, -116, 489, 399, -213, -393, 361, 285, 85, -49, 263, 841, -272, -296, 239, 409, 16, -154, 418, -1741, 467, -29, -55, 1224, -408, -779, -211, 193, 174, 868, -317, -274, 195, -637, 22, 140, -177, 13, 655, -198, 733, 510, -333, -135, -493, -40, 711, -109, -460, 142, -466, 86, -82, 443, -780, -376, -234, -339, -350, -474, 336, -335, -458, 341, -154, -326, 685, -84, -212, 471, -794, 207, 339, -231, 287, 28, -394, -373, 71, 235, -555, 23, 848, 979, -852, 935, -258, 139, -159, -107, -216, 440, 1020, 514, 918, 657, -163, 414, -46, 0, 53, 79, 141, -611, 318, -488, 1059, 91, 94},
{-28, 871, 2, 445, 188, 147, 1020, 285, -311, 546, 829, -322, -646, -1109, 245, -777, -620, -527, 78, -3, -277, 1091, 87, 715, -503, -269, -508, -581, 1038, 168, -451, -355, -279, -497, -83, -161, 176, 399, 804, -445, 431, 36, 164, 765, 306, -154, -914, 308, -453, -9, 822, 540, -39, -405, -353, 103, -3, -1108, 542, -243, -686, 251, 548, -695, -370, 482, 860, -505, -42, 98, -355, 270, -186, 77, 388, -674, -644, -294, -102, 934, -100, 450, 476, 1068, -718, 577, -193, 517, -677, -834, -61, -454, 742, 675, -778, -327, -697, 399, 344, -376, -151, 575, 324, 13, 519, -265, 533, -397, -934, -53, -875, 619, 27, 166, -104, -924, -98, 464, -811, 581, 1171, -647, -340, -319, 1153, -553, -284, -557, -64, 71, 65, -79, 82, -143, -594, 390, 117, -1393, -40, 131, -260, 903, -66, -489, -1087, 86, -80, -106, 499, -204, -457, 191, -554, 190, 139, -1167, 69, -573, 39, -643, -541, -432, 35, 523, 509, -261, -325, 15, 161, -79, -1311, 791, -134, -427, -720, -982, -881, 491, -418, -595, 503, -236, -464, 413, 1064, 117, -721, -603, 275, -385, 235, -1202, 392, -1517, -675, 285, 140, -1412, -741, -1543, 198, 150, 795, -313, 321, -57, 251, -196, 354, 726, 300, 339, -905, 1094, 95, 607, -489, 695, 714, 1532, -620, -26, -81, 27, 335, 428, 79, -615, 58, -36, 128, -286, -245, 542, -318, -1016, 925, 87, 1136, -112, 187, 474, -431, 1186, -942, -73, 591, 187, -492, -1128},
{-660, 283, -375, -1307, 574, -963, -498, -487, 72, -493, -52, 181, 720, 336, -382, 30, 571, -888, 15, -401, -44, -327, 1152, -372, -1094, 278, -9, -110, -300, -33, -37, -166, -119, -583, 88, -28, -418, 256, 915, -5, 266, -208, 1217, -282, -476, -736, -696, 605, 1228, -880, 621, 351, 209, 821, 346, 549, 59, 0, 370, 1283, 1193, 360, -496, -115, -13, -495, -182, -498, -1609, 74, -601, 59, 214, -192, -2, 504, -506, 1105, -4, -1224, 19, 77, -309, -405, 19, 229, -269, -134, 27, 156, -529, -355, -99, -296, 1022, 1029, 1328, -694, -301, 858, -642, 133, 93, -1162, -17, 203, -196, 510, -333, -963, -129, 956, -797, 216, 166, 259, 782, 94, 19, -1295, 272, 20, -439, -229, 205, 643, -615, 0, -530, -189, 349, 261, -886, -1841, -25, -424, -528, 176, 536, 198, -24, -365, 205, -130, 759, 489, 882, 43, 448, -322, -768, 241, 150, 71, 123, 873, -848, -27, -140, 199, -175, -777, -606, -163, 998, -185, 307, -272, 17, -421, -559, -1266, -228, -289, -213, 180, 214, -1556, 219, 117, 534, -212, -103, -373, -577, -1109, -524, 464, -142, -117, -124, -58, -198, -228, -1558, -120, -130, 384, 418, 826, -258, -1036, 445, 930, -63, 1304, 218, -356, 89, 255, -926, -1717, -110, -308, 960, 116, -1187, -560, 211, 235, -749, -1514, -274, -210, -278, 1129, -130, -1098, -64, -195, -289, 233, -343, 413, 395, 886, 726, -291, -90, 43, -244, 88, 617, 105, 894, 1218, 709, 186, 1341, -741},
{480, 122, -487, 811, -210, 373, 158, -419, 93, 1150, -259, -270, -1185, 672, -266, 292, -763, 61, -503, -1105, -282, -406, -289, -387, -125, 11, -358, -167, -458, -603, -387, 77, -9, -1300, 264, 447, -133, -349, -157, -296, 387, 83, 478, 115, 1257, -253, 92, -418, -730, 310, -12, 250, -56, -70, -469, 428, 685, 1053, 67, -40, -138, 418, 438, -693, -267, -18, 395, 369, -280, 254, 20, -106, -703, 161, 144, 145, -16, -149, -14, 92, -190, 517, -32, -169, -651, 570, 51, -237, -293, -161, -898, 292, -80, -297, -1534, -499, 515, -2, 1108, 632, -507, 1097, 93, 334, -1641, 88, 846, 220, -83, 162, -9, -164, -556, 358, -34, 233, 71, -107, -223, -100, 987, -278, 477, -653, -230, 117, 864, -67, 367, -595, 520, -825, -378, -151, 80, -230, -6, 179, 6, 634, -158, -143, -693, 660, -954, 522, 1081, 827, -797, 64, -392, 307, -12, 576, -627, -433, 503, 268, 56, -286, 242, -645, -33, 549, 874, -955, -441, 520, 222, 1338, -170, 203, -534, 36, 55, -31, -56, -502, 217, 36, -1038, 769, -162, 137, 137, -338, -173, -79, -241, -218, -7, 109, -1646, 111, 71, 540, 117, -499, -58, -480, -129, 160, 10, -287, -172, 14, 238, -461, 208, 217, 956, -1089, 662, -55, 155, -261, 750, 1170, -733, 32, 237, 7, -553, -82, -110, 99, 437, -869, -463, 443, 200, -257, 92, -248, -116, 179, -336, -88, -785, -1235, -756, 253, 297, 259, 127, 390, -203, 375, -94, 192},
{-92, 67, 519, -95, -595, 377, -267, 263, 95, 8, 506, -795, -231, -72, 63, 81, -31, 471, 777, -1288, -556, -79, -171, -673, 416, -770, 229, 235, 540, -42, 1393, 259, 0, 464, 115, -503, 1061, -426, -818, -63, -215, -36, 749, 222, 454, 1060, -827, 206, 610, 608, -957, 92, -970, -58, 544, -231, -232, 181, 28, -916, -366, 541, -442, -198, 368, 81, -821, -529, -514, -243, -504, -124, -591, 42, -1111, -413, -161, -41, -49, -312, -534, 624, 482, 202, 197, -606, 525, 392, 681, -707, -663, -781, -690, -764, -1105, -347, -207, 80, -270, 34, 512, 820, 691, 637, -510, 423, -372, -88, 469, 456, -63, -58, -1022, 151, -1238, 608, 54, -918, -30, 31, -251, 58, 117, -678, 466, -534, 448, -189, -2, -5, 296, -604, 625, 108, -391, 238, 571, 259, -139, -243, -500, -357, -1191, -278, 561, 455, 136, -321, -213, 615, -310, 47, -549, -430, -293, 183, 506, 205, 770, 848, -69, 451, -335, 1258, -488, -30, 229, 345, -20, 412, 1320, -136, 177, -625, -1103, 129, 71, -665, 74, -571, 210, 195, -204, 82, 37, 180, 1074, -84, 238, 890, -225, -400, 119, 474, -275, 263, -105, -784, 594, -5, -39, -590, 335, -643, -590, 171, 228, -413, 330, -733, -1296, -15, -183, 483, 37, -109, 310, -135, 310, 478, 144, 210, -256, -946, -209, -437, 348, -135, -227, -590, -668, 61, 213, -507, -519, -503, -44, -99, -1146, -182, -390, -415, 429, 586, -132, 272, -622, 670, -37, -314},
{-75, 410, -710, -522, 357, 97, -280, 399, 87, -231, -569, -173, -556, 58, 876, -528, -251, 127, -1121, -514, 1243, 426, -2, 139, 576, 594, -1039, -490, -1035, -311, 682, -247, -529, -1247, 76, 184, -1321, -499, -395, -397, 379, -63, 196, 433, -215, 142, 53, 792, 688, 557, -536, -354, -621, -347, -340, 303, 290, -543, -673, 25, -761, -535, -418, -507, -391, 420, -1146, -116, 0, -676, 519, 576, 47, -154, -81, 348, 364, -111, -578, 289, 598, 247, 0, -134, 210, 130, 33, -200, 191, -288, 714, 523, 788, 68, -1013, 1118, 474, -1014, -569, -688, 995, 1326, -430, 223, -270, 704, 226, -216, 41, -12, 55, 1124, 675, 184, -495, -307, 106, -76, -237, 30, 1141, -434, -553, 293, 758, -549, 425, -466, 184, 376, -140, 406, 257, -490, -424, -98, -286, -753, 583, -672, 1, 595, 106, 470, -524, 267, -642, 571, 73, 386, 99, -166, -322, -418, -557, -512, -60, 738, -403, 457, -128, 224, 714, -61, -107, -323, 61, -30, 126, 82, 186, 465, -398, -468, -302, 333, -149, 318, -292, 51, 615, 91, 508, 337, 208, 692, -637, 360, 720, -180, -278, 875, -1340, -321, -479, -32, -655, -521, -398, 109, 818, 99, -577, 326, 169, -531, 24, -14, 440, 430, -199, 436, 815, -516, 113, 443, -15, -167, -542, -296, 1101, -158, -511, -158, 35, -56, -170, -113, 465, 1051, -85, -312, 560, 315, 1018, -374, -281, 654, 639, 513, 246, -153, 163, -426, 624, 179, 398, 318, 556, -68},
{608, 734, -581, -112, 530, -541, 161, -228, -216, 842, -223, 37, 381, -670, 906, -761, -13, 69, -370, 185, 786, 509, 330, -585, -425, -972, 761, 579, 63, -20, -230, 406, -38, -270, -619, -204, 306, -750, -538, 129, -694, 257, 503, 322, 385, 216, 654, -329, -214, -1497, 9, 560, 92, 111, 59, -485, 288, 746, -415, 691, 325, -457, -524, 421, -1092, 0, -50, 2, -709, -685, 357, 591, -248, -196, 110, 151, 627, 150, -535, -270, -155, -812, 151, -199, 31, 79, 466, 429, -91, 1116, 430, 1767, -605, -147, 463, -455, -464, 476, -85, -72, 274, -41, -115, -475, 1350, 157, -23, -156, 545, 504, -360, -27, -316, -693, 1011, -205, 429, 653, 240, -250, 403, -606, -462, -281, -400, 376, 1100, 712, 416, 548, -495, -243, 278, 159, 406, 106, 117, 238, 118, -536, 515, 482, -313, 113, -317, -858, 349, -83, 56, -593, -413, 1211, -373, -242, -308, -219, -147, 35, 366, 814, -624, -1151, -148, -44, 177, 604, -66, 61, -100, -448, -296, 496, -417, -985, 707, -74, 606, 801, -241, 1300, -1302, 260, 713, -2, 1275, 17, -322, -951, 243, 176, -1310, -263, -34, 65, -667, 1198, -235, -650, -412, 274, 719, 140, -294, 287, 109, -322, 23, -733, -1000, 72, 1207, 477, 782, -48, 465, -781, -429, 711, 666, -853, -557, 364, -51, 164, 74, -792, 207, -304, 10, 26, 510, 797, -580, -984, 180, -870, 108, -55, -84, 57, -479, 102, 237, -1050, -382, 197, 288, -143, 316, 371},
{-65, 230, -195, -816, -431, 421, 557, -379, 512, -310, -1519, -56, -322, -391, 810, -527, -54, -412, 737, -314, 530, 120, 94, 666, 916, 222, -658, -336, -492, -288, -94, -311, -822, 607, 637, -1159, 132, 631, -57, -36, -911, -147, -833, 571, 229, 130, -450, -392, 480, -893, -1297, 954, -170, -433, 685, 20, -659, 330, -218, 511, 187, 354, -1241, 1032, -68, -284, 657, 314, -429, -626, -239, -628, 678, -249, 540, -106, 533, 84, 129, 548, -401, -537, -167, 212, -170, -826, -1130, -877, -114, 405, -559, -636, 256, 299, -593, 255, 234, -797, 128, -690, -604, -808, -163, -492, -159, -290, -69, -4, -823, -246, -214, -93, 1279, -779, 679, 552, 54, -249, 185, 854, -61, -374, -1038, -601, -99, 21, 119, -279, -107, -159, -1097, -210, 901, 578, -177, 207, -503, 247, -431, -651, -236, -549, 215, 9, 444, 554, 550, -407, 1090, 984, -94, 461, -9, -511, 78, 166, -134, 499, 737, 450, 117, 243, 89, 713, -80, 194, 866, 796, -467, -438, -864, -760, -586, -415, 168, 1007, -313, -269, -47, 101, 198, -388, 147, -6, 295, -350, 735, -65, 92, -543, 388, 1236, 306, -567, 452, -875, -480, 85, -36, 127, 121, -202, 131, -90, -189, -427, -633, -670, -179, 817, 352, 52, 121, -27, 649, -233, 86, -511, -212, 1135, 133, -1033, 1427, -374, 174, 618, 532, 1192, 590, -239, -164, 367, 456, 162, -62, 486, 44, 685, 244, 706, 275, -304, -213, 690, 108, -252, 276, -386, 113, 132},
{-502, 395, -68, 517, 512, 147, -560, -144, 228, 312, -166, -58, 1250, -1087, -480, 240, 179, -419, 140, -415, 320, -175, 98, 74, -546, -286, -239, -31, -620, -713, -146, -186, 30, -220, -317, -573, -678, 465, 835, 855, 382, 280, 85, 92, 486, 935, 213, 672, -1066, -118, 225, -151, -775, 396, -422, -69, 18, 238, 613, 1226, -95, 33, -232, 450, -712, -876, 101, 230, 699, -137, 175, 239, 488, -515, -372, 396, -17, 97, -481, 467, 612, -458, -750, 585, 793, -857, 169, 880, -111, 176, 613, 162, -304, -290, -628, -853, -134, 46, 38, 602, -287, 106, -239, -741, 15, 1495, 554, 621, 312, -237, 1123, 202, -162, -240, -420, 636, -759, 453, -1020, 891, -28, -403, -34, -25, -949, -682, 487, 186, 255, -877, -83, -7, -413, -94, -227, -510, -79, -80, 208, 1643, -72, -86, 386, 291, -401, 288, -668, 87, -7, -202, 231, -151, -360, -920, 678, -408, -185, -793, -111, 384, -449, -1165, -650, -630, 868, 229, -87, 556, -399, 218, -342, 233, 147, -323, -43, -328, 480, -1076, 576, -539, -396, 492, -67, -323, -445, -673, 216, -438, -402, -487, -64, -511, -545, -421, 595, -86, 283, 203, 284, 852, -374, 1506, -82, 437, 33, 310, 536, -1332, -586, -779, 726, -787, 1092, 681, 215, 177, 43, -720, 18, -2, 529, -177, 443, 452, -344, 379, 776, -955, -479, -91, -287, 116, 772, 902, -802, -258, 339, -933, 196, 487, 79, -134, -674, -1259, 299, 233, -719, -537, 443, -220},
{-308, -433, 49, 503, -17, 586, -659, -181, -400, -450, -130, -270, -312, 2, 140, 455, 238, 272, -7, -38, -608, 401, 330, -256, 724, -292, -506, 850, 223, -1015, -517, -371, 425, -210, -763, 584, -322, 417, -488, 113, 398, -158, 198, 627, -324, -337, 37, 308, -168, -526, 320, -158, 1044, 811, -803, -502, 85, 83, 618, 41, -519, 206, -657, 404, 401, 197, -456, 303, -47, -206, -340, -171, 285, 817, -350, -1331, -28, 2, -652, 368, 918, -54, 0, -175, -752, -652, -73, 16, 560, -72, -160, -407, -79, -82, -571, -1772, -274, 274, 376, -963, 1153, 209, 882, 138, 780, -265, -98, -293, -532, -361, -225, 430, -132, -1019, -447, 30, -790, -189, 222, 438, 180, 264, -467, -308, 384, 375, 277, 170, 263, -1074, 104, -149, 185, 538, 86, 263, -534, 289, 303, 17, -144, -387, -24, 603, 1119, 692, -528, -101, -464, 510, -289, -249, -305, -103, 504, 37, -216, 328, -9, -620, -11, -454, 181, -611, 463, 145, 178, -906, -32, 87, 599, -588, 31, 565, -586, -262, 863, 260, -228, 617, 122, -409, -1397, -159, 217, -641, -1005, -40, -284, 210, 247, 313, -132, -396, -134, 788, 353, -101, -138, -359, 8, 95, 643, 481, 942, 108, -114, -185, -338, -140, -247, 401, -275, -328, 36, -739, -112, 1435, -107, -672, 95, -626, -306, -151, -155, 472, -1069, 421, 231, 102, 803, -137, 23, 376, 443, 305, -260, 1252, 58, -294, -24, -143, 800, 153, 273, -860, 131, 129, 701, 149},
{665, 103, -415, 321, 120, -113, -515, 210, 556, -318, 943, 66, -455, -1252, 187, -1269, -26, -603, 1222, 464, 188, -124, 534, 60, 196, 305, -187, 387, 349, -196, 410, 696, 349, 736, 30, -806, -77, -158, -89, -135, 1067, -788, 126, 273, -334, 73, 223, -825, -329, -320, 665, -332, -541, -316, 159, -117, -131, -282, 427, -129, -386, 80, 591, 382, -409, -224, 103, 242, 39, 12, -433, -70, 405, -220, 357, 228, 428, -896, -212, -361, 659, 800, 370, -1244, -754, -47, 462, 15, -799, -171, 626, 813, -199, 150, 139, -201, 331, -108, -182, 421, 340, -351, -542, -397, 691, 182, 102, -163, 488, 173, 309, -795, 782, 375, 336, -194, -404, 346, 21, -90, -346, -298, -233, -702, -734, -601, 652, -105, -368, 328, -135, 458, 455, 437, -311, 426, -444, 268, -819, -138, -302, -380, 48, -976, 1385, -32, -505, -57, -115, 527, 179, -283, 44, -162, 962, 314, 66, -459, -502, -160, -39, -275, -147, 191, -202, -352, -341, -232, -531, -44, 367, 0, -324, 297, 88, -341, 155, 310, -666, -380, -409, 457, 707, -786, 95, 222, -474, 233, -221, 339, 425, -204, -552, -336, -843, 308, 350, 109, -141, -375, -343, 486, 382, 77, -183, 683, -775, 336, 423, -949, 199, -105, -83, 401, -451, 23, 2, 143, -117, 609, -43, 795, 265, 337, -753, -550, 323, -1071, -289, 713, 115, 175, -15, 459, -746, 271, -344, 300, -512, -399, 474, -427, -234, 131, 653, -387, -749, -131, 334, -302},
{126, -845, -54, -301, -61, -344, -146, -85, -222, -356, -733, -423, -511, -750, -478, -235, -97, 18, 852, 344, 28, -360, 536, 68, 507, 154, -78, 874, -96, 278, 100, 723, 314, -74, -444, -296, 158, 444, 667, 301, 362, 163, 235, 202, -648, 84, -678, 27, 330, -189, -166, -280, -444, 48, 41, 58, 950, -726, -66, -159, -172, -1007, -156, 170, -101, 8, -357, 593, 162, -1209, 626, 153, -103, -561, -765, -623, -209, 1024, -598, -367, -113, 322, 51, 355, -571, 341, -421, -412, -832, 45, 39, -160, -237, -148, -1237, 630, -188, 210, -377, -863, 699, 233, -391, 284, -704, -243, -346, -351, -359, -189, 506, 329, 220, 672, -90, 44, -3, 89, 84, -256, -936, 40, 676, 458, -385, -640, -404, -472, 19, -39, -561, 233, -185, 99, -80, -905, -206, 1161, -131, -620, -12, 438, 52, 823, -601, 761, 448, -34, -250, 226, 141, -552, -207, -183, -147, -164, 763, 73, -396, 171, 84, 158, -728, -1076, 189, 286, -267, 512, -234, 956, -675, -223, 531, 280, -293, -282, -205, -893, 572, 1147, -503, -546, -66, 467, -51, -361, 303, -645, 574, -980, 1022, -618, 140, -743, 57, 120, -1382, -1076, 312, 113, 150, -231, -126, 1, -449, -525, 386, 52, -726, 1075, 150, -454, 714, 12, 899, -574, 163, -618, 219, -711, 593, -122, 471, -1104, 149, 71, 385, -861, -524, 292, -57, -108, -318, -1096, -148, 506, -422, -617, -129, 1071, 560, 73, 216, 900, 790, -14, -460, -211, 162, 653},
{617, 403, 226, -726, -50, -518, -379, 204, -844, -2, 107, 632, 212, 533, -958, 73, 7, 332, -53, -496, 878, -650, -169, 382, -257, 664, -694, -556, 430, 0, 431, -25, -382, 991, -273, -1358, 69, 1094, 142, -863, -180, 762, -428, -392, 1601, -757, 435, -400, -448, -494, -1189, 170, -452, 708, 90, 570, -404, 154, 324, -166, -11, -511, 451, 279, 431, -8, -284, 457, 115, -317, 467, 375, 9, 233, 288, 30, 533, -648, 574, -683, 313, -634, -113, -328, -225, -424, -314, 110, -289, -508, -647, 126, -230, 117, -32, 239, -469, -532, 14, 59, -681, -150, -213, 163, 491, 488, 184, -367, 264, -942, -266, -438, -160, -530, -410, -83, -673, -369, -488, 714, 307, 1542, -992, -364, 15, 272, -348, 649, 693, 276, -596, -503, -778, -194, -344, 321, 318, -645, 477, 338, -319, -294, -44, -427, 17, -49, -391, 34, 272, -581, -496, -151, -35, 73, 116, -778, 72, -917, 151, -67, -96, 155, -550, 535, 117, 193, 152, 166, -41, 154, 331, 247, 213, 105, -832, 466, 333, -296, -422, -3, 840, 481, -138, 960, 191, -390, -183, -1098, 706, 19, 156, -445, -338, 565, 115, 105, -949, 66, -179, -246, -79, -208, 865, 84, -337, -39, 61, -221, 213, 528, 358, 706, 267, 33, -63, 124, 117, 65, 1115, -177, 279, 270, 745, -432, -52, 548, -468, -304, 480, -306, 1, 3, -590, 248, -3, -260, -141, 3, 46, 130, 563, -594, 111, -876, -60, 366, 513, -33, 81, 549},
{-369, -28, -763, 923, 226, -947, -959, 395, -412, -165, -7, 583, -357, 362, 338, 907, 157, 179, 91, -376, -398, 75, 333, 71, 573, 92, 93, 262, 464, -409, -518, -275, 332, -184, -296, -854, 324, 282, -1615, -3, -336, -500, -1399, -167, -477, 400, 687, 57, -1041, 2, -765, 444, 34, -230, -126, -396, -258, -146, 84, 648, 472, -69, -304, 293, 174, 545, -33, 120, -538, -283, -249, 419, -628, -883, 681, 136, 715, 806, -293, 13, 96, -535, -1041, 112, 360, 106, 342, -136, -668, -80, 1123, -611, 830, 997, -782, -229, 1, -587, 30, -52, -104, -1226, 181, -176, 1238, -35, 512, 294, -782, -523, 62, -693, 644, 180, -90, 837, -844, 142, -594, -359, -150, 170, -46, -58, -398, 714, -179, -1243, 239, -779, -849, 240, -415, -513, 152, 294, -905, -440, 55, 363, -874, -137, -994, 235, -730, -284, 723, -555, -654, -376, -131, 569, 42, -54, 397, 213, -148, 212, -518, -468, -78, 886, 686, -89, 429, -792, -203, -788, -271, 532, 356, 186, -271, -57, -928, 136, 8, -249, -779, 239, -526, -412, -407, 568, 152, 625, 814, -1071, 317, 373, 797, -285, 311, 390, -203, 78, -534, -95, 63, -1138, 322, 94, 401, -144, 26, -226, 267, 5, 288, -265, -440, 127, 209, -899, -957, -91, -490, -917, -48, 600, 1225, 1055, 90, -166, -58, -641, 271, 219, -484, 874, 708, 146, -32, -33, -554, -431, -411, -448, -197, 79, -180, -158, -194, 307, 274, 1191, 581, -39, -407, 1024},
{-308, 705, 89, 357, -318, 341, 258, -942, 16, 425, 578, -66, -257, -12, 21, -51, -650, 1174, 1172, 103, 336, -747, -332, -811, 298, -171, -23, -543, 93, 89, -624, -470, -1082, -410, -788, 184, -148, -374, 596, -159, 68, 900, 658, 261, 693, -309, 453, -254, 447, 795, -43, -250, 346, -109, 147, -639, 332, -143, 1654, -63, -781, 7, 426, -57, 58, 62, 208, 21, 185, -414, -358, 164, -610, -410, -155, 655, -252, -519, -352, 56, -656, -323, -95, 266, 663, 89, 215, 537, 620, 903, 49, 519, 389, -368, -145, -1289, -491, -228, -272, -152, -367, -536, 483, -223, -326, 318, -731, -312, -222, -570, 507, -479, 253, 719, 1294, -513, -558, -115, -629, -666, -375, -607, -380, -1337, 406, 964, -156, 397, 416, 1019, -396, -258, 124, -204, -71, 578, -571, -65, 24, -364, 550, 332, -1, -767, -283, 512, 933, -107, -220, 534, -46, 54, 590, -318, -1712, -763, -552, 1259, 1283, 184, 669, 61, 254, 1009, 481, 381, 835, -300, -72, -204, -527, 142, 845, -2, 1030, -149, 242, -501, 235, -54, -310, -359, 434, 822, -528, 134, -427, 23, -7, 206, 79, 250, 618, -47, -1156, -225, 49, 529, 938, 121, -441, -1775, 608, 215, 285, 220, 297, 163, 334, -415, -555, -292, 62, -348, -74, 148, -631, -670, -764, -549, 86, 820, -203, -431, 475, -743, 1016, -779, 357, 116, 552, -443, -539, -580, -253, -340, -27, -370, 1010, -61, -606, -669, 639, 265, -352, 258, -1176, -2, 193, 439},
{-487, 1258, -300, 409, 370, 188, -568, 517, -15, -626, 555, -365, 935, -589, 1063, 81, -473, 630, -306, -2, 84, -193, -289, 32, -115, 238, -455, 268, -569, 729, 629, -676, -328, 184, -289, 437, -242, -248, 356, -350, 753, -408, 216, -158, -426, -181, 370, -768, -795, 334, 322, 199, -395, -1126, -57, 413, 191, -637, -651, 1145, -231, -1315, -412, -149, -450, -112, 251, 301, -26, -661, -191, -247, 319, 22, 600, 303, 330, 13, 250, -407, 671, 633, 111, 104, -550, 339, 613, -961, -568, 59, 145, -515, -792, 185, 227, -721, 6, -911, -1269, -447, 949, 735, -124, -18, -686, 457, 195, -157, -438, -596, -1382, 274, -1764, -275, -555, 428, 162, -169, 473, -104, 295, 390, -392, -1066, 407, -96, 82, 277, 406, 263, -81, 165, -357, 365, 1009, 483, -93, -293, -47, 569, -908, 555, 372, 751, 316, -426, 270, -162, -718, -390, 51, 301, 45, -510, 725, 391, 648, -138, 263, -239, -2003, 857, -17, -262, -412, 320, -663, 823, -95, -386, 725, 155, -293, -97, 740, 356, 90, -48, 111, 631, -124, 354, 443, 1288, 56, 129, -734, -418, -700, 250, 110, 887, 363, -303, 443, 7, -982, -596, -235, -347, -86, 139, 63, 701, 374, -561, -87, -215, -348, -398, 278, -93, 561, -622, 341, 1200, 304, 1676, -370, -251, -9, 267, 431, 246, -253, 135, 67, -35, 114, 1, 379, -177, 101, -276, 361, 345, 123, 64, -821, -95, 544, -674, 995, -1710, -827, -968, 286, 187, 931, -157},
{449, -71, 209, 628, -67, 403, -615, 761, 670, -20, -706, -73, 693, -1231, -376, 923, 1332, 37, -280, -180, -306, 1269, -481, 679, 1022, 503, 326, -120, 291, 443, -24, -346, 616, -165, -90, 167, 288, 258, 129, 97, -319, 600, -17, -782, 85, -766, -3, -336, 776, -23, 18, -247, -337, -651, -345, -264, 700, -422, 338, -602, -422, 229, -146, 469, -471, 104, 432, 33, -1311, 110, -203, 57, -326, 420, -272, -149, -8, 627, 599, -983, 443, 233, 797, 124, 1444, 0, 145, -530, 715, 180, 279, -676, -488, -462, 1044, -70, -4, -805, -331, 150, -975, -615, 584, -180, -440, -450, 506, 575, 90, 573, 95, -414, 528, -620, 402, 112, 136, 206, -481, -18, -255, 119, 148, -787, 285, -627, 322, -94, -974, 308, -861, 320, -561, 326, -679, 1147, 26, -464, -325, -415, 415, -277, -242, -909, -1292, 563, 85, 512, 584, 67, -627, -262, -38, -14, 425, 240, -578, 211, 475, 386, -383, 330, -51, -177, 229, 413, -304, 1004, 546, -1348, 514, 751, -1207, -666, -505, -435, 345, -562, -48, 80, 776, -454, 607, 837, -40, 182, 409, 974, 341, 517, 280, -320, 1014, -563, -101, -52, 214, -556, -254, -98, 326, -486, -164, -678, 719, -371, -69, -454, -170, -137, -72, 352, 415, -813, 908, -146, 668, 49, -77, -153, 841, -99, -391, -212, 174, -115, -903, -590, 192, 8, -283, 156, -86, -130, 385, -915, -436, 37, 770, -1055, -111, -825, -278, 133, -725, -325, 582, 667, 449, -273},
{-569, 1485, -1499, -28, -630, 527, -153, -206, -300, 410, -849, 1365, -443, -322, -237, -506, -510, 22, -1024, -1382, -208, -203, 158, 97, 315, 444, 217, -532, -189, 739, 1254, 843, 1572, 40, 52, -21, -288, -392, -686, -1016, -439, 8, 69, 1578, 652, 298, 268, 570, -931, -1019, -603, 312, 441, 368, 669, 411, 538, 495, 311, 308, 648, -581, 967, -682, 191, -216, 1289, -185, 27, -764, -95, 475, -487, -17, 537, -1251, 1472, 24, -353, 680, 834, -503, 43, -62, -270, -1184, -300, -129, -871, 348, -612, 1210, -341, -712, 720, -479, -323, -670, -660, 271, 954, -657, 59, -486, 571, 319, 381, -125, -891, 346, -462, -843, -165, 114, -139, -767, -444, 218, -180, 214, -1601, -132, -15, 8, -830, -289, -273, -480, 54, -19, -534, -269, 165, 148, -588, 507, -113, -279, 8, -123, -389, 39, 430, 1060, -238, -95, -695, -704, 478, -527, -277, 251, 83, -70, 319, -965, -198, 1774, -256, -412, -182, -457, 413, 14, 146, -68, 220, -324, 274, -316, 905, -28, 402, -658, 1213, -214, 663, 427, 758, 710, 197, 416, -987, -936, -903, -104, 410, 96, -495, 182, 101, 127, -368, 796, -94, 615, -622, 392, -19, -942, 781, -290, -699, -303, 181, 1120, -408, -349, 224, 543, 630, 155, -173, -20, -420, -625, 400, 86, -272, 219, -118, 404, 340, 63, -221, 237, -142, -127, 42, -629, 136, -1569, -163, 467, 879, -576, -920, 585, -454, -289, -134, 706, -181, 18, 467, 462, 870, 524, 61, 21},
{-684, 32, -429, 569, 738, 118, 215, 39, -37, 130, -928, -701, -170, -547, -411, 731, 41, 195, 792, 262, 43, -1075, 910, -639, 940, -223, -409, 160, 149, -575, 307, -259, 1413, 47, -3, -271, 208, 383, -345, -225, -1160, 139, -602, -705, -702, 252, 119, -43, -446, -127, 97, 90, -315, -258, 88, 466, 88, 0, -277, 378, 760, 1339, -332, 110, -13, -661, 94, -281, 652, -369, -1088, -733, -326, -326, -314, -686, 226, -189, -258, -1339, 199, -364, 476, 398, 372, 125, 1092, 1368, 362, 85, 611, -834, 449, 1557, 706, 425, 161, 110, 18, 285, 324, -868, -736, 444, -882, -91, -424, 501, 347, -581, -24, 49, -369, 167, -1574, -688, 632, -195, 281, -5, -18, -552, -269, -1086, 254, 901, 177, 270, -605, -164, -383, -59, -92, 801, 581, 114, 540, -234, -1072, 4, 959, 886, -1569, 99, -326, -351, 257, -299, 33, -45, 53, 527, -380, 97, 157, 706, 118, 306, -562, -92, -977, 1008, 284, 258, 185, -361, 116, -290, -9, -859, -923, -76, 222, 408, -1182, 461, -905, 1694, -124, 83, -596, -1232, 446, 123, 440, 6, -498, -615, 238, 374, -321, -636, 744, -987, 558, 751, -210, -12, -1018, 694, -87, -784, 1174, 800, -874, 283, -217, 1116, 347, 180, 342, -512, -1019, 1330, -785, 994, 310, 366, 289, -129, 949, 991, 168, -725, -476, -172, 92, -524, 674, -256, 619, 18, -61, -618, 409, 596, -978, 528, -1087, -215, 311, 42, 170, 414, -178, 109, 1002, -124, -28, 386},
{257, -682, -44, 47, -411, 91, 147, 1173, 992, 354, 583, 608, -204, -7, 249, 261, 1556, 323, -237, 149, 359, -774, -569, -262, 239, -1007, 1332, 166, -482, -110, -59, 41, -997, 130, 188, -925, -428, -488, -218, 466, -420, 409, -21, -137, -526, 444, -418, -732, 239, -1511, 834, 555, 362, -790, -748, -788, 604, 666, -486, -242, 441, -411, -567, 172, 223, 920, -1218, 151, -403, 57, -39, 31, -1042, 366, 168, -61, -59, -174, 244, 527, 1490, -95, 529, -396, 292, -203, -481, -312, 904, -1430, 388, 671, -127, -948, -1153, -91, -601, 360, 50, -326, -764, 431, -470, 250, 731, -118, -1117, -624, 90, 113, 526, 637, 750, 872, 634, -397, 854, 275, 567, -679, 151, 798, 771, 114, -185, 1661, 55, -245, -835, -46, -308, -3, -168, -711, -896, -886, 241, 199, 875, -270, 399, 95, 42, -443, 74, 265, 86, 226, 98, 93, -1441, 370, 139, 190, -849, 357, -142, 639, -565, -463, -80, -1230, 0, 44, 829, -55, -40, 74, 122, 132, -49, 1279, 335, -794, -706, -214, -402, 1050, -308, -839, -461, 85, 52, 172, 32, 599, 297, -213, 1223, -726, 47, 376, -1000, 563, 170, -991, -357, -904, 28, -294, 269, 377, 317, -254, 205, -162, 323, 116, 121, 630, 279, -104, -562, 683, -196, -773, -729, -721, 310, -268, 516, 245, -192, -846, -681, 216, -289, -544, -196, 394, 435, -62, -436, 197, 562, -378, 384, -664, 254, 9, 68, -127, -237, -130, -252, -644, -471, 228, 73, 653},
{-80, 316, 14, -23, 130, 341, -1559, 1029, -1533, -510, -151, -345, -420, -1244, -346, 517, 312, -609, -1124, -309, 258, -280, 168, -607, 19, 533, -12, -57, -362, -204, -35, 425, 38, 852, 283, -991, 277, -583, 441, 195, 1370, -907, 726, -31, 416, 146, -412, 10, -459, -409, -479, 343, 324, 324, -500, -275, -423, -1454, 207, 379, -918, -44, 11, 150, -263, 362, -336, -1211, 43, -295, 392, -202, 796, -265, -364, -1214, 46, -197, -817, 357, 51, -544, 183, 423, -418, -206, -75, -377, -59, 241, 120, -441, -689, 332, 518, 388, 208, 364, 291, -336, -287, -418, 118, -211, -1034, -98, -532, -104, -132, -677, -483, -358, 1425, -335, 83, 490, 618, 388, -259, 153, -279, -464, -223, 50, -491, 46, 149, -19, 148, 338, -140, -105, -765, 210, 230, -475, -700, 295, -58, 146, -745, 457, 76, 618, 891, 26, 636, 769, 372, -127, 499, -298, 716, 502, 59, 558, 696, 133, -250, -903, -991, -1317, -202, -740, 414, 557, 57, 164, 377, -166, 616, -679, -48, 399, -4, -16, 189, -655, -14, 943, -56, 290, -1, 538, -112, 490, 469, 327, 587, -546, -1491, 35, -598, 637, 646, 44, -300, 159, -1016, 205, -419, -381, -388, -705, 293, 362, -288, -256, 360, 668, -187, 69, -292, -1070, -140, 799, 372, -91, -19, 451, 662, 268, 569, -309, 896, 13, 179, 212, 197, 257, -585, -55, -184, 468, 301, -598, -190, -974, -93, -124, -475, 790, -500, -701, 283, -469, 940, -333, 234, -841},
{843, -259, 180, -279, -198, 880, -757, 154, -410, -409, 893, -276, -1231, -221, -366, -139, 247, -10, -759, -190, -377, 1215, 778, -223, 581, 62, 149, -332, 960, 388, 0, 118, 457, -1059, -527, 65, -690, 404, -70, 615, -319, 612, -955, -588, -90, 292, -351, -111, -391, 642, -738, 477, -349, 198, -388, -1119, -1081, -189, 439, -3, -421, 663, -131, 183, -89, 228, 1072, -384, 680, 589, 124, 261, -70, 690, -309, 352, 649, -972, 173, -611, 182, 1074, -203, 391, 773, 356, -412, 766, 224, 113, -641, -312, 148, -105, 444, 708, 33, 781, -190, 550, -215, -262, -48, -241, 237, 185, -32, -245, 340, 837, 608, 33, -816, -154, -778, 727, 432, 1046, 27, 142, -471, 243, 470, -267, 848, -933, 0, -381, -360, 203, -45, -79, -222, -718, -42, 100, 305, 172, 257, 935, 3, -852, -315, 233, 852, 761, -367, 58, -78, 511, -177, 0, -855, 169, 594, 363, 96, 429, 283, 473, -600, -114, 97, -158, 264, -96, 383, -110, 56, -412, -581, 233, 113, 100, -263, 740, -1463, -1096, 206, -155, 452, -11, -359, 820, 295, -17, 217, 96, 24, -551, 306, 399, -301, -524, 326, 445, -595, -104, -469, -448, 179, 196, -1304, -114, 334, -256, -499, 374, -269, -65, -135, -99, -272, 617, 28, -535, -187, 286, 969, -382, 124, 964, 201, 921, -424, 506, 857, -312, -309, -313, -1570, 57, 127, -445, -173, 376, 1087, -104, -622, 664, 464, 107, 11, 947, -305, -394, -1111, 28, 353, 129},
{-528, 282, 909, -354, 162, -532, -181, 157, 64, 47, 157, -299, 1121, -1118, 238, -285, -495, 36, 110, -420, -714, -10, -169, 538, 635, -153, -209, -441, 234, 738, 30, 463, -488, 80, 91, 499, -378, -402, -471, -754, 180, -953, 477, 196, -168, -371, -470, 68, 54, -918, -377, -476, 95, 373, 152, 25, 801, -110, -867, -1489, -170, 135, -136, 141, 1050, 468, 185, 273, -670, 409, 240, 155, -791, -413, -561, -264, 373, -255, 7, -286, -171, 521, -1025, 92, 447, -659, 785, 404, -99, -75, 15, -579, 1168, -426, -104, 431, -407, -229, 625, 289, -120, -111, -113, -148, -783, -1197, -288, -280, 492, -234, 340, 125, -448, -558, -284, -263, -4, 231, -671, -619, -478, -339, 1106, 136, 456, -87, 727, -288, -635, -184, 40, -552, 15, 667, 239, 265, -588, -111, 224, -2079, 279, 293, 185, -421, 988, -391, -74, -888, 508, 785, 330, -178, 604, 544, 932, 164, -637, 218, 402, 31, 1410, 173, 800, -534, 600, 171, 61, -776, 579, -1007, -789, -336, -35, 693, -23, -541, -241, 209, 557, -751, 393, -271, 183, -70, 11, 415, 181, -176, -128, 483, -461, -286, -796, -74, -26, -221, -372, 880, -315, 123, 235, 270, -449, 83, -265, -184, 525, 656, -143, 254, -401, -767, -274, -408, -90, 418, 392, 61, -985, -390, 61, 657, -535, 511, 1, -157, -392, -473, 707, 486, 775, 349, -130, -669, -241, 231, 434, -773, 996, -82, -445, -341, -172, 67, -604, 178, -827, -319, -881, -281},
{601, 82, -369, -126, 575, 700, -547, 170, 75, 76, 869, 533, -977, 309, 234, 874, 102, 1173, 53, 119, -163, -158, 32, 21, -814, -161, -555, -177, 111, -329, 552, -62, 519, -588, 122, 533, -585, 360, 218, 112, 178, 221, 808, -136, 460, -547, 80, 569, -518, -978, -622, -260, 251, -907, 52, 570, 323, 216, 637, -243, 36, 1096, -449, 925, 507, 902, -164, -385, 231, 259, 433, -325, -396, 203, -724, 110, 73, 615, -27, 166, -240, -3, -267, -508, -99, -219, -501, -228, -588, 44, 415, 54, 306, 146, -382, -498, 98, 615, 296, 309, -343, 667, -324, -264, -121, 799, 44, -60, -456, 269, -201, -236, -647, 608, 86, -273, -17, 176, -529, -279, -186, 24, -147, 350, 48, -634, -637, -668, 258, 599, -273, -106, -185, -822, -332, -385, -449, 467, -821, 988, -61, 471, -494, -548, -598, -284, -63, -546, -48, -268, 63, 266, 99, -219, -1089, -807, -285, -1443, -115, -808, -979, 239, 400, -528, -222, 104, 321, 381, -119, 305, 180, -363, 387, -367, -1367, -384, -450, -95, 372, -1146, 25, -276, 263, -564, -1113, -1015, -682, 524, 268, -270, -315, -20, -259, -626, -287, -564, 690, 578, -444, 674, 332, 580, -563, 43, 258, -753, -400, -419, 77, -146, -884, 27, -119, -390, 1315, 316, -1377, 313, 774, -33, 398, 483, -1250, -109, 0, 766, -53, -200, 638, -540, 342, 271, -676, 529, -302, -89, -602, 373, 185, 725, 277, 727, -594, -321, -113, -117, 159, -16, -107, 35},
{-220, -307, -316, 203, -163, 209, -79, 1085, 135, -304, -566, -1175, -500, 197, -786, 126, -431, -364, -459, 28, -534, 817, 109, -28, 412, -172, -664, -1531, -430, -71, -604, 416, 254, -359, -62, 224, 805, 497, -209, -340, -838, 809, -353, -335, -290, -254, 93, -631, -81, -99, 483, 1069, 595, 128, -68, 775, -379, -398, 714, -150, 256, 297, -221, 303, 285, 358, 217, 315, -538, 140, 483, -398, -202, 512, 222, 222, 358, 418, 456, -180, 19, -583, 98, 185, 2, -198, 774, 206, 367, 210, -86, 177, -912, -607, 1, 1077, -684, -208, -26, -728, 613, -108, -805, -473, 349, -466, -82, 436, 859, -54, 113, -340, -379, 76, -546, 37, -165, -133, -1102, -1490, -1479, -54, 721, 235, -711, -491, -535, 166, 909, -366, -193, -213, 79, -111, -1057, -1129, -42, -341, 530, -694, 422, -1173, 633, 319, 195, 38, -171, 98, -259, -270, -334, -231, -11, 233, -238, -319, -136, 572, -317, 93, -217, -949, 143, 364, -324, 182, 255, -844, -259, 577, 103, 445, 457, 263, 123, 199, -593, -620, 425, 623, -199, 174, 291, -146, -215, -28, -814, -263, -674, -1, 154, -724, -1555, 287, -157, -1054, 657, 1021, 335, -344, -450, -660, 706, -219, -479, -68, 157, 222, -234, -35, -581, 628, -284, -672, 162, 551, -1170, -334, -777, 468, -467, 714, -1035, 404, 184, 161, 570, -346, 584, -384, 1118, -132, 634, 486, -343, 462, 283, -194, 777, 640, 125, -190, -268, -12, 224, -454, 482, 655, 700, -672},
{-72, 189, -581, 303, -63, 523, -166, 661, -183, 0, -245, 341, -25, 100, -928, -190, 373, -703, 76, 70, -347, -29, 808, 219, -483, 339, 369, 112, 67, 83, -463, -493, 479, 88, 277, 51, 254, 728, -21, 1112, 543, 571, 411, -439, -1746, 923, 887, 335, -1184, 268, 563, -39, 784, 528, -440, -297, -1115, -202, -206, 757, 371, -302, -122, -16, 72, 162, -500, 125, -140, 330, -480, 1414, -170, -288, -37, -565, -444, -500, -100, -744, 239, -53, 428, 15, -651, -241, 23, 1123, -1353, -195, -480, -200, 289, 655, -24, 303, 449, -375, -267, 27, -544, -417, 580, 88, -450, 164, -626, -76, 494, -25, -39, 470, -589, 266, -193, 941, -271, -535, 570, 661, 103, 0, -216, 505, 614, -431, -99, 360, 342, -725, 90, -485, -34, 258, -310, -119, -205, -812, -252, 578, -387, -685, 513, -286, -493, 83, 493, -270, -961, 63, 224, -454, 453, 671, 1, 791, -304, 300, -91, -629, -102, -794, 273, -739, -439, -432, 491, -567, 797, -176, 246, 225, 779, -114, 186, -651, -32, -309, -139, -534, 618, 177, 926, -98, -659, 665, -3, 261, -599, -804, -266, -191, -63, -729, -949, 67, 466, -190, -97, -266, -598, 199, -192, -288, -1036, 176, 156, 5, 384, -433, 95, -220, -299, -386, 56, 19, -161, 837, -155, -929, -1109, 25, -409, -469, 1111, 405, -247, -438, -178, 500, -20, 423, -162, -246, 246, -1156, 208, 374, -375, -397, -331, 505, 846, 149, -161, -163, -78, 483, 177, 170},
{-558, 7, -472, 756, -154, 123, 614, -203, 1031, 835, -136, -549, 117, 318, 101, 491, -684, -186, 214, -99, 773, -297, 349, 320, -641, -308, 13, 680, 38, -715, 700, 666, 565, -659, -140, -278, -407, 177, 32, 299, 462, -150, -342, -299, -379, 259, -249, -466, 115, 603, 160, 559, 528, -799, 449, -442, 262, -65, -237, 170, 391, -44, -19, 4, 78, -180, -453, 368, -828, -192, 697, 443, -112, -163, 787, -613, 56, -565, -436, -514, 21, 264, 52, 487, 418, -206, 365, -137, -5, 341, -710, -281, 378, -145, 717, 618, 481, -425, -378, 93, 114, -63, -793, -505, -310, -270, 355, 130, 477, 255, 114, -195, -781, -109, -413, -530, 296, 231, -501, -182, 912, -65, 34, 33, 155, 353, 1, 15, -357, 89, 308, -259, -157, -425, -1135, -85, -1256, 661, -285, -147, 126, -164, 355, -38, 69, 767, -511, 307, -316, 158, 21, -61, -541, -60, 11, 23, 822, 266, 51, 545, -225, -431, -612, -445, 96, 104, 225, -452, 93, -914, -593, -519, -305, 246, -689, 108, -256, 482, -733, -442, 1156, -223, -905, 311, 291, -223, 78, -50, -103, -12, -164, 579, 15, 433, 185, -269, -105, 242, -376, -237, 513, 378, -265, 38, -712, -864, 199, -349, 257, 365, 427, -113, 452, -174, 157, -430, -257, 343, 42, -1237, -1160, -440, -239, -488, 497, -111, -781, -963, 448, -472, -17, -212, -208, 86, -15, -1001, 484, 175, -369, 1117, 631, 160, -310, 460, -182, 746, -1052, -102, 221, -840},
{-443, -112, -186, 46, -223, -209, -20, -559, -397, -464, 279, 735, 129, -234, -157, -276, -818, -708, 19, -100, -849, 123, 83, 30, 58, 508, 568, -404, -361, 176, 285, -9, 331, 337, -765, 616, -272, 627, -4, 159, -76, -450, 386, -97, 605, -533, -909, -340, -523, -300, -757, -699, 35, -367, 227, -309, 223, -545, -434, 145, -132, -1258, -643, -73, 130, -772, 250, 485, 70, 97, 752, 548, 0, 278, -113, 434, -242, 373, -146, -323, 317, -1209, 319, 751, 280, 375, 115, -244, -330, -629, -135, -75, 187, 142, -16, 36, 520, -566, -371, 225, -536, -208, 218, -346, -5, -669, -95, -473, -467, -26, 499, 164, 456, 572, -40, -105, -131, 269, 331, 275, -141, 248, 582, -18, 205, -587, -480, 377, -138, 527, 480, -362, 322, 676, 399, -167, -461, -205, -106, -1042, -1036, -912, -27, -695, 617, -695, 438, 278, 221, 379, -328, 160, 41, 402, -53, -515, -401, 79, -379, -424, -234, -375, -432, -73, 168, 253, -113, -325, -147, -55, 545, -5, 427, 304, -294, -16, -406, -476, 755, -117, 460, 753, -516, 299, 116, -508, 283, 424, -409, 251, 8, -259, 347, 151, -303, -702, -86, 78, 491, 88, -50, -418, 134, -250, -56, -966, -734, -928, 104, 237, 127, -619, 131, 236, -93, -1522, 267, -54, 430, 579, -138, -745, 680, -721, -1044, 141, 922, 85, 412, 51, 109, -335, -314, -87, -400, 638, 518, 521, -265, -349, -320, 212, -759, -424, 229, 29, 230, -53, 757, 141},
{788, -145, -253, -937, -410, -74, 431, -361, -738, -587, -359, -450, -200, -2, -750, 193, 760, 112, -190, -1124, -300, -537, 331, -88, -657, 323, 449, 105, -77, -427, 136, 273, -147, -640, 415, -288, -372, 159, -6, -41, 613, -83, -885, -767, -661, -414, 213, -284, 467, 129, -631, 388, 1411, -188, 336, -116, 270, 226, 795, -811, -549, -752, -26, -45, 108, -634, -78, -101, 167, 656, 154, -208, -105, 1199, 413, -242, 306, -834, -346, 352, -1496, -35, -118, -393, -100, -245, -211, -226, -839, -1484, -298, 331, 594, -276, -45, 59, -330, 313, -511, -209, 497, 844, 799, 1, -289, -185, 324, 461, 476, 675, 359, -427, -377, 487, -204, 163, 460, -692, -185, 292, -23, -859, 427, -7, -122, 655, 49, 186, -222, -415, -828, 189, -551, 593, -57, 166, 171, -1243, 293, -239, -783, 174, -202, -441, -397, 317, 253, 44, -112, -374, -191, -193, -242, 65, 232, -1316, 707, 467, -28, 668, 4, -102, 347, 279, -16, 352, -666, 204, 994, -464, -123, 238, 312, 380, -973, -280, 464, 779, 398, -506, -67, 193, -355, 253, -246, -493, 330, -281, 994, -434, -167, 278, 515, -53, 750, 5, 325, 425, -291, -135, -24, -792, -404, 51, -339, 114, -660, 213, 255, 162, -219, 428, -91, 376, -514, -108, -131, -630, 224, 116, -949, 50, -413, 817, -1193, -537, 965, -368, 350, -222, 81, -293, 1120, 18, -113, 501, 549, 179, -915, -247, -63, -138, -621, -682, 48, -286, 699, -209, -469, 484},
{59, -369, -549, -40, 101, 228, -135, 306, -118, 1091, 771, -695, -562, 190, 852, -165, 506, -360, -890, 282, -20, -237, 736, 861, -321, -172, -45, -797, 540, -344, -420, -539, -442, -759, -727, -13, 999, -229, -77, 788, -211, 472, -47, 279, -68, -64, -435, -1274, 542, 91, -102, 805, 50, -90, 397, -107, -883, 315, -1029, -699, -24, -238, 1016, -1145, -62, 110, -663, -189, -900, 1208, 150, -305, 61, 106, -139, -174, 556, 63, -565, 184, 169, 381, 556, 345, 599, -1142, 382, -514, -78, 369, 223, -486, 73, -210, 644, 34, -848, 101, 243, -875, -626, -267, -242, 813, -1443, -65, 479, -159, -269, -551, 645, 42, -561, 797, -71, 204, -141, -413, 216, 94, -1232, -60, -466, 204, -340, 267, 83, 117, -89, -672, 1041, -132, 137, 28, -227, -394, 62, -105, -59, 427, -1263, 438, 679, 34, 153, -57, -257, 44, -286, 421, 443, 9, -881, -796, -587, 649, -75, 831, -141, 267, -400, 546, -1092, 801, 698, 465, -8, 237, 141, -210, 897, 433, -43, 679, -768, -388, -296, -52, -622, -93, 335, -312, -155, -193, -295, 494, 204, -404, -442, 204, 354, -397, 365, 604, 343, -86, -279, 237, -138, -484, -156, 600, 434, 279, 554, 652, -204, -281, -155, 530, 343, 675, -199, -1044, 515, -362, -260, 830, -132, -249, -591, -880, 550, 274, 766, -145, 399, 169, -299, 776, -249, -377, 386, -536, -945, -402, 899, -392, -270, 29, -623, 316, 200, -881, -143, 516, -1123, 109, -340, 52},
{367, -248, 662, 681, -788, 1150, 1046, 1116, -1241, -558, 490, 297, -397, 150, -718, 330, 717, 177, 130, -557, 243, -395, -89, -848, -608, 392, 68, 32, -583, 525, -659, -9, -343, 149, -286, 32, -558, -16, 258, -329, 628, 928, 793, -13, -270, 208, 575, 213, 593, -438, -169, 280, -217, -716, -353, -581, -199, -57, -760, 280, 729, 369, -99, 659, 34, 13, 35, 85, -363, 397, 733, -1118, -889, -1185, -526, 137, -339, -346, 147, 532, 538, 191, 454, 455, 278, 50, -719, 555, -515, 284, 215, -149, 71, -448, -137, 417, 555, -598, -88, 274, -479, 345, -220, 64, 177, 390, -902, 119, 257, 436, 434, 109, -819, -442, 382, -1092, -823, 148, -411, -191, -978, 181, 904, -472, -362, 438, 4, 299, -105, -1079, 363, 6, -455, 616, 124, -1220, -146, 77, 402, -460, 552, 75, -5, 1256, 989, -283, 258, -145, -679, 143, 372, 280, 511, 643, 218, -523, -211, -317, 15, -360, 316, 435, 458, -951, 68, -224, -321, -291, 353, 890, -40, 169, -41, -793, -438, 1065, -480, 290, 308, -76, -188, -606, -579, 97, 184, -230, 2, 559, 481, 196, 571, -662, -128, -1923, -48, 377, -243, 799, -951, 199, 61, 950, 591, -77, -509, -8, -982, -122, -328, -583, 624, -57, 1349, -50, -1013, 469, -327, 216, 32, -844, -354, -23, -330, 573, -1046, -280, 641, 71, 138, -429, -236, -479, 33, -267, -124, -280, -18, 320, -352, 440, -269, -182, -92, -704, -794, 67, 882, -339, 197, 231},
{192, 82, -620, -158, 351, 524, -187, 629, 798, 165, 806, 176, 518, -441, -204, -521, -432, 571, 1204, -665, -122, 553, 83, -267, 86, -358, 393, -1365, 459, 686, 272, -549, 16, 34, -48, -325, -241, 985, 215, -358, 78, -49, -506, -458, -226, -112, 748, 447, -118, 136, -9, -118, 186, 427, -159, 12, -533, 928, -92, -198, -225, -361, -96, 493, 82, 70, 225, -120, 315, 758, 1246, -91, 233, 576, -437, -812, 643, -24, -575, -57, 405, -180, 52, 418, -157, 281, 269, 1045, -881, -253, 69, 482, -234, 256, -467, -110, 238, 172, -718, -623, -257, 133, 709, 466, -550, 618, -87, 123, -118, 449, 322, -514, 272, -378, 83, -356, 719, -189, -651, 149, 734, -907, 164, 848, 607, 88, 353, -164, -20, 497, 625, -423, 3, -405, 261, 492, 684, -100, 3, 1253, -478, 9, 327, -93, 621, 192, -871, 280, 343, -1285, -408, 531, -241, -669, -415, 397, 31, -729, -459, -170, -373, -817, -658, -910, -621, 141, 559, 216, -587, 259, -742, -86, -143, -649, 470, -491, -232, -693, 92, -230, 843, 207, 771, 562, 687, 229, 706, -1341, -43, -750, 93, 332, 58, 682, 290, -1116, 669, 1216, -228, -628, -312, 227, -409, 1111, 246, -184, 396, -726, 128, -223, -324, 349, -893, 913, 13, -69, -2223, -296, -31, 78, -203, 820, 445, 106, 847, -288, 264, 365, -157, -1084, -135, 209, -481, -636, 126, -1216, 39, -416, -265, 44, -400, 789, -153, -460, -724, -76, -474, -52, 883, -785},
