#pragma once
const int w2[10][500] = {
{42, 344, -657, 566, 386, 636, 662, 578, 771, -393, 837, 378, 296, -256, -448, 459, 325, 521, 460, 336, 302, 398, 731, 488, 241, 335, 156, 312, 389, 615, 322, 510, 571, 617, 356, 1022, -786, 444, -725, 435, -65, 167, 455, 162, -17, 738, 443, 508, 247, 283, -202, 141, 513, 305, 361, 224, -35, 166, 644, -8, 436, 527, 581, 420, 277, 441, 476, 446, 315, -206, 436, 454, 108, 168, 266, 246, 466, 721, -182, 366, 621, 535, 353, 513, 566, 398, 218, -678, 499, 464, 418, -90, 454, -453, 489, 237, 442, -821, 225, 554, 269, 285, 629, -600, -491, -377, 467, 388, 723, -523, 311, 912, 559, 229, -720, 203, -369, 228, 321, 432, 437, 349, 264, -571, 216, 106, 756, 286, 279, 630, 336, 211, 443, 544, 553, -531, 594, 711, 322, -693, 623, 585, 18, -643, 36, 216, 559, 540, 453, 466, -246, 580, 10, 560, -417, -403, 611, -427, 376, -239, -375, 551, 537, -381, 244, 478, 276, 252, 542, 572, 281, 233, 506, 299, -656, 476, -470, -779, 408, 293, -275, -71, 155, -35, 663, 709, 358, -516, 636, 268, 228, 775, 570, 755, 438, 557, 410, -227, 534, 832, -347, 150, 413, 208, 293, 595, 719, 199, 628, 660, -38, -263, -431, -229, 243, 428, -145, -290, 451, 178, -500, -532, -577, 730, 362, -703, 461, 659, -104, -274, 438, 297, 360, 527, -453, -307, 341, 220, -449, -593, 413, 106, 442, -832, 739, 37, -550, 671, -513, 508, -588, -218, 683, -120, 168, 53, -432, -211, -129, 470, -67, -253, -396, 492, 421, -168, -380, -229, -288, -234, -367, -517, 163, -278, -465, -239, -393, -331, -145, -276, -280, -152, -152, -316, -586, -327, -39, -385, 213, -94, -286, -269, -299, -413, -623, -167, -169, -383, -549, -216, 611, -198, -211, -353, -289, -621, -711, -316, -132, -798, -417, 82, -111, -107, -564, -146, -416, -165, -298, 392, -121, 28, 657, -445, -195, -447, -410, 38, 516, -471, -349, -524, -403, -211, -312, -463, -347, 229, -593, -373, -298, -327, -217, 605, -482, -252, -183, 324, -451, -468, 36, -534, -397, 185, 225, 305, -390, -113, 140, 246, -288, -95, -249, -393, 126, -189, 158, -253, -453, -294, -365, -427, -231, 570, -409, -273, -217, -456, -344, -245, -379, -628, -477, 5, -335, 420, -262, -428, -2, 55, -234, 9, -683, -77, -252, -327, -224, -436, -294, -146, -591, -179, -363, -56, 227, 130, 167, 304, -258, 332, 322, -186, -355, 277, -141, -197, -146, -237, -295, -464, 0, -272, -106, -423, 207, -247, 235, -20, -388, -226, 306, 660, -135, 473, -522, -90, -377, 293, -32, -541, -435, -205, -344, -353, -344, -381, -251, 499, -136, -530, 402, -271, -265, -110, -382, -387, -309, -584, -257, -384, 259, 787, 521, 266, -260, -385, -518, 488, -372, -463, 258, 126, 534, 131, -322, 397, -298, -151, -269, 231, -167, -262, -397, -75, 220, 514, -445, -471, 458, 327, -518, -535, -209, 239, -141, -374, 199, -97, -74, 547},
{401, 341, -537, 299, 217, -10, 424, 216, 148, -453, 123, 402, 387, -484, -341, 286, 343, 306, 327, 409, 320, 395, 251, 330, 436, 327, 327, 438, 275, 404, 284, 329, 264, 316, 494, 378, -199, 377, -239, 370, 315, 339, 298, 440, 432, 314, 265, 337, 451, 252, -339, 251, 234, 323, 379, 471, 379, 358, 337, 464, 396, 304, 289, 305, 368, 231, 309, 284, 378, -409, 345, 283, -481, 376, 329, 383, 399, 46, -362, 493, 369, 431, 344, 370, 384, 380, 412, -325, 512, 408, 275, 310, 320, -464, 447, 339, 372, -463, 468, 333, 287, 454, 415, -332, -354, -303, 421, 313, 38, -309, 388, 295, 257, 301, -194, 320, -301, 284, 372, 284, 460, 392, 287, -515, 391, 385, 338, 374, 407, 296, 391, 547, 419, 248, 393, -387, 262, 409, 349, -289, 303, 173, 479, -178, 292, 292, 307, 370, 534, 312, 407, 358, 381, 218, -315, -248, 173, -432, 344, -492, -299, 254, 325, -280, 277, 258, 422, 313, 313, 371, 329, 314, 260, 395, -366, 324, -265, -134, 470, 277, -360, -502, 246, -467, 415, 346, 310, -325, 324, 318, 510, 335, 215, 309, 332, 427, 354, -388, 281, 554, -427, 337, 343, 350, 412, 343, 182, 421, 441, 335, -309, -640, -427, -492, 382, 345, 411, -526, 381, 357, -291, -83, -427, 245, 410, -323, 320, 234, 330, -363, 338, 267, 394, 246, -321, -472, 377, 369, -501, -411, 439, 335, 354, -256, 175, 318, -317, 263, -299, -284, -160, -357, 460, -526, -470, -332, -525, -492, -448, 370, -642, -421, -326, 484, 424, -447, -284, -422, -460, -456, -369, -375, -563, -493, -395, -376, -297, -395, -394, -535, -336, -496, -462, -498, -616, -844, 520, -429, 517, -462, -238, -362, -482, -360, -94, -660, -462, -453, -313, -415, 242, -293, -466, -386, -434, -320, -210, -358, -469, -114, -463, -544, -508, -441, -233, -363, -485, -453, -380, 457, -448, -598, 180, -266, -310, -415, -418, -394, 222, -455, -556, -553, -471, -568, -471, -525, -365, 554, -705, -439, -324, -245, -381, 481, -507, -277, -509, 589, -381, -402, -388, -343, -580, 506, 466, 404, -433, -484, -439, 410, -417, -823, -404, -243, 445, -288, 420, -324, -420, -373, -421, -408, -323, 467, -184, -257, -564, -403, -370, -458, -364, -293, -480, -486, -493, 557, -462, -576, -403, 534, -549, -481, -158, 522, -310, -241, -423, -360, -623, -448, -131, -579, -233, -494, 376, 453, -486, 523, -428, 441, 365, -535, -451, 358, -312, -405, -438, -309, -450, -471, -516, -319, -452, -382, 543, -446, 333, 513, -411, -338, 248, 207, -343, 216, -642, -513, -404, 460, -647, -249, -403, -523, -342, -498, -477, -482, -468, 287, -481, -615, 462, -291, -406, -439, -453, -425, -431, -292, -539, -488, 350, 411, 299, 392, -425, -369, -110, 467, -400, -282, 452, 370, 371, -540, -404, 428, -450, -519, -159, 394, -468, -349, -381, -494, 330, 435, -307, -297, 387, 581, -381, -330, -331, 517, -549, -179, 431, -382, 591, -234},
{-581, -176, 440, -338, -286, 479, 46, -207, -97, 355, -382, -528, -292, 370, 343, -27, -87, 14, -312, -386, -419, -69, 237, 44, -195, -251, -330, -176, -231, -165, -203, -111, -160, -337, -571, -513, -26, -198, 336, 77, -344, -593, 95, -348, -503, 18, -92, -256, -198, -725, 759, -502, -294, -215, -238, -404, -567, -317, -212, -459, -222, -153, 149, -165, -381, -393, -97, 224, -436, 356, -422, -141, 707, -306, -350, -225, -687, -194, 303, -103, -356, -163, -341, -43, 77, -47, -380, -109, -283, -333, -275, -332, -283, 381, -502, -280, -453, 197, -402, 102, -392, -238, -55, 252, 148, 189, -222, -422, 497, 26, -325, -58, -412, -194, 359, -420, 375, -630, -363, -445, -173, -372, -301, 505, -369, -308, 29, -225, -237, -332, -291, -326, -270, 33, 12, 170, -316, -238, 1, -30, -325, 23, -514, 8, -403, -350, -272, -278, 199, -428, -466, -11, -406, -321, 207, 205, -205, 285, -63, 240, 540, -354, -310, 349, -264, -5, -330, -262, -172, -291, -228, -591, -316, -195, -68, 8, 261, -100, 2, -338, 485, 572, -346, 674, -74, -197, -566, 484, -146, -478, -180, -318, -505, 187, -287, -330, -175, 536, -61, 81, 327, -300, -517, -499, -247, -424, -189, -343, -373, -182, 376, 439, 230, 183, -211, -374, -724, 454, -268, -308, 246, 215, 260, 179, -350, 430, -144, 140, -510, 639, -126, -197, -204, -125, 282, 170, -372, -231, 288, 283, 30, -242, -323, 168, 382, -235, 142, -120, 457, 784, 129, 640, 89, 334, 326, 850, 393, 660, 648, -186, 678, 61, 244, 166, -384, 571, 288, 419, 247, 244, 158, 253, 372, 569, 350, 402, 122, 517, 659, 624, 150, 478, 484, 494, 355, 268, -788, 472, -540, 1007, 101, -70, 598, 177, -54, 367, 638, 561, 389, 363, -108, 116, 51, 493, 376, 104, -9, 140, 137, 246, 324, 419, 545, 625, 126, 156, 587, 575, 170, -808, 208, 421, -111, 177, 19, 332, 393, 952, -469, 336, 510, 241, 335, 417, 368, 538, 131, -637, 659, 399, 298, 266, 506, -628, 276, 87, 432, -605, 659, 450, 351, 236, 469, -618, -378, -441, 120, 438, 844, -394, -1, 754, 349, 268, -556, 31, -82, 96, 506, 506, 416, 455, 352, -374, -21, 430, 709, 329, 345, 332, 372, 153, 165, 355, 651, -133, 583, 610, 245, -564, 431, 731, 164, -726, 270, 22, 397, 345, 745, 362, -42, 189, -286, 403, -399, -757, 333, -369, 331, -227, -628, 898, 392, -294, 152, 554, 343, 381, 499, -42, 39, 346, 426, 490, -743, 578, -461, -846, 156, 584, -312, 35, 69, -54, 289, 515, 78, -437, 624, 325, 805, 482, 543, 667, 529, 292, 321, -126, 578, 472, -477, 152, 295, 157, 93, 345, 769, 215, 798, 528, -647, -628, -458, -276, 309, 457, -50, -368, 195, 297, -575, -674, -561, 622, 242, -175, 410, 646, -377, -303, 344, 356, 237, 644, -283, -586, 322, 238, -240, -255, 333, 3, 469, -512, 1277, 111, -435, 653, -485, 336},
{-371, -250, 507, -383, -339, -206, -298, -102, -293, 530, -168, -380, -504, 500, 364, -306, -417, -433, -212, -486, -260, -369, -9, -294, -323, -372, -474, -300, -235, -469, -354, -426, -209, -196, -513, -326, 146, -307, 158, -272, -475, -365, -88, -336, -349, -488, -202, -280, -469, -302, 593, -384, -169, -452, -427, -227, -316, -405, -158, -360, -177, -170, -265, -282, -424, -395, -144, -99, -311, 365, -211, -339, 548, -423, -589, -208, -181, -60, 251, -435, -261, -505, -115, -211, -373, -359, -463, 294, -471, -266, -492, -248, -239, 424, -438, -451, -242, 306, -321, -195, -339, -313, -282, 174, 250, 421, -404, -418, -3, 378, -525, -106, -188, -397, 42, -366, 455, -161, -248, -404, -321, -288, -309, 456, -502, -317, -276, -454, -485, -416, -269, -286, -493, -216, -273, 365, -246, -372, -134, 103, -103, 29, -454, 168, -494, -412, -199, -273, -301, -294, -707, -299, -490, -312, 521, 175, -212, 387, -307, 369, 265, -352, -527, 416, -308, -155, -372, -267, -211, -326, -353, -339, -289, -316, 42, -258, 263, 1, -323, -323, 530, 608, -280, 557, -422, -249, -272, 276, -226, -316, -497, -386, -330, -216, -276, -439, -404, 439, -386, -429, 534, -299, -243, -326, -344, -309, -168, -558, 15, -302, 383, 395, 495, 392, -320, -392, -387, 470, -494, -303, 453, 225, 379, -33, -407, 183, -323, -148, -387, 249, -437, -188, -449, -88, 179, 101, -278, -455, 352, 344, -373, -406, -156, 52, 261, -502, 203, -27, 409, 135, 251, 403, -238, 381, 532, 288, 527, 422, 273, -173, 457, 580, 141, -375, -156, 472, 275, 220, 355, 197, 311, 366, 572, 373, 489, 452, 256, 417, 478, 426, 383, 387, 480, 318, 397, 69, -491, 438, -349, 597, 487, 366, 468, 434, 38, 364, 276, 263, 208, 343, -248, 345, 460, 429, 281, 351, 43, 472, 656, 79, 533, 497, 318, 457, 141, 14, 347, 650, 221, -350, 433, 405, -364, 270, 238, 452, 163, -28, -321, 498, 426, 156, 455, 524, 250, 475, 198, -554, 293, 297, 432, 224, 439, -176, 386, 200, 361, -379, 145, 266, 527, 467, 344, -334, -385, -342, 309, 316, 309, -366, 292, 444, 367, 245, -433, 435, -416, 576, 190, 179, 155, 438, 360, -317, 239, 317, 402, 236, 234, 443, 249, 332, 439, 509, 371, -448, 374, 273, 471, -504, 482, 356, 149, -327, 397, 222, 459, 185, 678, 401, 128, 270, 423, 313, -297, -325, 462, -378, 415, -260, -247, 469, 309, -311, 340, 729, 223, 300, 446, 309, 502, 360, 513, 411, -455, 468, -403, -623, 554, 391, -323, -217, 253, -13, 409, 337, 285, -273, 138, 216, 312, 555, 414, 457, 167, 314, 511, -219, 377, 382, -530, 577, 569, 291, 578, 144, 287, 245, 414, 249, -350, -510, -328, -237, 219, 259, 103, -310, 282, 298, -323, -430, -374, 410, 593, -164, 370, 225, 452, -338, 285, 514, 294, 533, -420, -434, 401, 407, -422, -315, 451, 267, 338, -453, 156, 348, -372, 418, -347, 174},
{323, 281, -288, 492, 322, -19, 360, 360, 160, -497, 243, 495, 438, -563, -438, 164, 272, 389, 402, 507, 382, 374, 98, 271, 365, 306, 476, 188, 178, 308, 318, 396, 207, 459, 413, 630, -18, 527, -207, 205, 453, 428, 284, 452, 325, 508, 194, 387, 514, 336, -374, 374, 351, 353, 506, 510, 439, 445, 325, 439, 408, 383, 315, 435, 385, 535, 432, 298, 570, -517, 504, 377, -217, 350, 421, 457, 388, 165, -205, 432, 396, 578, 372, 297, 342, 526, 473, -333, 358, 351, 371, 452, 362, -532, 392, 327, 299, -285, 479, 461, 322, 313, 385, -314, -320, -478, 408, 451, 25, -479, 449, 426, 287, 379, -305, 383, -258, 230, 523, 384, 459, 412, 242, -666, 344, 224, 250, 469, 432, 396, 316, 650, 349, 333, 240, -592, 158, 515, 405, -284, 414, 247, 350, -105, 271, 400, 352, 368, 392, 307, 516, 488, 508, 433, -259, -305, 315, -432, 358, -497, -189, 243, 374, -320, 200, 366, 456, 172, 358, 535, 560, 335, 289, 309, -472, 237, -167, -13, 257, 172, -229, -389, 387, -534, 375, 289, 376, -371, 336, 344, 285, 94, 278, 177, 449, 243, 275, -411, 420, 445, -624, 312, 257, 450, 533, 288, 74, 514, 244, 501, -356, -280, -325, -378, 295, 276, 419, -497, 348, 328, -301, -263, -446, 128, 415, -463, 388, 326, 241, -470, 257, 375, 388, 389, -353, -362, 326, 381, -400, -492, 303, 426, 189, -312, -224, 427, -365, 19, -215, -242, -167, -420, 626, -308, -397, -321, -417, -271, -402, 376, -318, -411, -261, 492, 272, -345, -376, -502, -393, -456, -311, -225, -785, -318, -469, -381, -202, -428, -251, -434, -420, -407, -423, -192, -247, -206, 467, -359, 355, -452, -280, -138, -353, -426, -71, -371, -367, -345, -204, -92, -152, -162, -404, -396, -425, -338, 49, -250, -483, -83, -258, -486, -365, -268, -304, -318, -324, -678, -361, 181, -452, -479, 142, -395, -241, -352, -346, -417, 473, -222, -256, -288, -420, -504, -531, -214, -341, 394, -425, -388, -252, -365, -437, 167, -266, -368, -295, 409, -242, -445, -232, -480, -285, 326, 314, 285, -432, -384, -453, 212, -351, -407, -371, -205, 452, -339, 521, -327, -96, -262, -337, -243, -303, 514, -294, -366, -439, -325, -373, -214, -362, -407, -197, -484, -396, 370, -399, -336, -481, 440, -242, -307, -401, 377, -282, -504, -416, -199, -501, -526, -117, -433, -215, -415, 334, 189, -447, 476, -496, 314, 365, -568, -284, 417, -505, -287, -483, -398, -240, -340, -402, -280, -256, -197, 425, -539, 369, 348, -556, -281, 366, 257, -312, 294, -296, -501, -191, 389, -492, -274, -367, -500, -373, -462, -277, -459, -411, 293, -395, -504, 222, -351, -352, -225, -151, -277, -80, -202, -542, -484, 198, 519, 508, 791, -572, -326, -53, 427, -395, -284, 436, 105, 505, -512, -376, 406, -342, -399, -349, 370, -537, -504, -199, -446, 408, 432, -354, -109, 408, 541, -489, -348, -480, 345, -334, -345, 352, -650, 362, -178},
{203, 241, -399, 136, 214, 103, 434, 115, 303, -99, 186, 192, 231, -452, -130, 81, 254, 242, 193, 140, 208, 211, 416, 180, 365, 209, 169, 271, 28, 187, 293, 169, 492, 134, 35, 10, -272, 207, -306, 106, 252, 231, 81, 240, 166, 67, 233, 130, 265, 68, -90, 219, 255, 270, 293, 295, 120, 165, 390, 170, 177, 331, 110, 153, 308, 201, 315, 465, 175, -90, 326, 223, -162, 301, 281, 416, 277, 143, -366, 95, 149, 156, 333, 256, 260, 226, 188, -261, 169, 296, 76, 310, 334, -16, 101, 241, 205, -193, 95, 315, 160, 296, 25, -154, -215, -244, 204, 289, 45, -169, 228, 277, 314, 205, -468, 258, -336, 277, 56, 240, 188, 343, 182, -199, 293, 161, 195, 168, 255, 39, 269, 246, 87, 321, 288, -343, 264, 210, 282, -196, 135, 188, 456, -175, 244, 311, 323, 104, 290, 343, -118, 247, 269, 196, -141, -17, 307, -303, 363, -216, -359, 262, 219, -326, 385, 125, 244, 300, 118, 117, 122, 226, 95, 168, -211, 198, -171, -231, 364, 248, -301, -112, 296, -100, 113, 310, 276, -280, 183, 332, 130, 308, 200, 122, 156, 339, 241, -155, 174, 89, -148, 252, 401, 160, 255, 269, 31, 142, 219, 85, -132, -310, -287, -435, 304, 302, 126, -173, 374, 232, -285, -180, -274, 183, 289, -363, 278, 42, 439, -252, 192, 396, 139, 328, -378, -403, 285, 152, -309, -192, 223, 297, 324, -241, -52, 248, -305, 446, -296, 22, -291, -155, 271, -287, -204, 204, -177, -110, -189, 482, 55, -177, -439, 569, 309, 29, -133, -249, -187, -265, -247, -241, 227, -115, -243, -111, -458, -4, 195, -156, -210, -220, -12, -329, -264, -408, -184, -326, 58, 56, -371, -459, 78, -128, -257, -109, 49, -163, -481, -155, 510, -266, -170, -212, -349, -294, -434, -265, -81, -498, -94, -148, -79, -193, -367, -642, -217, 54, -463, 188, -249, -79, 328, -256, -533, -331, -339, -77, 148, -165, -171, -391, -213, 13, -201, -252, -314, 92, -227, -130, -152, -326, -200, 250, -243, -267, -143, 151, -426, -233, -189, -68, -112, 140, 163, 364, -219, -329, 318, 412, -388, -116, -186, -330, 336, -327, 319, -7, -308, -411, -362, -256, -192, 455, -392, -70, 82, -281, -345, -250, -251, -429, -178, -102, -155, 395, -38, -311, -89, 16, -208, -56, -368, -44, -211, -341, -150, -174, -36, -66, -426, -281, -469, -170, 190, -22, -258, 194, -213, 420, 163, 23, -290, 281, -105, 64, -357, 9, -91, -251, -216, -262, 16, -173, 28, -11, -12, -170, -111, -63, 272, 296, -307, 413, -231, -164, -355, 331, -101, -363, -177, 69, -133, 148, -291, -140, -167, 401, -103, -62, 365, -65, -57, -283, -338, -321, 85, -425, 182, -159, 187, 13, 231, 410, -98, -202, -428, 369, -461, -179, 228, 222, 277, 190, -210, 414, -220, 11, -343, 163, -164, -72, -326, -48, 343, 119, -184, -326, 239, 168, 38, -272, -100, 153, 533, -472, 269, 222, 156, 389},
{-23, -483, 239, -45, -469, -26, 113, -404, 131, 483, 49, -355, 234, 204, -122, -364, -26, -241, -332, -349, -126, 243, -1018, -143, -38, -236, 114, -414, -473, 166, -175, -243, 399, 85, -178, 204, 258, -123, -116, -554, 115, 72, -334, -265, 375, 146, -403, 230, 249, 346, -548, 161, -522, -227, 57, 24, 268, -68, -381, 237, -227, -265, -153, -14, 93, 227, -157, -649, -103, -220, -87, -229, -134, 156, 201, 40, 442, -150, 253, 59, 18, 261, -217, -159, -146, 12, -172, -92, -179, -221, 41, -619, -328, -529, -296, -211, -13, 442, -25, 143, -149, -94, -386, 357, -48, -310, -111, 47, -315, -121, -96, -53, 43, -43, 324, -364, 253, -61, 215, 163, -51, 179, -172, -108, -45, -137, -94, 90, -155, -163, -293, -313, 155, -346, 79, 215, 182, 231, -681, 447, -303, -473, 43, 26, 155, -378, -380, 304, -210, -247, -26, -343, 107, 23, -114, 57, -607, 36, -319, 136, 19, 37, 174, 119, -225, -185, -168, 150, -240, -137, -335, -241, -137, -95, 130, -384, -25, 385, -350, 212, -77, 1, -77, -184, -150, -200, 192, 257, -147, 236, -26, -75, 16, -540, -54, 158, -154, 12, -17, -23, -92, -319, 51, 39, 142, 199, 389, 198, -197, -339, 24, -320, 207, 530, -275, 189, 27, -25, -42, 270, -244, -124, -35, -423, -79, -374, -34, -315, -641, 122, -374, -141, 397, -273, -61, -105, 7, 28, 50, 137, -214, 228, -103, 244, -369, -113, 264, -240, 27, -449, 58, 57, 93, 271, 73, -34, -271, 104, -81, -9, 91, -28, 83, -134, 8, 171, 131, 164, 196, 306, -178, 24, 96, 313, 16, 330, 134, 97, 233, -128, 15, 46, 214, 129, 342, 125, 239, 81, -236, 77, -76, 160, -69, 381, 29, 248, 138, 54, 32, -8, -133, 303, -31, 134, 231, -97, 527, 172, 311, -185, 210, 192, 101, -39, 148, 6, 333, -124, -174, -132, -13, 272, 34, 16, 76, 132, 38, 112, -158, 218, 179, 392, 10, -107, -51, 86, 411, 163, -84, 168, 22, 493, 49, -373, 89, 193, 16, 171, 369, 114, 24, 110, 221, 253, 20, 228, 55, 224, -63, 184, -27, 289, 97, 319, 295, 166, 175, -32, -106, 41, -17, 104, -118, -76, 217, 7, 271, 416, 347, 93, 134, -234, 137, -16, 35, -251, -117, 209, 157, -143, 86, 96, 222, -42, 287, -80, 12, -18, 156, 346, 219, 332, -107, 277, 147, -162, 150, -178, 0, -127, 87, -356, 167, -165, 276, 177, 35, -25, -89, 227, 298, 139, 27, 215, -301, -219, 463, 148, -158, -82, 99, -182, 189, -319, -16, -93, 219, -237, 113, -226, 254, -182, 81, -48, 139, 85, -118, -78, 121, -145, 49, 208, -111, -135, -98, 85, -278, 96, -41, 161, -276, 36, 182, 353, 398, 224, 192, -160, -131, 58, -72, 97, 107, 94, 151, 13, 253, 341, 76, -388, -197, 237, -106, 243, 378, -17, -188, -123, -30, 101, 30, 319, -8, -30, -197, 32, 113, 23, 98, 1},
{-89, -62, 35, 230, 191, 71, 454, 109, -286, -169, -192, -79, -299, 16, -100, -17, 23, -179, -134, 51, 186, -124, 206, -7, 366, -74, -7, 235, 32, 56, -180, 287, 93, -51, 200, 269, -203, 38, 14, -1, 23, -24, 302, -11, -314, 319, -11, -199, -191, 78, 262, -39, -113, 258, 86, 135, -40, 15, -175, 33, 182, 594, 203, -98, -226, -98, 145, 172, 61, -335, 304, 312, 24, 170, -71, 221, 332, -93, 27, 159, 341, 131, 387, 469, -20, 155, 102, -266, 126, -117, -248, 48, -156, 140, -210, -199, 273, -78, 117, -19, 91, 104, 72, -271, -197, -343, 253, 33, 169, -18, 166, 409, -79, -363, 177, -238, 26, -243, 43, 277, 156, -34, -145, -355, -399, 184, -189, -17, -317, 83, 45, -43, 117, 202, 471, -143, 221, 59, 265, -6, 200, 7, -154, -404, 168, -119, -36, -165, 327, 30, -10, -9, 140, 192, -169, -288, -70, -341, 136, -306, -91, 164, 229, 159, -36, -199, 581, 184, -75, -260, 140, -46, 234, -101, 55, 303, 110, -64, 41, 167, 81, -178, 86, 370, -114, 323, -90, -91, 350, -111, -262, 36, -332, 72, 159, 250, 11, -103, -108, 200, -185, 38, 108, 361, 353, 77, 26, 149, 485, -208, -165, -364, 4, -282, 236, 21, 84, -535, 2, 9, 234, 3, -385, 404, -280, -14, 128, 108, -154, -217, -6, -68, -175, 12, -170, -272, -157, -130, -4, -81, -75, 79, -37, 122, -28, -260, -432, 54, -692, 127, 16, 54, -38, -299, -336, 237, -25, 295, 433, -279, 347, -243, -238, 203, 26, 181, -22, 230, 75, 54, 65, 162, 7, -69, -205, 127, 14, -65, 390, -166, 16, -202, -151, 373, -257, -479, 41, 66, -92, -9, -172, -312, -44, -80, -87, -58, 139, 69, -127, -14, 87, -258, 229, 155, 137, -293, 219, -54, -104, 33, -34, -245, -80, 117, 448, -308, 77, 172, -118, 216, -427, -179, 73, -250, -91, -171, -309, 482, -28, -53, -104, -124, 204, -289, 79, -121, -49, -20, -168, 269, 325, -192, 125, -244, 62, -70, -226, 55, 169, 183, -136, -217, 34, 1, 106, -77, 46, 168, 315, -250, -192, -128, -154, 157, -158, 31, -10, 56, 125, -347, -181, -77, 164, 361, 256, -242, 283, 75, 163, 68, -196, -275, -14, -144, -97, -59, -340, 451, 8, 102, -167, 218, -165, -53, -205, 169, -111, 277, -528, 175, -143, -179, -483, 157, -66, 86, -172, 245, -200, 158, -106, -14, 98, -7, -211, 221, -661, 196, 176, 217, -380, -64, 244, 133, 100, 63, 11, -317, -187, -126, 175, 313, -181, 22, -8, -88, 70, 230, -68, 134, 164, 249, 298, 59, -42, -137, 47, 176, 65, 132, 120, -87, -72, -397, -524, -85, 225, -514, -469, 286, 42, -54, -100, 421, -118, -130, -109, 283, 35, 272, -120, -264, 173, 50, -166, 166, 61, 301, -165, 20, 105, 96, 42, 81, 291, 171, 141, 250, 100, 340, 331, 187, -4, -105, 300, 177, 66, 88, 374, 435},
{37, -202, 118, -74, -322, -210, -60, -329, -259, -115, -354, -189, 234, 387, 35, -486, -29, -101, -246, 16, 28, -428, -256, -224, -409, -340, 95, -193, -271, -458, -257, -121, -182, -263, -288, 369, 211, -312, 380, -520, -594, -25, -434, -160, 242, -72, 82, -360, 150, -272, 24, -189, -282, -40, -108, 18, 320, -306, -624, 221, -382, -47, -236, -186, 153, 68, -47, -482, 7, 383, -251, -69, 189, -3, -150, -320, -98, -7, 303, -376, -148, 233, -284, -281, -141, -343, 290, 403, -202, -73, -545, 151, 31, 2, -115, 51, -170, 5, -101, -219, -337, -385, -158, 3, 179, 62, 50, -117, -274, 350, -8, -182, -133, -162, 248, -246, 313, -613, 44, 257, -1, -91, -280, 285, 27, -123, -271, -128, 41, -312, 140, 78, -378, -259, -208, -46, -286, -222, -363, 451, -540, -24, 271, 373, -442, -30, -128, -58, -290, -243, -184, 97, -73, -236, 281, 239, -170, 116, -226, -8, -152, -384, 120, 117, -167, -974, 40, -222, -388, -99, -591, -53, -412, -464, 638, -455, 424, 523, -402, -72, -1, -28, 41, 11, -456, 84, -166, 29, 100, 85, -256, -369, -380, -193, 59, -165, -460, 210, -218, -236, 263, -473, -406, -101, -291, 144, -188, 14, -94, -48, 285, 516, 176, 36, -30, 39, 13, -1, 26, -346, 400, 91, 93, -422, -547, -49, 37, -204, -25, -110, -156, -249, -311, -247, 246, 175, -225, -66, 183, 89, -397, -140, -277, 398, -84, -436, -98, -83, 78, -216, 156, -105, -449, 179, 6, 63, 290, -41, 164, -494, 170, 155, 432, -225, -381, 156, 246, 378, -15, 509, 266, 353, -242, -62, 58, 146, 296, 253, 221, 352, 274, 194, -34, -64, 255, 75, 138, -13, 1, -194, 473, 147, -204, 6, 489, 410, 322, 179, 291, 348, -577, 237, 63, 288, 147, -179, 194, 64, -396, 393, -17, -102, 227, 292, 367, 200, -133, -46, 111, -332, 259, 195, -209, 172, 578, 34, -162, 117, 218, 201, -153, 308, -194, 21, 242, 224, 246, -176, 611, 211, 452, 60, 109, -355, 508, 390, 134, -223, 110, -87, 183, -77, 94, -120, -155, -342, 233, 157, -138, -324, 513, -190, -149, 391, 147, 99, -131, 33, 292, 211, 360, -55, 162, -142, 361, 214, 133, 399, 321, 239, 19, 180, 472, 36, -87, -147, -33, 237, -38, 263, -126, -220, 211, -9, 244, 434, 84, 402, -176, 254, 842, 116, 435, 183, -582, -91, -49, -136, 20, -265, -147, 73, 317, -219, 87, -69, 79, 334, 151, 309, 242, 152, 305, 211, -10, 161, -484, 380, 86, 122, -395, -324, 147, -626, 414, -265, 117, 66, 278, 274, 251, 271, 51, -55, 137, 217, 217, -133, 398, 407, -391, 176, 404, 584, 255, 83, 246, 376, -360, -16, -317, -87, -396, -34, 170, 294, 547, 149, 203, 204, -159, 83, 57, -225, 169, 171, -52, 20, 255, -165, 384, -162, 425, 3, 91, 312, 201, 386, -163, -359, 259, 314, -29, 309, -238, 327, 25, -281, -530, 9},
{176, 850, 116, 346, 483, 1101, 433, 769, 993, -151, 1032, 133, 442, 158, -479, 842, 306, 524, 345, 376, 385, 315, 451, 747, 432, 569, 300, 725, 889, 829, 338, 525, 684, 617, 557, 290, -992, 592, -728, 1261, 200, 111, 804, 381, 76, 544, 957, 688, 544, 703, -154, 232, 284, 796, 551, 212, 232, 293, 154, 450, 415, 538, 645, 888, 317, 193, 829, 764, 339, -1087, 243, 756, -236, 309, 13, 487, 545, 1125, -564, 402, 596, 329, 630, 549, 443, 663, 324, -878, 930, 640, 377, 457, 797, -928, 543, 193, 609, -715, 786, 548, 526, 269, 698, -843, -593, -626, 188, 755, 1131, -430, 134, 1061, 505, 340, -841, 148, -354, 321, 846, 628, 418, 687, 635, -209, 103, 537, 918, 477, 572, 288, 535, 241, 257, 501, 780, -292, 733, 743, 199, -626, 489, 1079, 282, -923, 357, 205, 498, 512, 972, 573, -39, 363, -302, 455, -536, -950, 413, -539, 454, -445, -834, 1445, 579, -478, 261, 682, 246, 665, 608, 81, 61, 548, 608, 676, -841, 810, -644, -1154, 203, 798, -494, 94, 224, -107, 470, 663, 199, -490, 921, 570, 1078, 595, 734, 710, 687, 304, 553, -50, 851, 649, -541, 216, 385, 274, 73, 491, 1007, 155, 989, 716, -869, -777, -531, -350, 553, 593, -144, -512, 416, 568, -815, -920, -548, 718, 390, -196, 582, 838, -248, -493, 557, 524, 452, 862, -374, -910, 537, 466, -384, -521, 443, 263, 612, -585, 1741, 160, -543, 769, -572, 427, -802, -418, 347, -484, -475, 610, 61, -338, -328, 531, -557, -878, -556, 418, 488, -126, -114, -231, -490, -603, -528, -198, 57, -6, -210, -473, -532, -230, -428, -410, -206, -262, -320, -691, -615, -725, 114, -390, 400, -154, -415, -748, 109, -607, -781, -35, -68, -466, -510, -951, 851, -708, -404, -189, -603, -622, -738, -643, -514, -642, -173, -274, 152, -514, -644, -590, -94, 201, -753, 496, -661, -348, 765, -424, -648, -246, -1047, -363, 407, -210, -431, -383, -370, -51, -117, -159, -604, 29, -265, -578, -420, -386, -572, 630, -713, -512, -635, 375, -751, -7, -734, -313, -142, 423, 371, 413, -513, -789, 514, 260, -517, -77, -529, -331, 459, -692, 470, -786, -564, -543, -316, -692, -538, 609, -689, -552, -195, -315, -562, -463, -523, -596, -247, -109, -91, 258, -362, -675, -251, 190, -412, -129, -589, 71, -476, -462, -387, -519, 7, -533, -566, -79, -575, -525, 396, 228, -275, 431, -295, 487, 730, -400, -457, 572, -288, -132, -567, -479, -404, -519, -390, -779, -563, -280, 132, -38, 344, 11, -29, -521, 752, 702, -584, 1037, -75, -421, -760, 593, -398, -667, -619, -557, -717, 276, -467, -488, -346, 672, -263, -156, 553, -424, -673, -669, -338, -566, -234, -453, -570, -497, 507, 480, 379, 401, -221, -471, -832, 705, -455, -525, 434, 337, 383, 26, -567, 665, -261, 80, -554, 865, -335, -367, -510, -328, 556, 394, -687, -515, 544, 392, -142, -340, -610, 272, 433, -455, 293, -334, 673, 1023}
};

const int b2[1][10] = {
{-2408, 2855, -3210, -436, 1292, -511, 666, -910, 895, -2830}
};
