#pragma once
const int w1[225][250] = {
{45, -228, 54, 684, -538, 136, 92, 13, 238, 270, 67, 78, 298, -1, -121, 310, -333, 14, 53, 187, 84, -280, 4, 113, 80, 256, -298, 73, -71, 183, -126, -64, -5, 263, 627, -55, -231, -704, -68, 182, -128, 270, -69, 265, 372, 42, 68, 188, 254, 84, 65, 25, -4, 29, -78, -296, 159, -39, 107, -602, -397, -79, 181, -254, -353, 63, -143, 111, 189, -309, -80, 306, -271, -382, 328, -298, 50, -79, -85, 290, 216, 73, -416, -542, 282, -49, 426, 113, 328, 112, 31, -546, -161, 86, 152, 400, 182, -234, -454, -73, -426, 7, -95, -295, -508, 487, -139, -232, -298, -584, 195, -386, 208, 277, -319, 4, -119, 9, 122, 7, -346, -371, -198, -311, 83, -25, 284, -82, 281, 32, 291, -158, -265, -267, 42, -66, -264, -14, 8, -322, 128, 155, 2, 43, -272, 2, -269, 18, 248, -46, 107, 179, -225, -615, -314, 75, -293, 441, 414, 172, -223, -175, -286, -16, -28, -248, 157, -603, 153, -339, 174, 333, 538, -60, -434, 265, 153, -498, 121, -78, -118, -104, 7, -141, -58, -99, 397, -772, -160, 301, -15, 103, -54, -179, 219, 110, -246, 59, 227, -114, -167, -12, -60, 112, 223, -144, -89, 156, -395, -195, 359, -159, -212, -179, -136, 237, -221, 191, -448, 136, 173, -382, -328, 16, 5, -257, -126, 2, -9, -291, 82, 196, -422, 238, 183, 69, 15, -432, -354, 120, -44, -277, -274, -73, -74, 173, -339, 82, 267, 540},
{-371, -118, -28, 271, 249, -179, 81, -46, 366, 79, 168, 83, -467, 201, 97, 5, -732, -276, 561, 157, 376, 368, -342, -392, -733, 22, 179, -154, 403, -37, 48, 100, 417, -27, -188, 54, -170, -41, 164, -244, -293, -95, -21, 55, -92, -8, -207, 194, -266, -408, 18, -233, -519, 156, -391, 272, 346, 57, -142, 682, -131, -63, -712, -124, -119, -590, -492, -532, -235, 233, 86, -503, 219, -485, 703, -153, 105, -279, -452, -498, 305, -15, 14, 150, -359, 29, -513, 263, 72, 19, 188, -327, -350, 277, -207, -264, -376, 154, -587, 80, -877, 81, -260, -189, -487, -560, -131, -31, -86, 385, -42, 486, -74, 25, 23, -340, -125, 515, 330, -334, -665, 49, 68, -233, 93, -58, -20, -172, -506, -220, 279, -319, 166, 402, 438, -89, 792, 558, 107, 48, -742, -240, -88, -182, 58, 475, -62, 164, 34, 262, -97, -52, -440, -290, -137, 205, 959, 44, 332, -93, -16, 64, 249, 43, -247, 174, -626, 118, 381, -255, 158, -90, -48, -56, -725, 267, 3, -123, 62, 581, -478, -341, -316, 454, -158, 431, -369, 37, 183, 354, -8, -78, -490, 279, 253, -579, 607, 478, 155, 46, -476, 18, -102, 76, 324, 140, -62, 3, 629, -50, 222, 40, -452, 100, 164, -433, -121, -120, 343, -369, -19, 50, -18, -248, -41, -104, -138, -203, -594, 12, 521, -29, -462, 91, 279, 40, 109, -132, 514, -37, -562, 233, -104, -87, -218, -658, -37, 273, -13, -144},
{194, 106, 256, -108, 0, -7, 63, -360, -250, 225, -13, -172, 264, 114, -309, -37, -209, -8, -372, 303, -187, 172, -389, -158, -397, -159, 35, 70, -13, -164, 211, 1, 205, 205, 70, 183, -33, 512, 5, -426, -180, 458, -95, 8, 705, 416, 279, 582, -206, 12, 353, 62, -480, 2, -317, 172, -179, -162, -27, 410, -495, -213, -1, -200, -905, -348, -2, -117, -88, 858, -243, 194, 157, 400, -77, 400, -530, -2, -409, 1114, -186, 176, 133, 77, 778, -40, 55, 331, 537, -583, 65, -183, 112, 301, -352, -58, -363, 309, 594, -18, 27, 492, -367, 461, -107, -165, 6, 217, -25, 157, -366, 404, 3, -838, 342, 773, -285, 263, -241, -184, -322, 116, 175, 128, -96, 220, -262, 43, 554, -188, 645, 329, -330, -230, -167, -49, -505, -27, -12, -335, -227, -108, -444, -348, 11, -1059, -245, -271, 155, -501, 151, -484, 234, 257, -52, 250, 16, -360, -370, 33, -171, 486, 371, -5, -312, 331, -389, -99, 106, -272, 335, -93, 153, 196, 40, -141, 73, 203, 321, -188, 32, 47, 44, -328, 51, -247, 150, 41, 172, 243, -263, -80, 539, -188, -259, 75, 112, -492, 14, -49, 71, -3, -228, -46, 266, -139, 97, 17, -81, -93, 329, 271, -155, -94, 122, -240, 110, 193, 552, 78, 4, 21, -169, 832, 262, -66, -12, -126, 140, 399, 159, 145, -898, -528, -5, -38, 557, -513, 155, -143, 3, 128, 78, 30, -126, -569, 426, -89, -37, -205},
{98, -44, -337, 18, -28, 96, 225, 194, 259, -356, 464, -102, -383, -85, 340, -529, -626, 6, 610, -124, -108, 99, -70, -456, -4, 550, 97, 97, 237, -101, -338, -424, 90, -245, 416, 153, -265, -334, -219, 99, -663, -790, 12, -211, -321, -89, 443, 563, -481, 256, -228, 350, -675, -68, -277, 374, 148, 228, -94, -69, -3, -63, 211, 298, 671, 703, 155, -87, 337, 36, 139, -244, -13, -124, 633, 217, 122, -50, 12, 3, -597, 93, 59, -86, -80, 358, -449, 24, -245, -184, -209, 124, 164, -150, 281, 114, -209, 165, 269, 381, -396, 68, 328, -289, -38, 287, -243, 72, -113, -320, 153, -120, 400, -437, -78, 21, -210, -219, 269, 57, 645, 215, -183, -107, -209, -93, -157, 560, -105, -361, -15, 309, -184, 69, 401, 301, 59, -384, -6, -143, -151, 253, 18, 152, -1, -988, -232, 277, 34, -784, 227, 221, -473, 152, 203, 143, -176, -158, -674, 345, -323, 234, 8, 180, 77, 99, 13, -267, -42, -529, -24, -71, 129, -133, -619, -144, -124, 9, 383, -178, 636, 295, -650, -171, -28, -264, -340, -2, -248, 244, 345, 347, -525, 100, -165, 481, -165, -457, -84, 88, 2, -38, -35, -13, -176, 464, 295, 143, 25, 116, -365, -262, -290, 141, 313, 69, -144, 146, -114, 307, 26, 555, 109, -453, 422, 353, 493, 87, 28, -457, -582, 154, 65, 495, 250, -92, -212, -400, -154, 208, 112, -54, 73, -230, -313, 50, 112, 35, -72, 334},
{-120, 100, -140, -671, 680, -112, 460, 110, -329, -58, 28, 101, -9, 54, -40, -99, 299, 425, -159, 176, -25, -150, -408, 147, -228, 137, 99, -105, -244, -37, -10, -163, 104, 446, -129, -146, 251, -587, 140, 67, 354, 248, 92, -12, -254, -30, -189, -304, -160, 95, 201, -276, -416, 103, -72, -215, 257, 608, 208, 122, -44, -203, -184, -20, 98, -381, -204, -214, -382, -144, 191, -217, 91, 136, 136, 203, 334, -383, 12, 219, -491, -113, 662, 148, -252, 21, 812, 191, 370, -602, -112, 4, 409, -179, 113, -184, 225, -244, -269, 12, -88, -242, -53, 108, 302, -259, -21, 311, 496, 157, -383, 213, 178, -444, -39, 572, -76, -67, 60, 60, 17, 470, -661, -248, -21, -18, -43, -48, 602, -211, 4, -357, -311, 55, -56, -74, -229, -132, -417, 294, -243, -545, 84, 174, 199, 335, -311, -412, 81, 226, -87, 100, 129, -320, 10, -503, 566, 105, 178, -276, -259, -78, -177, 213, 51, 0, -178, -577, 64, 30, -210, -129, 73, 188, -377, -571, 150, -11, -177, 468, -581, 370, -64, 390, 589, -213, -120, -84, 109, 16, 373, 365, -365, 262, -14, -146, -124, 324, -64, 18, 165, -140, 73, -35, -304, -149, -268, -91, -243, -62, -57, -43, 4, 65, 102, -414, 0, -79, -597, -207, -60, -335, 120, 277, -537, 154, -568, -552, 453, 311, -300, 330, 41, 585, 211, 125, -238, 104, -380, -50, -455, -45, -633, -557, -8, 500, -86, 369, -125, 346},
{144, 48, 153, 729, -1053, 271, 539, 22, 80, 51, 194, 430, 870, -407, 74, 325, -478, 89, 109, -592, 57, -100, -608, 411, -72, 498, -94, -222, 38, -215, 441, -514, -96, -327, 36, 138, 11, -293, 89, -381, -375, 10, 108, 310, 10, -178, 283, -7, 172, 419, -126, -403, -157, 341, -322, -854, 23, -201, 130, -195, -321, 479, 595, 37, 456, 363, -114, -33, 10, -330, -249, -331, 328, -289, -157, -213, 76, -97, 354, 501, -38, 13, 135, -214, 74, -332, -175, 100, -580, 576, 121, -464, 565, 371, 168, -185, -193, 22, 389, -47, -444, 662, 28, -159, -282, 58, -318, -50, 399, 161, -97, 307, -551, -108, -214, 48, 212, 178, -219, -234, 211, 153, -61, 70, 257, -33, 213, 126, 381, -29, -647, 125, -590, -136, 65, -79, -386, -15, 10, -50, -536, -502, 241, -471, -145, 11, -588, 113, 160, 405, 178, 491, 231, -156, 91, -209, -104, -712, -502, -7, 758, -156, -144, 173, -64, -156, -312, -327, 582, -116, -93, -202, 700, 45, 241, 500, -138, 99, -35, -215, 514, -351, 19, 86, 688, -388, 52, -63, -744, 38, -138, -87, 316, -45, -31, -592, 220, 1130, -167, -244, -309, 519, -365, -91, -605, 103, 307, -32, -203, -410, 140, -299, 232, 154, 481, 177, 23, -54, -542, 378, 83, -423, 112, -77, -88, -906, -511, 168, 292, 123, 502, 55, -99, 760, -171, -263, -40, 71, -159, 116, -313, -112, -264, -393, 512, 162, 286, -222, 84, 786},
{-31, 161, 54, 333, 359, 231, -407, 39, 414, -278, -6, 258, 255, -181, -82, -281, 219, -121, -61, 24, 573, 610, -280, 195, 116, 305, 339, -227, 24, 281, 570, -475, -107, 35, 239, -103, -45, 454, 239, -362, -191, 441, 44, 555, 110, -15, -239, -241, -682, 341, -112, -157, -887, 202, -24, -115, 532, -484, 57, 211, 39, -2, -11, -59, -41, -123, -244, -577, 38, 358, 433, -564, -106, -302, -110, 196, 358, 397, -71, 52, 96, -59, 159, -295, -439, -182, -556, 69, 104, -522, 199, -451, 200, -225, -270, 639, 24, 45, -442, 97, -829, 385, -224, -106, -48, 10, 472, 253, 115, 907, -155, 249, -145, 951, -37, 8, -159, 411, 162, -365, -726, 702, 247, 167, 522, 220, -326, 195, -630, -95, 496, -504, -465, 126, -228, 363, 124, -916, -2, -85, -539, -431, 88, -80, -30, 314, 756, 334, -174, 362, -427, -334, -432, 431, -487, -47, 496, 514, 751, -191, -331, -57, 113, 343, -752, 289, -505, -368, 91, -681, -190, -459, -563, -268, 119, -55, -346, 246, 26, -65, 51, -216, -73, 82, -378, -784, -288, 349, 314, 154, -464, -12, -624, -224, 80, -533, -243, -170, 234, 384, -187, 322, 420, -79, 380, 261, -618, -78, -14, -393, 176, 34, -534, -35, 488, -77, -387, 180, 536, 29, 177, 101, -231, 83, -405, -127, -399, -381, -562, -106, 237, -291, -41, -648, -122, 400, 34, 259, -549, 76, -493, -358, 270, -235, -254, -73, 62, 138, 256, -395},
{251, 196, -98, -205, 24, -35, 171, 79, 132, -116, -8, -42, -233, -123, 131, 855, -693, 544, -734, 199, -183, -445, -488, 273, 99, -48, 343, -144, -127, 500, -127, 39, -163, 299, 150, -203, -257, 259, -14, -100, 192, 616, -25, 397, 179, 4, -230, 103, -563, 77, -13, -161, 254, 107, -68, 425, 174, 531, -6, 938, 134, -8, 125, -13, -676, -714, -459, -2, 206, 752, 6, 272, -193, -90, -77, -28, -437, 21, -100, 246, -287, -13, -266, 35, 563, 31, -269, -465, 648, -832, -202, -201, -189, 595, -90, -183, -144, -78, 567, -300, 264, 1004, -599, 138, -415, 95, 44, -145, -107, 49, -394, -505, -28, -671, -141, 197, -352, 219, 104, -239, 176, 43, -22, 592, -108, -25, -35, 520, 665, -488, 589, -459, -76, -260, -471, 9, -203, -136, -453, -335, 69, -581, -553, 20, -128, -300, 46, 98, -254, -947, -309, -109, 813, -363, -66, -187, 279, -635, -522, 209, -19, -15, 328, -43, -263, 127, 70, -476, -4, 35, 202, 22, 38, 237, -345, 202, 50, -106, 395, -1, 405, 35, 67, 94, 193, 75, 413, 178, -124, -225, -574, 491, 31, 48, -211, 143, 313, 250, -458, 205, -221, 118, -85, -10, 114, -340, -4, -500, 44, 373, -304, 236, -285, 213, -765, -311, 174, 114, -166, -30, -68, 748, -207, -289, 589, -194, -556, -49, -48, -135, 223, -483, -795, -236, -281, -227, -94, 147, -251, 82, -208, -72, 302, -377, 19, -197, 156, -39, 433, -150},
{307, -178, -42, -23, 185, -222, 73, -139, 234, 79, -238, 250, -4, -402, 76, -55, -900, -206, 388, -731, 530, -142, -337, -487, -484, 241, 62, -235, 436, 59, 110, -173, 281, -517, 51, 74, 347, 636, 518, -276, 110, -78, 223, -873, -165, 437, 508, 475, -407, 216, 343, 75, -68, 49, 278, 838, -153, 37, -138, -36, -103, 192, -53, -129, 263, 494, -133, -47, 126, -332, -118, -28, 193, 310, 58, -81, -184, -445, -138, 817, -379, 124, 221, 195, -75, 602, -746, 295, -442, 408, 204, -456, -373, 0, -23, 477, -189, -69, -26, 109, -499, -178, 81, -261, -272, 1, 270, -216, -370, 537, -569, -28, 243, -618, 42, -76, 311, -201, 794, 174, -192, 484, -256, 299, 451, -183, -141, 204, 174, -29, 109, 152, -776, -23, -382, 18, -195, -900, -266, -379, 100, -968, 711, -36, 39, -1174, -354, 363, -101, -1033, -207, 335, -777, -128, 295, 358, -546, -29, -755, 176, -214, 129, -79, 481, 258, -91, 570, -116, -444, -538, -214, -289, -450, -195, -108, -349, 184, 9, 278, -364, 366, 204, -56, 159, 132, 497, -960, -349, 36, 174, -13, -234, -781, 40, 113, 152, 76, -682, -288, -355, -203, 361, 3, -83, 165, 259, 225, 11, 162, 723, 95, 488, -224, 409, -66, -324, 0, 19, 357, -596, 152, 401, 227, -87, 589, 107, -114, -335, 74, 113, -212, 116, 749, 30, 624, 105, -108, 70, 379, 382, -418, -263, 110, -389, -237, -185, -32, 415, -204, 263},
{200, -200, -184, -269, 52, 62, 354, 253, -307, 714, -133, -123, 468, -58, 338, -520, -110, -522, -414, -58, -455, -173, 33, -5, 284, 690, 143, 420, 69, 11, 538, 157, 227, 346, -390, -319, 91, -214, -124, 715, -224, -9, -131, -799, 103, 109, 196, 23, -496, -70, -92, 484, -223, -319, 476, -864, -440, 57, -693, 485, -372, -158, 386, -464, -280, 96, -474, 361, 1, -109, -215, -382, 35, -225, 303, -560, 34, 118, -144, -132, -587, -170, -246, -100, -246, 104, 295, 0, 175, -470, -28, -479, 6, -220, 173, 439, 634, 282, -101, 135, -371, -270, 747, 749, 135, 333, -162, -294, 647, -150, -851, 501, 713, -103, 129, 438, 315, -329, 404, 247, 489, -162, -103, -290, -487, 334, -91, 88, -214, -259, -80, 185, -599, -81, 505, 173, -770, -391, -237, 345, 534, -112, 633, 504, 208, -221, 449, -560, 355, 647, 248, -122, -97, -722, -14, -175, 299, 209, -305, 147, 155, -330, 376, 63, 5, -575, -297, -1012, 354, 543, -74, -178, 154, 91, 308, 102, -212, 316, -92, -57, 259, 536, 11, 62, 211, -374, -254, -133, -251, 530, -118, 301, -108, 154, -383, 129, -108, 320, 703, 216, -139, 60, -1, -403, 247, -87, -650, 141, -409, -215, 188, 304, 278, -195, -105, -917, -173, -151, -700, -37, -179, -417, -63, 287, -443, 36, -191, -285, -35, 491, -226, 438, 185, -169, 270, -79, 221, 164, 211, -298, 119, -367, -170, -127, 80, 451, 142, -121, 20, 30},
{-392, -43, 197, 254, -541, -238, 371, 88, -447, 80, -354, 460, -124, 8, -9, -311, -547, -194, 162, 74, 504, -263, -320, 233, 159, 78, 417, -157, -155, -34, 104, -403, -403, -8, -219, 109, -194, 35, 346, 46, 45, 100, 9, 216, -57, -19, -480, -62, 316, -117, -249, -233, -293, 13, -269, 244, -70, -180, -96, -640, -534, 177, 70, 43, 109, -214, 366, -272, 269, -80, -325, -615, -80, -217, 210, -67, -442, 46, 213, -53, -199, -69, -127, 674, 261, -206, 164, -325, 335, 173, 204, 0, 68, 493, -6, 28, -102, -86, -356, 64, -83, 57, 385, 432, -230, 261, -394, -560, -72, -204, 89, -287, 96, 102, 29, 251, 272, -206, 593, -118, 209, -438, 83, 30, 469, 208, 6, 561, -32, 14, -96, 7, -164, 343, 505, 19, 88, -380, -28, 210, -86, -209, -357, 47, -178, 1, 385, -13, 184, -227, 373, 430, -79, 245, 31, 51, -580, -47, 422, 106, 664, 56, -515, -41, 76, 44, 127, -608, -58, -410, 25, -480, 97, 136, -406, 390, -187, 140, 694, -139, -346, 514, -544, -134, -258, -372, 154, 60, 181, -406, -268, -164, -87, 244, 227, -387, -62, 290, -77, 46, -29, 501, -523, 114, 91, -368, 134, -272, 166, -487, -59, 190, -110, 187, -795, -190, -243, -770, 534, -100, -11, -65, 371, -92, -562, -698, 848, 226, 268, -69, 227, -167, -702, 320, -187, -135, 17, -294, -206, 182, -287, -46, 343, -49, 430, 189, -102, 323, 123, -320},
{-76, -110, -50, 609, -266, 242, 171, 254, 108, 247, 74, -2, -887, 403, -187, 95, -284, 130, 462, -165, 399, 516, -163, -119, -760, -144, -117, -556, 81, -417, 57, -107, 198, 327, -6, 217, 32, -449, 195, 390, -288, -343, -301, 508, 503, -57, -62, -182, -101, 217, -192, 315, -397, -458, -294, 537, 433, 278, -178, 298, -52, 132, -141, 269, -190, -202, -780, -83, 240, 78, -391, -556, 142, -181, -85, -410, 132, -332, -174, 247, -129, -311, 0, 219, -749, -32, -233, 244, 373, -778, 125, -32, -173, -246, -1, -272, -129, 32, -99, 75, -470, -197, -1136, -104, 164, 79, 86, -109, -134, 330, 350, 480, -59, -17, -68, 6, 309, 133, 136, 56, -102, -362, 230, -177, 524, 157, 314, 125, -432, 97, -3, -675, 26, -370, -168, 39, 298, -82, 67, 161, -545, -140, 393, 157, -303, -7, -247, 597, 152, 994, -125, 398, -718, 67, -14, -170, 445, 218, 335, 89, -228, -89, -192, -78, 29, -291, 167, -487, 719, -223, -152, -241, 126, -361, -242, 31, -38, 3, 281, 395, -32, 435, -46, -134, -165, 95, 18, 151, 282, 496, 152, -295, -628, -405, -148, 77, -299, 322, -231, 323, 137, 279, -695, -245, 697, 280, 466, -221, 29, 121, 279, 427, 106, -385, 143, -380, -140, -41, 245, -123, -43, -36, -23, 356, -94, 450, -264, -216, -359, 195, -501, 66, -73, 26, -14, 576, -106, -50, -237, -133, 168, 954, 265, -435, -50, -163, -501, -116, 295, -179},
{-318, -14, 117, 178, 55, 282, -127, -133, -185, 65, -268, -427, 447, -100, 109, -101, -74, -145, 238, 171, -589, 60, -219, 95, 242, 187, -375, 143, 165, -281, -298, -226, 897, -185, 256, 41, 516, 240, -98, 172, -112, 146, -339, -56, 436, 223, 56, 324, 398, -11, -125, 91, -3, 275, -152, 26, -29, 453, -573, 135, -424, 463, 132, -362, -279, -276, -328, -512, 494, 365, -53, -293, -53, 60, -211, 179, 187, -195, 220, 595, 29, -232, 148, -244, 606, -275, 85, 40, 203, -980, -14, -8, 410, 225, 154, -579, -317, 182, 545, -359, 616, 838, -429, 358, 206, -14, -126, -208, 290, 23, 187, 240, 230, 106, 442, 61, 196, 311, -15, -43, -554, 722, 166, -108, -176, 75, 318, 122, 509, -92, -2, 270, 280, -146, 79, 472, 35, 392, -58, 68, -197, 316, -550, -346, -76, -387, 63, -111, 256, -161, -522, -244, -55, 35, 275, -403, 848, -380, -390, 123, 499, -199, -116, -100, -287, -382, -340, -205, 288, 295, 62, -7, -434, -94, -316, 156, 60, -49, 492, -844, -300, 107, -59, -139, -172, -312, 201, -162, 41, 330, -275, 220, -164, 164, 10, -462, -48, -111, 79, 296, -573, 26, 66, 49, 75, -36, -328, 13, 350, -24, -56, -234, 6, 12, -613, -109, 282, -43, 27, -440, -126, 52, -29, 591, 467, -153, 205, 455, -399, 126, 233, 98, -475, 71, -578, -113, 335, -501, -113, 336, -254, 398, 247, 13, 76, -103, 394, 238, 93, -304},
{-15, -22, 392, -157, 176, -260, -64, 255, -170, 397, -121, -27, -365, -374, -81, -313, -161, -11, 323, 27, 198, -40, 18, 233, 390, -269, 58, 297, 260, -619, 518, 127, -390, -413, 207, 257, 100, 208, 112, 296, -32, -356, -20, -440, -77, 392, 174, -382, -71, 275, 131, 155, -198, 145, -24, -432, 48, 288, 247, -761, 51, -131, 96, 237, 462, 492, 106, -135, 228, -413, -339, 197, -117, 64, 118, 274, 162, -449, -156, 196, 46, -174, 368, 424, -626, 199, 108, -145, -269, -186, -452, 101, 3, -451, -72, -27, 155, 221, 96, -366, -902, 84, 665, 11, 64, 104, -154, -69, -7, -318, -276, 420, 176, -380, 122, -12, 10, 114, 573, 632, -30, 372, -273, 132, 158, -178, -356, 869, -245, -242, 712, 313, -483, 100, 289, 92, 541, -260, 14, -41, 224, 80, 143, -179, -65, -454, 156, 504, -367, -473, -429, 51, -411, -474, 228, 512, 364, -560, -754, -39, -403, 125, -32, 23, -287, -267, 300, 209, -546, -602, -412, -301, 195, -233, -19, 119, 329, -179, -42, 94, 52, -100, -216, 336, -65, -202, -473, -246, -432, 111, 148, -110, -848, 216, 106, 650, 166, -435, 149, 242, 315, 136, 333, -273, -401, 393, 349, 139, -110, -271, 38, -211, -140, 559, -310, -768, -50, 141, 433, -77, -228, 12, -29, -346, 224, -35, 239, 113, 637, -360, 198, -82, -179, -266, 320, -227, -124, -107, -293, -23, -72, -81, -170, 260, -940, 286, -100, 70, -151, -71},
{106, -431, 253, -754, 18, -187, 98, 246, 188, -235, 163, 127, 145, -320, -48, 100, -19, 55, -257, 221, -280, -17, -241, 123, 108, 382, 123, 229, 141, -49, 186, -58, -21, 424, -439, 37, -139, 65, -10, 0, -39, -141, 272, 12, -94, -214, 218, -532, -298, -29, -110, 141, -101, 383, 436, -336, 11, -144, -102, 416, -136, -144, -257, 8, -3, -451, -276, -236, -686, -275, 332, 263, -34, -274, 222, 85, 278, 46, -43, 129, -77, -226, -199, 442, -274, 214, 66, -590, 232, -104, 458, -68, 195, -356, -94, -235, -7, -160, 406, -83, -286, -41, 262, 355, 329, -40, 11, -53, 94, -169, -451, -286, -6, -26, 504, 93, -24, -156, -4, -21, -300, 163, -425, -118, -141, 109, 168, 302, 271, -462, 481, 378, -146, -243, -72, -251, -157, -354, 42, -252, 210, -160, -158, 467, -102, 246, 210, -223, -199, 115, -320, 95, -47, -603, -1, 161, -142, 480, -284, -175, 189, 230, 53, -319, 313, 324, -491, -76, 318, -10, -321, 51, 0, 184, -289, 191, -88, -29, -835, -208, -102, 351, 92, 350, -252, 158, 7, -340, -66, -65, -62, -147, 16, 221, -97, -56, -46, 26, -130, -13, -10, -461, -84, -1, 176, -100, -272, -71, 230, -44, -112, -132, 470, 354, 396, 40, 446, -3, -410, -110, -337, -58, -46, -341, -143, 59, -576, -176, -150, 293, -439, 311, -114, -50, -524, 219, 258, 41, -125, -165, -56, -279, -538, -338, 422, 172, 277, -269, -445, -351},
{-187, -549, -16, -563, 180, -262, -57, 203, -650, -458, -32, -362, -767, 220, -600, -43, 96, 215, 62, -294, 94, -255, -299, -246, 780, -7, 15, 348, 84, 232, 95, -286, -5, 174, 5, -227, -393, -173, -13, -326, -155, -463, -169, -66, 77, -637, 12, 269, -359, -120, -60, 76, -122, -35, -398, -11, -213, 432, -195, -87, -28, -406, 139, 318, -209, -579, -45, -55, -75, 234, -180, 291, -151, 162, -475, 176, -326, -12, -58, 406, 236, -68, -166, -181, 218, -139, -84, 449, -258, -508, -259, -4, -144, -73, -436, 939, -338, 479, 835, -88, 769, -92, -863, 31, -59, 375, 314, 152, 33, 3, -132, -181, -330, 318, -329, -505, 197, 276, 1, -478, -113, -285, -270, -252, -549, 293, 183, 658, -750, 564, -734, -254, -13, 54, 152, -484, 446, 12, 107, 59, 26, 407, 234, 23, 178, -171, 133, 0, -182, -202, -209, 360, 219, -509, -42, -124, 226, 139, 176, -222, -289, -188, -169, -43, -52, -466, 163, -30, 129, -139, -612, -298, 200, 473, 38, 115, -48, -74, 99, -414, 61, -365, 404, -236, 191, -768, 116, 84, -50, 381, -518, 288, 311, 29, 91, -607, 77, -121, 305, -128, -310, -6, -280, -161, 304, 445, 18, 202, 338, -253, 89, 52, -133, 357, 181, 199, -236, 51, -53, 97, -64, 34, 69, 13, 197, -765, -466, -284, 159, 36, -186, 346, 12, 156, 604, -253, -105, 280, -69, -63, -325, 303, -286, -421, 300, 366, 160, 254, -93, 110},
{-51, -193, -103, -382, 767, 83, 221, -131, 119, -42, 629, 711, -62, -177, 842, 907, -282, -645, -617, -449, -641, -241, -388, -431, 290, 264, -93, 415, -31, -629, 49, 305, 444, 20, -431, 6, 26, 41, 227, -428, -465, -508, 410, 489, -324, 445, -161, -691, -2, 18, 81, 44, 211, -258, -337, 179, -175, -258, -28, 452, 144, -759, -404, -694, 36, 108, -245, -449, 21, -37, 249, 316, -137, 602, -862, 189, 384, -306, -105, -91, 56, 75, 31, -293, 400, -217, 176, 432, 16, -17, -105, 83, -32, 221, 195, 460, 223, -910, 21, 304, -786, 349, 604, -318, 210, -543, -59, 198, 126, 552, -97, 208, 193, 344, -61, -1068, 467, -77, 33, 195, -33, -543, 190, -190, 446, 30, 101, 249, 129, 170, -681, -550, 340, -36, 54, 346, 83, 140, 287, -338, -435, 114, 456, -84, -212, -433, 85, -482, -508, 464, 1102, 334, -716, 146, -213, 493, -55, 1, 183, 162, -205, 273, -263, 586, 13, 86, -66, 410, -526, -310, 645, -626, -611, -145, 266, -184, 151, 366, -11, 26, -80, 189, 329, 125, 566, -133, -429, -443, 857, 535, 465, -199, 0, -573, -429, -176, -184, 53, 185, 1023, 111, 323, -97, 114, -619, -359, 239, 135, -308, -450, 10, -145, 66, 102, 461, -80, -446, 494, -120, 350, -19, -446, -564, -691, 383, -213, 426, 77, -203, 629, -393, -47, -85, 226, 983, 282, 338, -39, -542, 86, -450, -242, -344, 279, 379, 231, -234, -117, -663, -118},
{66, -287, 441, -159, -90, 1149, 300, 132, -39, -362, 210, 285, 16, -35, 215, -683, 123, 587, -214, 105, -424, -324, -349, -118, 235, 294, -147, 260, -605, -114, 197, 44, 33, -279, -631, 307, 438, -93, -57, 470, -311, 152, 147, -234, 43, 423, 131, 1019, -83, -326, -227, 210, 312, -694, -276, 412, 0, -46, 581, 915, 561, -639, -910, 71, -308, 74, -9, -2, -847, -337, 413, -51, 5, 288, -737, 38, 364, -314, -630, 200, -413, -575, 182, -26, -895, -14, -344, 928, 180, 108, -123, -429, -38, -677, -384, -125, 126, 196, -304, -246, -695, -169, 154, 53, 196, -593, 4, 23, -272, 167, 201, -500, 72, -1, 157, 180, 301, -1, -278, -22, -160, -419, -146, -84, -316, 333, -185, 424, 547, 13, -606, -449, 443, 499, 279, 103, -709, -87, 285, -596, 238, 65, 666, 112, -101, 151, -548, -247, 312, 668, 261, -303, 171, 636, -103, -268, -151, -6, 41, 298, 812, 426, -313, -312, 410, 224, 223, 59, -715, -38, -271, 320, -111, -287, 799, 661, 141, -569, -336, -213, 191, 382, 434, 745, -216, -44, 815, 195, -16, 411, 278, -304, 732, 103, 86, -116, -342, 635, -293, 130, -232, -119, -387, -102, 587, -254, 735, -39, 471, -153, 320, -87, -158, 31, 33, 815, -650, -391, 46, -192, 170, -34, -156, 270, -229, 167, 255, 283, -653, -808, -350, -303, -904, 442, 231, -53, -216, 575, -146, -11, 341, 585, 80, 1023, -279, -644, 138, -327, -357, -371},
{-196, -630, -22, -207, 126, 207, 381, 78, -237, -302, -190, 343, -562, -92, 32, 106, 687, -528, -256, -91, -393, 264, -160, 603, -205, -453, -378, -117, 433, -524, 492, -74, -885, -589, 226, -290, -150, 230, 77, -136, -411, -625, 215, 131, -397, -3, 34, 473, 220, 48, -72, -224, 191, -15, 12, 98, 506, 286, -232, -201, -62, 173, 89, -40, 123, 65, 94, 69, 373, 475, 871, -54, 77, -118, 271, -58, 78, 246, 219, -25, 436, -377, -289, 45, -217, -54, 293, 492, -524, -290, -159, -805, -313, -222, 298, -627, 105, 89, -680, 203, -136, 568, -107, -26, 334, 613, -350, -25, 447, -231, -884, 179, 325, -79, -281, 271, 331, 358, 56, -426, -335, 145, 317, 169, -293, -93, 636, -258, -730, -176, -442, -21, 293, 156, 67, -644, -532, 44, 252, 643, 158, 203, 759, -49, -448, -440, 503, -373, 567, 120, -282, 128, -420, -608, -27, 284, -153, -109, 47, 448, 479, 133, -637, 99, -390, 839, 913, 189, -175, -362, 203, 171, 326, -28, -24, 156, -674, 289, -512, 899, 273, 515, -526, 310, -469, -389, -535, -259, 389, -1009, -170, 36, 827, 344, -173, -150, 576, -465, -105, 286, -188, -163, 385, -583, -561, -146, -509, 430, -12, 443, 40, -737, -73, -606, -360, 83, 856, -152, -310, -344, 320, 64, -247, 548, 502, 270, 591, -368, -111, 974, 603, -651, -619, -323, -666, 444, -58, 51, -261, -24, 285, 313, 149, 351, 480, -103, -29, -193, 277, 122},
{448, -154, -484, 431, 165, 18, 742, 129, 315, -351, -593, 228, -70, 105, -222, -545, 715, -472, -166, -250, -43, -712, -3, 495, 289, -32, -257, 19, -1308, 41, -44, -46, -1038, -218, -475, -278, 5, 205, 483, -6, -422, 386, 42, 183, 116, 438, 121, 355, -308, -467, -55, 81, -73, -88, 70, 267, -436, -483, -226, 254, 146, 48, -327, -148, -161, 574, -173, -758, -187, -324, 7, -86, -41, 747, 448, 386, -165, 332, -81, -694, 215, 244, -45, 477, 661, 572, 442, 428, -86, -217, -331, 162, 286, 133, -146, -180, -602, 492, 373, 262, 165, 117, -681, 213, 386, 66, -531, 582, 54, -223, -79, -806, 450, 97, 278, 455, -524, -344, 822, -1006, -1120, -139, 366, 455, -335, 189, 391, -721, -226, -39, -83, -37, -626, 137, -58, 191, -629, 626, -92, -259, -130, -269, -311, -178, -178, 383, 213, 178, 524, 85, 91, 491, -704, 431, 119, -350, -515, -588, 285, -749, -285, 8, -404, -355, 63, -326, -55, 56, -73, -75, 121, 404, 534, -617, 1276, -69, 917, 177, -140, 107, -16, 227, 843, 280, -317, -71, -218, -43, -224, -1198, -299, 141, -341, 293, -84, -485, 228, 109, -67, -409, 68, -114, 48, 79, -590, 30, 410, -43, 1162, 41, 84, 959, 80, -203, -27, 44, 187, 9, -172, -331, -36, 154, -322, -949, -481, -563, -381, 584, -827, 670, -281, -36, -218, 219, 491, 136, -3, 739, 320, 526, 665, 144, 555, 447, -225, 262, -279, 73, -334, 57},
{72, 106, -31, -370, 492, -213, -106, -630, 229, 78, -907, 356, -861, -81, 21, -197, 516, 114, -149, 209, 259, 375, 46, -48, -252, -609, -126, 505, -429, 64, 166, 71, 20, -350, -194, 28, 192, -193, -132, 150, -4, -1042, 301, -352, 117, 251, 450, 458, 205, 16, -630, -340, -8, -616, -67, 471, 305, 652, -127, -521, -457, -554, 327, -221, -255, -386, 500, 271, -634, 485, -467, 97, -629, 175, -226, 380, 52, 512, -699, 43, -82, -406, 70, -278, -630, -714, -671, 659, -292, -1050, -112, -296, 7, 289, 373, -333, -123, -304, 706, -1, 697, -543, -1398, -103, -91, 380, 377, -125, 8, 58, 232, -387, -481, -142, 77, -234, 731, 395, 162, -19, 320, 36, -13, 335, -525, 369, 289, 356, -681, 425, -392, -571, -180, -796, 723, -110, -417, -27, 423, -368, 9, 1023, 317, 387, 0, -258, 844, -59, -281, 496, 277, 413, -180, 17, -253, 182, -187, -9, -496, 141, 93, -434, 23, 187, -158, 447, 355, 276, 304, 767, -254, -173, 1206, 93, 65, -276, -189, 946, -249, 27, 200, -254, 239, 157, -83, -96, -439, -414, -926, 394, -604, 83, 512, -482, 305, -708, 268, -226, -136, 101, -38, 807, -99, -88, 358, 825, -74, 9, 341, -326, -333, 799, -241, 472, -323, 135, -597, -1510, -200, -232, 78, 609, -60, -470, 309, -458, -197, 308, -376, 605, 9, 64, 88, 290, -948, -342, -103, -722, 319, -464, -331, -7, -273, 901, -13, 549, 442, 89, -361, -1},
{165, -493, -428, 10, 664, -228, -198, 643, -161, -1127, -508, 192, -19, -195, 621, -285, 28, -460, 524, 438, -745, 509, -337, -219, -110, -110, -111, -139, -200, 1012, 407, 132, 170, 421, -428, 388, 407, -134, 99, 267, -303, -203, 34, 144, -220, 766, -196, -147, -413, -531, -345, -163, -292, -387, -207, -359, 61, 406, -79, 351, 233, -22, 395, -958, 101, -953, 11, -108, 356, 169, -388, 334, 443, 158, -1402, 175, -56, -90, 253, -633, -739, 11, -215, -115, 41, -62, 90, 367, -273, -134, -174, -475, 135, 464, -162, 561, -79, -236, -1067, -272, -228, -110, 259, -176, 348, 95, 480, 217, -460, 631, 90, -81, 713, -2, 153, -1077, -336, -391, 334, 118, -212, 121, 240, 328, -106, 49, -522, 215, 550, -219, -934, -769, 470, -374, 202, -140, 74, 145, 206, -505, -164, 10, -879, -461, -173, -341, -648, -377, 38, 84, 872, 157, -781, 297, -137, 742, -1052, -469, 44, -491, -88, -366, -483, -53, -401, 904, 32, 47, 690, -378, 206, 33, -407, -286, -286, 109, 219, -1474, -179, 14, -193, -447, -183, 108, -335, -51, -18, 270, -128, 309, 107, 695, 125, 11, -281, 12, 254, 463, -587, -567, 54, -95, -71, 46, -839, 152, -575, 515, -294, -70, 543, 360, -62, 91, 598, -401, -818, -204, -440, -280, 143, -432, 217, 50, 513, -266, 369, 579, 510, -707, -47, 29, 145, 499, 338, 205, -58, 474, -243, -446, -269, 40, 84, -291, 225, 662, 319, 420, 204, -202},
{564, -245, 500, -320, -571, -383, -222, 41, 0, -500, 441, 623, -245, -74, -77, -480, -286, -60, 98, -30, -704, -75, -184, -327, 582, -149, 514, 139, 257, 491, -280, -25, 183, -88, -166, -263, 450, -78, 195, -8, -532, -366, 1021, -676, -389, -176, -105, 856, 317, 358, -612, 369, 355, 311, -389, 2, 67, 217, 145, 750, 70, -83, 64, -554, 408, -24, 276, -436, 132, -219, -403, -289, 1053, 133, -491, 245, -880, 308, 297, -82, 383, -257, -84, -93, -531, -835, -478, -129, 245, -77, 336, 29, -143, -639, 407, 296, 329, -102, -495, -611, -716, 23, 281, -490, 479, -61, 263, -736, 500, -191, -311, -863, -77, 163, 234, 52, -531, 131, -146, -181, -657, -248, 120, 860, -283, -265, 283, 972, 346, 244, -419, -646, 68, -48, 547, 419, -105, 164, -835, -648, 376, 486, 394, 194, 357, -15, -194, 168, -1245, 83, -291, -1191, 424, 183, 287, -303, 99, -753, 95, -635, -70, -34, -189, 318, 162, 158, 38, 162, 207, -378, -434, 86, 240, -55, -746, -520, -852, 262, 706, -115, -14, 397, -181, -8, 1001, -290, 515, 204, 39, -22, 63, -153, 495, 107, 138, -273, 214, 783, 105, -220, 495, 126, -241, -46, -16, -122, -139, 113, 799, 303, 173, -246, -156, 501, 1040, 214, 333, -120, 362, -264, 1072, -49, -223, 384, -119, -26, 60, -120, 448, 209, -413, 400, -1179, 194, 1068, 35, -458, 480, -164, -289, 635, 589, 127, -567, -528, -257, 0, 280, 127, 304},
{-477, 340, 399, -435, 177, 157, 9, 267, 400, -221, 141, 5, -140, -722, -97, 144, 151, -714, -744, 398, 35, -513, -286, -179, -35, -99, 816, -207, 927, -864, 279, -397, -248, -268, -71, 164, -624, -394, 285, 16, 374, 225, -284, 41, -64, 312, -78, 278, 319, 66, 425, -347, 678, -133, -153, -134, 78, -411, -57, 105, 220, 17, -16, -361, 347, 131, 99, 50, -506, 524, -291, -61, 633, 584, 307, -673, -79, 531, -3, -149, 180, -91, 150, 148, -645, 46, -148, -111, -580, 0, 162, -748, -62, -258, 37, -274, -123, 321, -359, 290, -208, 653, -464, -11, -703, 276, 293, -298, 448, -256, -926, -83, -22, 705, 348, -21, -444, 431, -395, -211, -514, -49, -568, 130, -588, -397, -35, -233, -554, -428, -516, -32, -145, 242, -315, 595, 347, -346, 1274, 188, -88, 272, 6, 97, -146, -260, 512, -1236, 318, -345, 253, -241, -311, -318, -128, 297, -927, -22, 217, -164, 399, 446, -930, -140, 168, -210, 527, -167, 189, -277, 849, -569, -264, 880, 240, -434, 691, 205, -213, 31, -457, 130, -103, -304, -68, -244, 308, -82, 386, 465, 263, -279, 1029, 141, -472, -287, -318, -250, 106, 59, 362, -563, 396, -693, -533, 212, -263, 43, 243, 1, -334, 81, 115, -153, -449, 221, 1315, -359, -109, -322, -1060, 104, -103, 554, 244, 292, -206, 408, 191, 143, 26, 938, 328, -669, 371, 342, 639, 36, -332, -746, 62, 291, 423, 60, 130, -366, 296, -122, -372, -26},
{-9, -612, -138, 427, -581, 289, 341, -47, 75, 839, 291, -479, -600, -155, 35, -549, -125, -24, 93, -74, -490, 205, -152, 50, 181, 908, -266, 488, 111, 222, 229, -104, 551, -497, -157, 38, 29, -301, 583, 517, -350, 730, 330, 198, 40, -432, 231, -404, -788, -36, 34, -280, -173, -393, -730, 315, -637, -637, 457, 13, 44, -611, 112, -436, 223, 774, -170, -136, -512, 226, -312, 115, 1106, 729, 413, -510, -187, 164, 103, -401, 189, 566, -191, -248, 700, -259, 271, -104, 328, -609, 595, -237, -547, -112, 272, 454, -453, 62, 469, -96, 112, 472, -145, -343, 18, 122, -614, -146, -63, 274, -120, -257, 295, 49, -207, 91, -944, -94, -606, -307, -212, 536, 150, 13, -268, -561, -308, -569, -321, 503, -271, 476, 29, 514, -413, 364, -607, -199, 594, -76, 419, 475, -169, -774, 136, 420, 150, 285, -193, 580, 711, 594, -523, -466, 34, 110, -253, -937, -6, -205, -388, 431, 61, -588, 138, 519, 181, 157, -275, 336, -526, 1, 226, 407, 512, -393, 280, 242, 259, 489, 586, -144, 203, -492, -41, 248, 58, 231, 141, 506, 24, -263, 142, 75, -44, -150, 143, 207, -434, 408, -30, -798, -236, -42, -540, 92, 146, 395, 416, 122, -374, 17, 12, -257, 265, -303, 133, 303, 154, 332, 419, -175, -80, -90, -236, -136, -976, 279, -146, 10, 510, -44, -156, -173, 268, -30, 266, 402, 38, -370, -170, -162, 301, -16, -243, 596, -283, 35, -204, -301},
{-722, 556, 995, -697, -267, -536, 687, -225, -120, 422, -630, 572, -301, 81, 26, -495, 759, 35, -574, 38, 136, 241, 65, -24, 298, 153, -141, 626, -580, -232, -17, -443, 878, 277, -319, 432, -97, -28, -427, -280, 171, 1020, 517, -9, -178, -123, 574, -189, -45, 622, -11, 143, 63, -197, 159, 441, 193, 44, 639, -493, -213, -176, 345, 255, -313, -447, 611, -186, -86, 270, -616, -113, 302, -162, 140, 436, 237, 376, -319, 80, 83, -185, -170, -500, -705, -108, 565, 120, 194, -196, -487, -153, -405, -429, -140, 91, 22, 213, 538, -354, 514, -200, -672, -319, -73, 33, 720, 292, -262, -31, 309, -365, -127, -283, 82, -601, 269, 227, -356, -296, 38, -35, -187, 445, 218, -113, -391, 150, -352, 273, -417, -674, 166, 80, -525, 248, 305, -293, 22, -41, 219, 302, 373, -102, -212, -358, -326, 675, 645, 63, 461, -259, 206, -107, -192, 327, -508, -178, -765, -15, -429, 64, -284, -308, -1355, -385, 10, -127, -314, 28, -725, 4, 621, -215, 56, 162, 2, -274, -352, -202, -233, 698, -454, 468, 190, -214, -315, 53, -479, 62, 531, -286, 831, 133, -98, -503, -715, -457, -697, 506, 61, -29, -179, 108, 331, 1049, -229, 136, 61, 38, -581, -401, -30, -60, -59, 412, -314, 99, -191, -349, 194, -323, -776, 447, 451, -847, -352, 399, 459, -405, 197, 46, 404, -258, 237, 74, -27, 35, 396, 129, -534, -123, -556, -305, 16, 795, 786, 27, 26, -65},
{-27, 70, -526, -88, 21, -66, 149, 61, -266, 769, 620, -132, 982, -32, 67, 635, 145, -1103, 82, 37, -869, 371, -142, 8, -189, 147, -84, -432, 68, 37, 264, -150, -65, 257, -135, -152, 78, 101, -69, 836, -461, -209, -111, 31, -738, 47, 271, -330, -339, -585, 104, 470, -238, -250, -181, -412, 385, 72, 501, 505, 152, -135, 115, -855, -344, 172, 187, -22, -163, -363, -121, -102, 222, 435, -969, 382, -83, 156, -598, 406, 360, 76, 367, 75, -246, 56, -210, -199, -446, 64, 91, -49, -296, 131, -406, 139, 269, -102, -389, 117, -291, -556, -424, -520, -550, 232, 503, 152, 59, 836, -164, 473, 491, -402, 139, -1102, -347, -308, -13, 518, 230, 268, -120, -185, 71, 35, 669, -370, 161, -120, -350, 13, 191, -109, 66, -148, -346, -334, -262, -116, -224, 46, -302, -441, -365, -444, -126, 380, -42, -16, 912, 139, 283, 43, 145, 715, -206, -380, 628, -310, -631, -76, -448, 300, 30, -311, -147, 315, -398, -259, 91, -523, 680, 244, -353, 55, -234, 169, -307, 89, 491, -172, 147, -122, -502, 449, 269, -841, 117, -228, -83, 211, -149, 35, -219, 102, 64, 168, 244, 571, 139, 128, -176, -370, -188, -80, -162, 313, 227, -495, 81, -848, 643, 666, 392, 347, -225, -513, -397, -33, 205, -310, -31, -394, -208, -480, 391, -243, -59, -376, 259, -70, 328, 319, 132, -48, -29, -94, 310, -285, 60, 136, 179, 520, -452, 383, 17, 370, 158, -141},
{592, -181, -70, -786, -307, -141, 38, -754, 23, 73, 491, 178, -33, 244, 208, -867, -75, -21, -22, 192, -785, -198, -196, -145, 806, -797, -477, 390, -644, -39, 380, -299, 67, -195, 131, 156, 266, 895, 356, -291, 309, -122, 214, -173, -95, 362, -43, 310, 310, -974, 337, 533, 70, -51, 41, 341, -22, 12, -484, -202, 123, -367, 214, 411, -420, 534, -658, 67, 624, 569, -358, -122, -418, -8, -460, 34, -507, 747, -420, -155, -372, 271, 176, -143, -428, -130, -41, 379, 242, 748, -93, -752, -244, -473, 212, -91, 24, 61, -52, -54, -687, -266, -70, -271, 162, -434, -402, 1, 115, 550, -242, -568, 253, 138, 298, -261, 16, -408, -162, -345, -385, -378, 295, 97, 47, -2, -632, 40, 355, -327, -476, -421, -181, -33, 20, 541, -83, -6, -274, -205, 338, -316, 516, 439, -97, 62, -442, 78, 62, 167, -503, -340, 187, -502, -104, -805, 76, -957, 626, 481, -12, 350, -498, 136, 705, -871, 249, 497, 95, -377, -225, -356, 383, 164, 539, -166, 552, 96, -850, 204, 116, -491, 1061, -37, 270, 181, 700, 281, -65, -142, -69, 285, -151, 698, 487, -106, -462, 139, -747, 596, -331, 197, -524, 283, -76, 598, 331, 367, 417, 281, 75, 278, -158, -564, 441, -291, -216, 116, -15, 53, -306, -728, 83, 279, 139, -5, 1013, -61, -353, 389, -308, 366, -1373, 400, -271, 372, 502, 341, 169, 234, 320, 559, -504, 386, 150, -177, -216, -62, 188, -18},
{-563, 190, 9, -132, -19, 43, 321, -81, 53, -1050, -70, 481, 25, -154, 73, -113, 495, 152, -48, -151, 526, -679, -479, 209, 176, 121, -502, -405, 10, 242, -217, 188, 134, -78, 170, 3, 48, -224, 389, 24, 128, 518, -99, -19, -76, 321, -504, 100, -499, -274, -149, -245, -29, 85, 450, 470, 405, 33, 211, -614, 0, -135, -30, -130, -363, 384, -192, 273, -527, -336, 67, -630, 392, 337, 510, -150, 133, 653, -288, 391, -462, 257, 423, -430, -807, -318, 833, 136, 49, 206, 105, 256, -198, 190, -112, -55, -11, -107, -34, 423, -585, 595, -740, 724, 31, -169, -7, -51, 22, -84, -492, -356, -47, 339, -211, 29, 989, -342, -334, -152, -474, -133, 252, -187, -391, 439, -385, 264, 36, 452, -24, 427, 425, -542, -644, -165, 44, 411, 1, 445, -203, 446, 117, 462, -80, -495, -560, -414, 104, 114, -108, -353, -842, -38, 94, 819, -1382, -145, 116, 64, 1022, 101, -209, 344, 955, 502, 37, 34, 65, -36, 508, -275, -139, -226, 320, 382, 186, -248, 368, 374, 98, -583, 99, 288, -258, 62, -430, -21, 183, -510, -47, 573, 271, -13, -86, -27, -136, -324, -381, 115, -203, -1048, -278, 605, -595, 36, 124, 410, -756, -236, -107, 117, -156, -207, -274, -296, 749, 46, -336, -92, -301, -226, -432, -117, -154, 7, 12, -79, 408, 315, 156, -300, -212, -38, -66, 195, 278, 914, -72, 300, 477, 380, 578, 187, -97, -398, -389, -384, 285, -167},
{397, 447, -221, 406, 160, -167, 122, 143, -311, -12, -184, -199, -298, -242, -254, -313, -76, 51, -363, -449, -607, -38, -600, -647, 136, 6, 679, 333, 10, 257, -191, 249, -85, 344, -85, 65, -137, 42, 438, -550, -289, -249, -110, 163, -203, -175, -195, -119, -535, 6, -202, 50, 207, 40, -194, 456, -394, 38, 231, 372, 461, 3, -640, 184, 198, 270, 357, -26, 637, -132, 522, -45, 19, 494, 176, -458, -533, 120, 124, -556, -177, 117, -349, 83, 134, 266, -84, -337, 348, -582, -174, -204, -162, -12, -300, -5, -92, 519, 2, -25, 723, -16, 301, 361, 312, 64, -326, 118, -91, -405, 402, -250, 207, -1, -207, 197, 326, 255, -166, -185, -242, 45, 30, 305, 283, 86, -623, -396, -275, -80, -241, -175, -71, -37, -168, -469, -245, -6, -165, -141, 100, -392, -112, 107, -183, 194, -347, 514, -33, 534, 429, 669, -105, 571, -469, -467, -175, -435, -30, 186, -22, 97, 203, -138, -80, 184, 392, 6, -61, 411, -31, 281, 585, -114, -355, -62, 19, -63, 212, -291, -313, 456, 347, 100, -237, 300, -557, -331, -451, 72, -643, 542, -267, 96, 72, -438, -261, -358, 95, -235, 414, -373, -218, 111, -1110, -529, 308, 48, 100, 185, 256, -327, -179, -196, 306, -639, -72, -156, 460, -506, 109, 43, 191, -21, 32, -406, -544, -393, -508, -312, -338, -603, -259, 36, 43, 455, 1, 225, 74, -487, -160, 203, 185, -99, 100, 222, -134, -58, 197, -200},
{226, -487, 159, -293, 455, -412, 68, -324, 95, -244, -49, 286, 101, 36, -464, -252, -63, -97, 261, -33, 238, -531, 275, -506, 102, 431, 253, 359, 140, 105, 4, -194, -113, -436, 463, 164, 16, 296, -79, 230, -89, 18, 228, 334, 242, -239, -152, 5, -168, -707, -183, 80, -57, -40, -130, 424, -43, 130, 5, -85, 556, 468, -126, 696, 490, -200, -1, 177, -531, -126, -214, -113, 264, 277, -288, 263, -470, 146, 237, -60, -42, -135, 389, 325, 552, -226, 330, 515, -109, 214, -59, -244, -61, 580, 132, -548, -170, 191, -279, 60, -263, 20, -575, 87, -16, -273, 94, 150, 582, -138, 45, -279, 338, -450, 649, -211, -116, 173, -296, -48, 179, -379, -138, 19, -277, 105, 281, -296, 289, 139, 355, 683, 283, 120, 450, -358, -604, 232, -157, -310, 184, 170, 691, 187, -233, -122, -577, -405, -128, 568, -49, -386, -259, -562, 149, -551, -156, -804, 537, 113, -453, 27, 325, 93, -54, 110, -354, 87, -233, -134, -151, 408, 109, 336, 286, 477, -503, -42, 177, 39, -850, -137, 231, -391, 325, -246, 12, -297, 31, 136, -631, 97, 55, 4, -87, -447, 389, -476, 96, -49, -74, 189, -344, 27, -138, -108, 320, -81, 126, -367, 130, -188, 104, -119, -205, -224, 193, 316, 371, -664, 201, 171, 3, 216, -387, 214, -352, -65, 68, -26, 38, 162, 343, -174, 52, -118, -279, -140, -530, -45, 84, -167, 268, 537, -297, 7, 296, -56, -185, -443},
{91, -132, -271, -488, -10, -122, -338, 400, -32, 172, -29, -335, -258, -749, -991, -667, -857, -721, 142, 401, 170, -60, 56, -397, 263, 343, 163, -384, 152, -38, -640, -884, -101, -262, -89, -691, 185, -248, -182, 312, 36, 234, -36, 110, 133, 94, -309, -493, 416, 241, -632, -560, -26, -182, 983, 213, -55, 518, -355, -575, 4, -341, -248, 395, 181, -719, -583, 500, -192, -214, -233, -419, 5, -454, 79, -125, -282, -83, 479, 215, 13, 368, -43, 90, 335, 536, 607, -330, -386, -75, 15, 378, -73, -136, -20, -461, -995, 181, -3, 174, 535, -24, 651, -114, 214, -189, 124, 311, -175, -205, -755, -240, 305, 79, 358, 37, -225, -501, 451, 169, -199, 72, 889, -283, 128, -1026, -119, 582, -471, -468, -706, -164, 324, -26, -781, 549, -60, -32, 84, -407, -302, -57, 180, 272, -173, -142, 74, 230, 59, 93, 716, 117, 53, 568, -367, 604, 173, 123, -154, 337, -249, -556, 171, 177, -240, 167, 769, -170, 43, -264, 122, 593, 126, 35, -466, -134, -319, -112, -475, -197, 707, -93, 294, -324, -114, -75, 356, 400, 492, 101, -190, -824, 336, 376, -533, -182, 278, -423, -77, 547, -72, -45, 266, 161, 207, 87, 110, 383, -468, 446, -151, 370, 451, -1350, 271, 423, -28, 139, 227, 113, -75, 186, -523, 517, -846, -306, -854, -171, -460, -7, 499, 246, -769, 1, -379, 548, 500, -324, -588, 246, -404, -65, -243, -185, -8, 248, 308, -121, -152, -131},
{524, 286, -241, -79, -345, -333, -643, 715, -1013, 217, 172, 491, 25, -287, -152, 152, 311, -170, -98, 52, -67, 161, -48, 343, -160, 52, -15, 139, 15, 76, -225, -203, 117, -584, -498, 120, -49, 24, -43, 41, -31, -652, 267, -382, -45, -317, -322, -171, -543, -417, -30, 294, 79, 1113, -129, 306, -43, 845, 201, 405, -847, 332, -459, 364, 307, -483, -269, -400, -119, 434, -406, -277, -50, -562, 116, -22, 51, -114, 134, 151, -472, 1, -11, -182, 41, -214, 433, -461, -300, 38, 252, -153, -73, 159, -280, 10, 283, 1041, -112, 296, -298, -70, -196, 690, 165, -257, 212, -238, 163, 323, -432, -430, -527, -7, -122, -743, 320, -551, 192, -253, -25, -71, -94, -709, -519, 40, -132, -209, -818, -323, 166, -401, -222, 180, 269, 301, -37, -355, -133, 181, -307, 28, -71, 48, -124, 94, -151, -564, -290, 638, 273, 160, 157, 591, -390, 337, 51, -330, -958, 202, -162, 99, -100, -99, 255, -394, 99, 483, -398, 98, 385, 431, 300, -297, -567, 62, -465, 231, 236, 276, 192, -314, -385, 399, 185, -405, 813, -676, -2, -68, 379, 728, -559, -168, -363, 567, -151, -195, 348, 243, -302, 571, 14, 22, 189, -551, 217, 135, -509, 205, 382, 230, -1395, 281, -718, 825, -208, -688, -499, 235, 374, 169, 257, 315, -286, -244, 527, -104, -682, -373, -185, -441, 229, -334, 276, -409, 308, 383, -293, 213, -268, 797, 328, 328, -288, -683, -673, -91, -569, 640},
{-360, 21, 624, 700, 432, -433, 452, -676, 132, 116, -22, -590, 73, 255, -489, -342, -87, 500, -314, -159, -280, -530, 111, 154, -150, -279, -115, -78, 268, 688, 319, -689, 532, 383, -505, 104, -316, -651, 524, -663, -643, 308, -767, 275, 143, -183, -2, 1117, 15, -334, -284, -95, 821, -203, -226, 291, 845, -67, -91, -1157, -368, -49, -612, -453, -412, -501, 391, 106, 7, -152, -340, -102, 38, -550, -88, 20, 343, 312, -216, 63, -112, 116, 116, 27, -84, 209, 43, -725, -344, 693, 160, 274, 95, -346, 54, 435, -522, -423, 50, 263, -212, 279, 102, 642, 28, 340, -170, 294, -78, 221, -1023, 10, -723, 307, 58, -209, -394, -70, 137, 577, 29, -247, -273, 417, -528, -896, 415, -134, 354, 409, 413, 201, 343, -14, -531, 241, -143, -252, -147, 25, -53, 48, -194, -124, 184, 257, 676, 21, 95, 262, 272, -479, -25, 213, 232, -279, -96, -210, -732, -170, -49, 152, 523, -224, -40, -140, 718, 128, -271, 304, 42, -5, 99, -343, 216, 217, 407, 383, -299, 372, 296, 320, 133, -403, -331, -220, -21, 1154, 351, -241, 184, 389, -355, -501, -170, -235, -440, -710, -805, 632, 44, 35, -774, -268, 277, -550, 203, 382, 483, -265, -336, 263, 481, -117, 113, -407, 154, 85, 389, 143, -344, 34, 719, 218, 213, -453, 160, -154, 758, 78, -1058, -253, 366, -213, -84, 251, -340, -245, -374, 344, 355, 850, 32, 418, 144, 256, 585, -601, 117, -128},
{-1216, 674, 398, -232, 143, 310, 44, 371, -637, -73, -110, -561, 41, -296, -308, -119, -206, -36, -42, 21, -934, 522, 178, 507, 89, -830, -314, -592, -177, 254, -919, 422, -535, -362, 258, 4, -429, 29, -294, -140, 302, 350, -166, 461, 8, -114, 112, 339, 175, 441, -38, -288, 498, 955, 695, -331, 35, 296, -147, -144, 477, 336, 8, -71, -400, 343, -779, -784, 211, 397, -717, -484, 30, 1, -145, 529, 252, -45, 249, -151, -405, 658, 25, -248, 298, -198, -527, -680, 59, -241, 285, 555, -426, -390, 571, 386, 108, -411, 164, -78, -344, 66, -110, -455, 0, 70, -20, 603, 199, 262, 308, -311, -430, 241, 59, -291, -437, 65, 242, -1, -410, -881, 208, -36, -41, 254, 690, -533, -324, 144, -124, -430, 63, -646, 269, 64, -756, -155, 597, -205, -135, -800, 333, -352, -258, 128, 51, 118, 495, 270, -93, 46, 557, -158, -87, 493, 540, -203, -86, 146, 153, -469, -129, -335, 924, -17, -547, 48, -9, -62, -496, -25, -58, 231, 259, 147, 319, -1701, -1253, -355, -436, -142, -46, -189, -347, 55, -252, -468, -100, -144, 680, 68, -78, 345, 284, 440, -309, 270, 26, 448, -344, -343, -506, -1257, 105, 48, -704, -69, 32, -156, 22, 64, -1551, 780, -206, 111, 15, -644, 791, 60, -82, -269, 252, 112, 125, -41, 152, -463, 344, -5, 393, 239, 393, 90, -331, -182, -17, -220, 142, -743, 163, -524, 331, 9, -105, -231, -223, -540, -573, 544},
{36, -10, -290, -240, 166, -681, -145, 89, 10, -91, 156, -178, -267, 358, 282, -322, -661, 568, -63, 515, 135, 142, 174, 368, -122, -87, -145, 77, -141, 726, 172, -562, -465, -474, 392, -784, 1085, 700, -58, 180, -433, -282, -13, 361, -568, 204, -346, -441, -569, 182, 175, 600, -605, 53, -65, 307, -268, 97, -385, -4, 22, 706, -223, 318, 78, -352, 164, -7, 79, -532, -224, 385, -442, -256, -510, -340, -132, -118, 313, -654, 324, -280, 411, 340, -211, -697, 76, -1542, -228, 857, -278, -145, 1061, 331, -134, 250, -98, 240, -425, 270, 25, 35, -476, 78, 197, -419, -73, 40, -322, 355, -45, -98, 553, -273, 320, 249, 139, 0, -9, 247, -133, -626, -1042, -225, -141, 43, 13, -232, -11, -23, 869, 467, 320, -527, -292, 34, -160, 189, -243, -317, 16, -119, 911, 73, -474, 88, 381, -752, -29, -277, 113, -696, -81, -316, 268, -447, -384, -674, -11, 30, -14, 121, -1, 286, 307, -208, -211, -186, -272, -128, -462, 742, 353, 226, -145, -135, -338, -23, -41, -383, -356, -73, -619, 580, -588, 981, -200, -38, -464, 195, -269, -164, -18, 144, 168, -312, 499, -369, -207, 763, -88, 240, -438, -70, 4, 471, -46, -141, -730, -107, 283, 153, 48, -930, -499, -111, 126, 54, 399, 84, 264, 472, 217, -220, -325, 337, -169, 138, -323, 74, 403, 287, 236, 197, 113, -115, 159, -37, -619, 715, 102, 316, 245, 336, 242, 777, 709, 245, -244, -27},
{4, 802, -252, -139, 148, -303, 274, -296, -84, 16, -1072, 203, -191, -274, 70, -54, -212, 273, 52, -534, -7, 51, -440, -402, -435, 153, -126, -52, 322, 37, -1189, 474, 209, 153, -611, -190, -186, 152, -47, -400, -392, 138, -101, -775, -306, 64, 199, -357, 459, 405, -1003, -65, -693, 107, 1314, 400, 179, -231, -74, -461, 548, -50, -83, 604, -71, -751, 178, -136, 139, 241, 361, -208, -423, -777, -27, -464, 92, -309, 201, -301, -215, 394, -1432, 80, 149, 379, -465, -338, -418, 294, 530, 463, 1187, 471, -551, -132, -1003, 327, -473, -48, 331, 499, 145, 443, 98, 152, 80, 70, 302, -168, -472, -140, 549, -135, -4, 389, -353, 247, -267, 13, 74, 315, -146, -528, -343, -29, 199, 253, -321, -392, 82, -195, 1119, -207, -477, -107, -864, -273, 702, -469, 527, -140, 213, 459, 93, -106, 19, -104, -41, 262, 859, -292, 220, 482, -761, 257, 126, -121, 370, 262, 24, -50, -433, -805, -270, -33, 121, -39, 634, -180, -388, -127, 145, 774, -77, -878, 423, 357, -275, -257, -516, -466, 353, 193, -330, -385, 189, -80, -239, -370, 157, -473, -171, 305, -176, -125, 373, 392, 180, 502, 240, -362, 591, 127, 75, -680, 415, -107, -386, 50, -13, 168, -126, 551, 146, -199, 19, 733, 82, -528, -260, -77, 90, -731, -1029, -344, -1083, 812, -21, -99, 425, -33, -333, -154, -4, 572, 558, 223, -44, 31, -101, 289, -605, -112, 491, 125, -670, -843, -458, -74},
{39, -247, 430, 112, -835, 431, 47, 165, -206, -289, -383, -467, 102, -96, 209, 67, 956, 165, 600, 390, 932, -452, 73, 29, -326, -536, 192, 154, -48, -46, 141, -164, -118, -761, 72, 94, -36, 301, 665, 183, 191, 414, -83, -477, 547, 171, 109, -800, -473, 653, 214, 253, 162, 383, -269, 63, -145, -396, -269, 53, -79, 457, -930, 89, 127, 281, -788, -115, 562, 668, 391, 569, -262, -601, 259, -311, 280, 359, -515, 115, -180, -22, -680, -694, -230, -37, -330, -13, 268, -214, 721, -70, -314, 430, -529, -317, 241, -95, -65, -129, -449, 166, 191, 252, 517, -252, 227, -1067, -609, -44, -75, -76, 180, -712, -27, -1113, -714, 106, 634, 38, 48, 668, -490, -322, 133, 549, -411, 260, -367, 629, 106, 270, -537, 322, -297, 250, -498, 164, 338, -125, 224, -302, -405, 116, -241, -262, 46, -275, -210, 62, 970, -290, -252, 481, 262, 128, 23, -617, -731, -570, -176, -562, -159, 10, 9, 671, -407, 147, 698, 73, 156, 612, 242, -300, -156, -630, 407, 537, -88, -11, 352, -131, -59, 177, -616, 484, 548, 549, -27, -40, 863, -15, -456, -120, 96, 435, -117, -5, -95, 386, 179, 59, -1071, -219, 0, -477, -667, 21, -333, -131, -510, -310, 62, -1259, -527, 452, -42, -524, -269, -391, 100, -374, -411, -299, -409, -128, 166, 163, -366, 731, -649, -169, 230, 19, 984, 338, -74, 300, -909, 226, 342, 509, -30, 228, -202, -423, 112, 707, 299, 17},
{209, -522, 591, 116, -67, -706, 605, -116, 356, -79, 2, -186, -257, -316, -398, -289, -252, 172, -34, 234, -240, -217, -165, -196, 115, 189, -376, 49, 942, -44, 469, 551, -27, 131, -9, 368, -235, 123, -381, 257, -681, -324, -1168, 625, -29, 232, 12, 180, -437, 229, -709, -118, 814, 410, -340, 357, 299, -152, -232, -1027, 314, 274, 100, -284, 47, -417, 268, 381, -544, 592, 426, 373, -505, -503, 27, 270, 47, 287, 407, -96, -71, 247, 593, 292, -296, -46, 33, 355, -121, 76, -745, 157, 102, -861, -704, 38, -695, -183, 384, 51, 61, -104, 189, -232, -243, 398, 147, -174, -483, -491, -1323, 791, -396, 100, 926, -59, -272, 40, 266, 464, 417, -228, 320, -616, 233, 835, -779, 222, 903, 751, -241, 369, 369, 357, 285, 223, 366, -589, 27, 585, 332, 19, -211, 449, -424, 489, 124, -291, -68, -850, 973, -555, 136, -70, -570, -652, -415, 68, -558, -33, 347, -450, -474, 147, -794, -231, 60, 180, 233, 308, 17, 18, -210, 399, 683, 167, -160, -615, -724, 54, -161, 291, 150, 300, 250, 108, 6, -724, 291, 470, -154, -603, -728, -28, 204, -170, -166, -483, -117, 277, 253, -381, -590, 412, -218, -233, 173, -231, 371, -12, 44, -33, -340, 258, 409, 153, -362, 437, 182, -125, 826, 47, -326, 329, -373, -896, -210, -341, -757, -98, -220, -288, 513, -3, 605, 612, -16, 84, -622, -95, -43, -50, 212, -38, -85, -261, 103, 217, -13, 349},
{403, 83, -380, -616, 45, -677, 53, -47, -575, -295, -600, -685, -566, 1191, 29, -266, 694, 89, -35, -892, -748, 218, -349, 213, 120, 537, 338, -765, -117, -653, -622, 464, 241, -654, 46, -75, 597, 318, -468, 51, 56, -603, 223, 171, 547, -205, 191, -128, 679, 37, 311, -442, 701, 300, 459, -58, 196, 73, 136, 4, 129, 348, 635, 300, -973, -63, -1002, 74, -981, 141, 192, -889, 101, 140, -362, -364, -300, 417, 450, 81, -286, 410, 221, 430, -39, -149, 85, 175, -116, -334, -49, 504, 454, -344, -146, 134, 281, -123, -2, -485, -587, -699, 85, 261, -832, -124, 555, -441, 436, -238, 558, -200, 111, -146, -274, -89, 325, 264, 788, -407, -201, -246, -428, -336, 557, -779, -113, 179, -257, -407, -759, 464, 112, 269, -481, -669, -829, -237, 172, 208, -69, 287, -670, -685, -71, 1077, -45, 114, -118, -338, 159, -111, -340, -302, 968, 190, 185, 13, -269, -330, -305, 121, 501, 83, -187, -157, -339, 41, -314, -258, 20, -393, 78, -535, -510, 320, -577, -41, -261, -200, -65, 135, -248, 14, -283, 594, -390, 66, 127, 178, 224, 64, 222, 874, -161, 90, -349, 322, 450, -304, 83, -167, -159, 378, -387, 462, -792, -516, -71, -108, -163, 201, -812, -273, -315, 1018, -260, -84, 881, 4, -373, -7, 593, -646, 2, 6, -19, 533, -141, 145, 322, 567, 364, -58, -389, 671, 394, 224, -2, 290, 159, -73, 826, 679, 670, -79, 12, 63, 1061, 688},
{-4, -104, 48, -224, 74, 85, -5, 159, -747, -225, -392, -805, -229, -72, -518, 167, -582, 159, -752, 118, 404, -143, -221, -497, -330, -43, 242, -192, 512, -169, -72, 131, -249, 501, 461, 102, -47, 49, -147, 248, -169, -245, 194, -32, -250, -634, 119, -290, -488, -176, 730, -20, -692, -9, -319, -402, -207, 43, -295, -170, 758, 396, -36, -193, 375, 405, 218, 408, -626, 44, 13, 790, -12, -427, -506, -59, -408, -222, -13, 346, -244, -333, 782, -328, 38, -186, 195, -434, -506, 386, 385, -160, 449, -61, 294, 212, 482, 89, -59, -238, 236, -204, -235, -1038, 182, 480, -273, 924, 72, -277, 82, -94, 663, -146, -353, 49, 241, -263, 2, -441, -636, -355, -579, -81, 78, -11, 315, 400, 508, 15, 301, 54, 222, -21, -489, 33, -1245, -27, 104, -310, -310, -44, 964, 98, -45, -12, 148, -793, 167, 129, -214, 293, -560, -759, -151, 39, -36, -837, 271, -689, -559, -546, -131, -1132, -520, 28, -256, -240, 304, -153, -1102, 395, 342, -377, -212, 666, 512, -30, 121, -267, 436, 7, 102, -417, 178, 27, 150, -598, -66, 196, 27, 67, 305, -186, 1001, -459, -408, -541, -153, 86, 11, -100, -367, 1023, -168, 84, 143, -626, -344, 764, 75, -566, -168, 474, -897, -37, -160, -130, 156, -334, -242, 2, 192, -406, -757, -54, -77, 39, -148, 173, 55, -50, 606, 167, 54, 149, -190, 69, -444, 258, 179, 10, 121, -259, 224, 711, -104, -346, -496, 450},
{-195, 65, 13, -458, 340, -271, -168, -172, -165, 56, -355, 528, 251, -402, 405, -190, -721, 56, -331, -437, 251, 307, -78, -268, -341, 29, -178, 19, 269, 60, -1240, 8, 301, 144, 396, 275, 11, 99, 733, 156, -841, 384, -948, 336, -88, -171, -748, 381, 636, 14, -763, 234, 198, -253, 707, -292, -410, -81, -218, 71, 232, 410, 585, 261, -38, -107, 307, -612, 663, -916, -697, 610, -365, -568, 336, 112, -539, -46, 125, -38, -133, -29, -398, 254, 296, 242, -24, 20, -50, 272, 278, 607, 469, 201, -82, -359, -334, -396, -359, 535, -359, 569, 199, -295, -294, 277, 920, 578, -167, 220, -637, -17, 79, -141, 94, -175, 26, -443, 74, -695, 109, 206, -380, 239, 125, 398, -271, -254, -1045, 374, -264, 56, 289, -240, 0, 220, -231, -188, 475, -475, 10, -61, -566, 269, 64, -82, -216, -263, -11, 237, 322, 51, -215, 199, -48, 298, 198, -325, 6, 76, -408, 170, 70, 169, 195, -307, -49, 262, -428, 245, -131, -699, 935, 55, 61, 97, 194, -60, -827, -216, 241, 334, 588, 292, 29, -56, 375, -135, -138, -190, 414, 213, -246, 285, 159, 135, -248, -543, 658, -655, -625, -354, 370, -524, 255, 465, 58, -168, -411, 624, 693, -308, 198, -514, 6, 62, 583, 62, 283, 570, 435, -604, 641, -499, -484, -829, 14, 514, -268, -556, -132, 122, -936, -332, 66, -46, 285, 96, -433, 28, -181, -184, -559, 90, 364, -168, -39, 302, 157, -65},
{502, 72, 550, -208, -115, 156, -132, 79, 211, 505, 55, -662, 284, -238, 330, -155, 318, 273, -90, -139, 540, -283, -198, -591, -558, 114, 167, -182, -53, 38, 148, -26, 100, -739, -130, -76, 636, 1282, -755, 11, -451, -42, -201, 83, -82, 282, -502, -337, -592, -294, 649, -54, 278, -85, -539, 295, -109, 282, 1, -387, -402, -34, -869, 304, -191, 679, -618, -257, 72, 552, -271, 421, -339, -151, 738, 273, 432, -71, 167, -497, -167, -1050, 535, -252, 206, 221, 482, 626, 177, -70, 312, 12, 231, 103, -645, 179, 280, 409, -128, -717, -452, -194, 285, -156, 204, 278, -62, 123, 153, -708, -319, 285, -20, -50, 225, -1099, 492, -18, 464, -29, -4, -511, 447, -210, -547, -335, -286, 144, -446, 208, 522, -746, -13, -102, 92, 269, 138, 124, 367, 87, -98, 126, -510, 172, -303, -2, -63, -298, -290, 368, 517, -185, 370, 422, -589, -230, 183, -479, -365, 442, -858, 142, 433, -59, 526, -162, -298, -12, -560, -6, 252, 613, 304, 66, -262, -781, 19, -303, -137, -313, 263, -81, -12, -400, 492, 159, 808, 717, 156, -334, 547, 215, 380, 151, -465, -132, 319, 183, -248, 373, -194, 74, -165, -70, 430, 520, -53, -98, -361, -270, -799, -250, -533, 353, -696, 494, 177, 98, -209, -149, 138, 272, 320, 244, 490, -145, -110, -79, 309, 125, -204, -516, 325, 577, 192, -129, -55, 34, -430, -45, 418, -192, -197, 215, -521, -89, -379, -14, 251, -112},
{-56, 619, -457, 556, 267, 273, -81, 37, -34, 107, 185, -5, 188, -447, -125, -99, -140, -85, -199, 132, -610, 614, 40, -78, -586, 177, -395, -379, 550, 364, 28, -309, 76, 329, -211, 262, -372, 19, 142, -201, 317, 502, -655, 634, -311, -326, -150, 520, 325, -516, 278, -139, -59, -316, 37, 87, -124, -555, -495, -798, 132, 420, 385, -265, -513, 172, 481, 1020, 126, 758, -115, 39, 373, 179, -85, -231, -153, 169, -148, 710, -315, 400, 51, 163, -413, 204, 346, -9, -527, 329, -411, 255, 477, -540, 155, 119, -791, 456, 411, -443, -271, 217, -208, 399, -253, -320, 400, -626, -143, -8, -1241, -267, -220, 286, -83, -504, 334, -67, -84, 414, 814, -392, -330, -449, -19, -71, -204, 245, -8, 250, 76, 481, 78, -91, 104, -268, 107, -460, -201, -53, 213, 267, -487, -69, -636, 822, -31, -285, 374, -159, 438, -519, 210, -6, 592, -393, -79, 0, -91, -145, -142, -483, 514, 205, 528, 328, 107, -160, -591, 75, -651, 555, -728, -561, -153, -588, -821, 223, -399, 422, 435, 79, -8, -296, -114, -401, 164, 97, 134, -292, -646, -357, -232, 53, 154, -403, -319, -1141, -238, -82, -412, 205, -423, 376, -193, -50, 153, -255, -212, -17, 183, 2, -284, -172, 429, -10, -80, 163, 391, 405, -399, -338, 70, 325, 0, -662, -162, 37, 618, 26, 49, -277, 171, 78, 166, -128, 235, 361, 105, 348, -4, 381, -743, -21, -601, 136, 578, 123, -790, 423},
{-556, -148, -156, -585, -220, 183, -157, -133, 142, -269, -175, -131, -295, -731, -407, -417, 354, -68, -205, -141, -595, 426, 5, 502, -31, -548, -66, -509, -67, 238, -741, -251, 23, -826, 163, -155, -150, -111, -188, -82, 398, 39, 301, 280, -94, 219, 257, -258, 365, 204, 221, -3, 80, 362, 396, -92, -535, 66, -55, -215, 513, 47, -527, 467, -57, -253, 6, 337, 294, -13, -149, -405, -438, -180, 136, 159, -796, 139, 9, 329, -195, -108, 300, -51, -165, 154, -120, -595, -173, -547, -221, -293, -139, 271, -76, -33, 593, -137, -183, 94, -108, 300, 121, 198, 182, -201, 166, -158, 119, -64, -257, -133, -489, 433, 328, -369, 222, 53, 186, 151, -224, -467, -32, 84, 39, 12, -201, 37, 224, -132, -141, -215, 113, 141, 82, 229, -436, 140, 21, 67, 136, -148, -225, -418, 172, 498, 126, 460, 83, 103, -103, 435, 451, -240, -84, -212, 117, 356, -72, -174, -131, -35, -399, -112, 167, 23, -303, -268, -101, -265, -185, 483, -224, -403, -166, -520, -180, -30, 259, 212, 118, -84, -430, 242, -214, 48, -622, -25, -77, -155, -115, 649, -50, -18, -364, -302, 60, 432, 147, -167, -339, -106, 121, -335, -303, 242, -266, 668, -49, -641, -19, 89, 358, 54, -4, -64, -220, -279, 392, -702, -241, 282, -523, -813, 13, 41, -250, -269, 388, -160, 483, 714, 99, -385, 150, -156, 6, 182, -343, 318, 736, -577, -38, 110, -187, 72, -14, 219, 404, 730},
{-139, -67, -22, 628, -477, -240, -88, 50, 614, 66, -71, -433, -249, 155, 596, 778, -156, 21, -317, 202, -117, 319, -11, 167, 346, -53, 34, -130, 179, 183, -291, -163, 58, -394, 218, 89, -479, 815, 81, 370, 129, -312, 141, -433, -4, -285, -104, 110, -316, -129, -117, -127, -76, -16, -354, -332, 534, -240, 30, 254, -569, -347, -90, 501, -1118, -601, 204, 467, 26, 155, -30, 229, -212, 338, 388, 845, -340, 246, -137, -374, -654, 383, -255, 2, -508, -144, 298, -49, -81, -16, -190, 251, -75, -555, -140, -223, 478, -154, 268, -158, -328, -63, 334, 510, 143, -262, 428, -130, -177, -353, -164, 280, 455, 322, -267, 176, -167, -741, 36, -139, -35, -152, -423, -34, 293, 192, 228, -425, 113, 131, -71, 298, -161, -61, -73, -102, 31, 282, 167, 302, -367, 117, 280, -15, 166, -135, 609, 14, -177, -1021, 615, 74, 536, 270, -287, 219, -426, -748, 212, -126, -188, 15, -143, 182, 432, 97, -39, 264, -66, 472, -8, -366, -140, 193, 350, -373, -430, 180, 107, 54, -243, -44, 261, 258, -324, -687, -319, 27, 200, 153, 125, 95, -74, 166, -48, 175, 186, 417, -311, -444, 162, -402, -13, 48, -65, -334, 106, 277, -211, -246, -322, -136, 1, -112, -121, 302, 257, 137, 39, -478, 58, -304, 148, -35, -230, -164, 271, -538, -642, 182, -523, 60, 148, 556, 605, 83, 4, -491, -6, 53, -448, 259, -154, 178, 45, 558, 32, -360, -117, -394},
{-306, 185, 0, 491, -643, -308, -404, 40, -45, -306, 173, -226, 254, -474, -201, 148, 506, -120, 72, -556, -815, -62, 69, -383, 334, -561, -19, 260, -25, 183, -147, -181, 61, -596, -186, -373, -194, 472, 148, -663, -302, 240, 207, 71, 283, 677, -927, -112, -4, 196, -154, 136, -49, -455, 134, 246, 567, -77, -42, -199, 83, -7, -635, -30, 245, 484, -664, -214, 382, 394, -449, 93, -127, 2, -654, -62, 223, -372, 264, -125, -203, -102, 587, -592, 173, 22, 157, 101, 417, -227, -982, -39, -349, -376, -272, 27, -340, 119, -230, 344, 551, 151, -112, 584, -516, 751, 23, -409, 183, -53, -170, -137, -47, 67, -110, -657, 171, 107, -197, -686, -286, -19, -529, -193, 787, -652, -37, 20, -305, -242, -338, -399, -132, -50, -251, 194, 812, -256, 259, -201, 830, -319, -332, 118, 130, 711, -619, -374, 155, -570, -34, -248, -188, -344, 126, -193, 566, -53, -296, 550, 676, -392, 1027, 151, -211, -493, 107, -131, 18, 596, 377, 724, 455, 320, -754, -263, 668, -394, -108, -224, 759, -455, -42, -42, 217, -405, -112, 237, 170, 123, -197, -147, 147, 128, -140, -508, 127, -863, -330, 286, 961, -624, 754, -639, 660, -261, 55, -653, 64, 49, -196, -449, -53, 33, 270, 775, -124, 150, -252, 196, -11, -151, -528, 255, -476, 192, 36, 265, -67, -228, -474, 767, -422, 57, -279, 586, -53, -483, 218, -1, -272, -299, 295, -93, 459, -109, -171, 236, -96, 691},
{982, 108, 141, -387, -369, -5, 73, -603, 409, 396, 67, -417, 70, 489, 614, -495, -326, -434, -326, -580, 179, 220, -42, 226, 336, 666, 899, 324, -242, -143, 32, -335, -1034, -29, 460, 249, -300, -154, 723, 329, 550, -37, -594, -267, 386, 0, -685, 124, 470, 644, -111, 569, -345, 11, -69, 702, 453, 48, 103, 114, -267, -51, 15, -186, -684, 56, -568, 267, -321, 257, -60, 399, -11, 275, 274, -129, 72, 44, -41, -477, 531, -409, -16, -524, 102, -24, -490, 170, -662, -637, 181, 354, 50, 298, -904, 267, -47, -1279, -433, -422, 653, 662, -128, -82, -123, -30, 122, 392, 389, 21, -136, 798, 818, -64, 695, 241, -141, -254, -668, -156, 320, -1085, 345, 91, -120, -396, 213, -796, -127, 573, -393, -60, 312, -18, -113, -299, -138, -335, 9, -282, -377, -67, -281, 298, 327, 397, -595, -308, 356, 755, -477, 384, 297, -158, -740, 822, 139, -478, -394, -337, -303, -396, 170, -580, -325, -76, -204, -435, -500, -41, 290, -239, -136, -145, 956, 134, -924, -203, -122, -13, 255, 96, 241, -69, 631, 838, -704, -139, 201, 138, 239, 636, -214, -339, -46, 232, -414, -75, -159, -187, 70, -130, -57, -108, 300, -737, 88, 203, 454, -225, -644, 418, -195, 57, -216, 204, -90, -257, -350, -527, 316, 56, 570, 74, -526, -224, 736, 260, 450, 318, 68, -381, 17, 442, -315, -258, 50, 1008, -178, 534, -313, -285, 296, -42, -695, -566, 373, 172, 354, -35},
{-1113, 145, -312, -348, -81, 11, -716, -230, -495, 120, -70, 491, 640, -406, 365, 135, -531, -340, -6, -198, 931, 189, 394, 69, -666, -569, 831, 201, -406, -121, -212, 74, -400, -469, -528, -73, 82, -415, -482, -26, 141, -306, 142, 403, 74, 605, 525, 81, -476, -497, 620, 476, 287, 208, -585, -90, 101, 13, -739, -169, 169, -307, -249, 105, -385, -109, -425, -62, -551, -243, 41, 1, 224, 158, -621, 368, 167, -152, -29, -636, 173, -107, -94, -408, -17, 383, -291, 98, -243, 180, 174, 83, -127, 224, 371, -197, 224, 999, 139, -466, 448, -59, 189, 1074, 347, 59, 86, -380, -620, 615, -309, 17, -432, -543, 5, 375, -381, 668, 121, 189, 121, -743, -559, -355, -336, 486, -236, -181, -85, 106, -83, 182, 108, 536, -94, 316, -135, 232, -51, -183, 472, 286, -292, -79, -111, -451, 231, 230, 252, 389, -198, -120, -671, 10, 264, 79, 69, -189, 54, -3, -73, 99, -538, -326, 195, 371, 53, 349, -459, -537, -235, 273, -102, 15, -372, -175, 598, -431, -326, 1139, 242, -232, 54, -631, 861, -253, 159, -391, 150, -128, -976, -106, -93, 134, -823, 394, -563, 77, -261, -345, -342, 265, 561, 403, 441, 287, -183, -368, -178, 427, 72, -260, -430, -91, 754, 150, 58, 64, -319, 222, 9, 182, 711, -384, -727, -89, -203, -369, -105, -112, -320, 703, -358, -789, -318, -230, -285, -59, 288, -493, -444, 59, -62, 175, -260, 401, 371, -233, 964, -27},
{-295, 204, 853, -313, -24, -307, -554, -11, -327, 203, 80, -1036, 727, -21, -234, 228, 338, 256, -33, 571, 8, -385, 181, 312, 323, -9, -549, -85, -35, 294, -75, -171, 223, 22, -230, -743, 674, 176, -346, -319, -1398, -112, -130, 89, -30, -92, -106, -113, 735, -10, -57, 286, -871, -181, 602, -848, -222, -558, -514, -42, -66, -56, -529, -146, -163, -49, 217, 237, -637, 68, 988, -349, 104, 187, 118, -148, -56, 646, 168, 135, -172, -136, -235, 80, 98, -419, -396, 181, 351, 133, -104, -516, 19, 34, 160, 216, -487, 245, -152, -346, -418, -294, -352, -304, -96, -527, -59, 171, 99, -48, -54, -75, 53, -427, 142, 178, -99, 488, -340, 203, -123, 101, -171, 94, -220, -972, 492, -107, 237, -65, -642, -215, -250, 748, 59, 350, 1191, 44, -407, 655, 157, -318, 467, 223, -628, 205, 311, -243, 464, 232, -144, 152, -288, 335, 40, 235, -606, -483, -287, 462, -409, -270, -89, 142, 185, 741, -209, 89, -450, -357, -274, -325, -75, -778, 159, 457, -255, 947, -670, 103, -503, -93, 737, 288, 396, 88, -204, 803, -78, 123, -102, 114, 258, -87, 319, 202, -268, -699, 282, -166, 480, 189, 95, -594, 221, -286, 66, -427, -329, 235, 403, 95, -29, 25, 296, -128, -84, 202, 446, 655, -286, -173, 271, 727, -134, -212, 256, 819, 649, -78, -125, -131, 244, 557, -38, -213, -281, 775, 455, -95, 403, -457, -410, -97, 111, 95, -173, 166, 305, 216},
{-1090, -118, -64, 589, 463, -263, 530, -202, 350, 274, 699, 202, -218, -617, -51, 240, -243, -206, 43, -307, 207, -232, 83, 385, -27, -630, -43, -44, 130, 342, 21, -29, 24, -134, 233, 240, -218, 239, 117, 571, -256, -182, 214, -345, -279, 217, -148, 760, -136, -413, 219, -128, -172, -276, -484, -689, -4, 317, 264, -28, 240, -299, -61, 349, -266, -139, -129, -158, 622, 318, 528, -240, 150, -17, 427, 350, 581, 205, -258, -149, 807, -24, -239, 457, -100, -779, 65, 334, -552, -551, 573, 784, -417, -119, -145, -162, 183, 112, 45, -79, -551, -129, 64, -274, -449, -509, 125, -297, 119, -180, 56, -168, 589, 373, -505, 322, 240, 81, -312, 165, -87, -138, -160, -327, 74, -658, 458, -258, -82, -1026, -608, 256, 324, -32, -637, -84, 155, 291, -364, 330, 201, 382, 54, 206, 230, -307, -87, 227, 100, -301, 958, 527, 240, 273, -7, -273, 87, -1016, -157, 322, 193, -348, -859, 77, 861, -13, 193, 157, -341, 1075, -338, -334, -817, 55, -306, -199, 466, -99, 331, -350, -12, -83, -210, -463, 230, -232, -252, -95, -745, 45, -273, 343, -316, 282, 60, -519, 92, 216, 543, -71, -330, -274, 163, 174, 196, -464, -802, -376, -21, -136, 175, -494, 243, -510, -384, 360, -340, -739, 233, 428, -212, 9, -531, 433, -236, 248, 157, 61, 15, 380, -794, -69, -342, 463, -210, -370, 41, -709, 20, -11, -559, -16, 87, -8, -43, 249, -85, 199, -4, -21},
{-351, -519, -207, 106, 415, 56, -122, 322, -314, -156, -283, -652, 34, -660, 54, 21, -126, -413, 538, -243, -342, -427, 498, -646, 254, -665, -129, -13, 900, -3, -883, -275, -132, -864, -760, -1445, -464, 280, 707, -175, 89, 38, 96, -437, -69, 335, 542, -108, -339, -317, 1071, 242, -141, 80, -510, -124, 558, 122, 425, 148, 97, -207, -354, 330, 30, 575, 392, -515, -446, 498, -146, 377, -174, 298, -567, -586, 551, 373, -34, 159, 287, -81, 21, 432, -395, -468, 120, 167, 596, 373, 91, 124, 132, -79, -37, -157, -152, -748, 284, -335, 855, 205, 188, 417, 57, 133, -813, 6, 294, -352, -149, 390, 208, -505, -36, -914, -423, -43, -15, -228, -675, -264, -40, -241, -101, 566, 633, -156, -18, -396, -231, -42, 124, -61, -383, -313, 317, -418, -124, -89, 562, -209, 97, -250, 835, 488, -365, -343, -380, -42, -18, -363, -112, 94, 911, 194, 71, 260, -6, -705, 525, -311, 180, -404, -289, -132, 415, -471, -65, 699, 774, -369, 211, 418, -363, 282, -645, -64, -83, -388, -350, 0, -211, -260, -94, -547, -207, -322, 125, 252, -1, 83, -794, 94, -537, -328, 534, -293, -135, -377, -823, 292, 452, -276, 460, 263, -275, -312, -470, -333, -726, 24, 0, 417, 388, -217, -95, -33, 48, -398, 547, -70, -567, -440, -677, 0, -360, 662, -67, 255, 430, 136, -43, 923, 520, 525, -626, -74, 391, 147, 827, -88, 17, 383, 541, 78, -154, 124, -70, 148},
{369, 156, 107, -373, -273, -164, -348, 55, 164, 431, 320, -641, 257, -782, 735, -764, -433, -1000, -320, 412, 293, 112, -118, 547, 171, 280, -692, -43, -201, 242, 112, 138, 676, 486, 474, -522, -237, 252, -303, -568, 213, -216, -447, 154, 10, 107, 405, 233, 228, 238, -41, -260, -409, -357, -203, 468, 23, -315, 59, 648, -206, -54, 112, 141, -454, 635, -168, 559, -44, 52, -353, 105, 272, -272, 285, -200, 274, 93, 200, 51, 1199, -89, -499, -629, -1025, 426, 133, -31, -409, -1094, 992, 509, -49, 1008, -499, 208, -660, 256, 18, -508, 369, -443, 366, 1, 542, -210, -117, -529, -13, -43, -20, 674, -157, 353, -44, 71, 2, 1017, -667, 133, 151, -454, -2, -784, -192, 509, 219, -93, -308, 421, -697, 43, 349, 1058, -250, 267, -104, -34, -151, 240, -336, 36, -28, -267, 953, -533, -706, -164, -590, 102, -278, -127, 20, -522, 373, 93, 243, -776, -819, -53, -94, -54, 92, -149, 50, 241, -326, -127, 3, -498, 410, 296, 61, 110, 332, 67, 230, -709, -80, -631, 552, 162, 538, -98, -931, -528, 26, 649, -324, -28, 399, -129, -244, 220, -340, -199, 569, -74, -305, -257, 188, 367, 30, 160, -517, -576, -226, -112, -11, 225, 157, 299, -36, 78, 484, -673, -203, 696, -35, 57, -222, 209, 239, 9, -722, 175, 331, -474, 89, -281, -267, -135, 474, 670, 210, -63, -382, 263, 6, -30, 419, -81, 272, -262, 176, -7, 290, -575, -931, 128},
{-648, -635, -164, -374, 313, -273, -147, 718, -38, -115, -159, -377, 441, -844, -562, -35, 51, -545, 372, 6, 575, 98, 458, 427, -630, -215, -136, 315, -137, 638, 181, 286, 132, -517, -168, -791, 1051, 394, 337, 438, 549, -15, 92, 623, 55, 494, -282, 349, 193, 103, 503, -347, 200, 142, -145, -87, 93, -992, 177, -134, -258, -70, 389, -3, -316, 49, 128, 586, 675, -230, 63, -300, -78, -68, -530, 4, 430, 215, 86, -159, 229, 405, -236, 675, 72, 279, -543, -490, -505, 55, -768, -240, -284, -372, -5, 289, 545, 580, -283, -343, 327, 592, 264, 509, -1246, -312, -518, -377, 529, 56, 33, -170, -338, -164, 1076, 780, 37, 212, 539, -444, -434, -124, -176, 168, -20, -375, -72, -125, 463, 76, -451, -255, 69, 330, 382, -85, 344, -244, 534, 208, 42, 327, -400, -3, -458, 467, 415, 326, -706, 506, -296, -926, -17, 61, -285, -91, -526, -51, -160, 410, -76, -924, -209, 28, 110, -493, -93, 393, 110, 143, -307, 4, 128, -62, 417, 214, -209, 748, 67, 129, -552, -546, -111, 350, -55, -147, -65, 123, 124, 181, 1163, -243, 182, -708, 151, 491, -614, 418, 224, -342, -80, 158, 204, 939, -621, -140, 3, -310, -113, 660, 218, -16, 236, 211, -286, -610, 271, -353, -379, -760, 22, -71, -30, -46, -1023, -310, -528, -548, -131, -485, -328, -3, -534, -1048, -382, -119, -740, -610, 358, 424, -189, -67, 49, -126, -71, 565, -26, -580, 434, -140},
{586, 443, 404, -348, -28, -857, -343, -1, -740, -35, 166, -84, 327, 98, -406, -146, -134, 510, -163, -206, 4, -465, 15, 269, 385, 362, -931, -184, 135, -324, 64, 757, -374, -212, 9, -446, -474, 65, 527, -157, -423, -67, -104, -157, 30, 240, 369, -326, 142, 71, 296, 111, -42, 409, -2, 67, -123, 260, 1085, -256, 445, -599, 12, -301, -545, -341, -186, 149, -488, -175, 128, 457, 260, 284, 597, -165, 860, 44, 80, 250, -21, -1096, -511, 581, 61, -203, -1145, 822, 532, -159, 450, -973, -434, 225, 102, 83, -232, 207, -500, -218, -22, -416, -24, 155, 429, -305, 294, -236, -729, -375, -272, -625, 7, -127, -1098, -4, -670, -707, -916, 68, 254, 275, 240, -567, 83, 481, -386, -610, 350, 281, -622, -229, -288, -38, 80, -19, 500, -318, -6, 453, -569, 368, 157, 337, -257, 633, 556, -527, -150, -333, 195, 366, -516, 161, -387, 130, 265, -512, 307, -536, -64, 148, -153, 399, 216, -278, -825, 400, -366, -212, 39, -177, 106, 49, 108, 443, 440, -411, 151, -152, 256, 419, -203, 115, 373, -154, -171, -1335, 704, 88, -496, -346, -231, -171, 719, 241, 92, -328, -216, -259, -24, -472, 183, 725, -123, -244, 238, -377, -398, 347, 560, 339, 42, -237, 84, 457, 156, 132, 553, 224, 14, 194, 208, 194, 542, -42, -435, -347, 501, -462, -31, -322, 335, 77, -32, 817, -267, -379, 700, 130, 203, 435, -85, -83, 104, 601, 315, 357, -242, 153},
{80, -398, -270, 234, 452, -820, -425, 342, 189, 99, -183, -341, -57, -410, -360, 762, 9, 26, -246, -549, 98, -149, -129, -4, -147, 110, 17, 179, 0, 388, -110, 419, 236, -124, -21, -944, 31, 29, -82, 265, 621, -377, -885, 381, -5, -290, 481, 29, -462, 646, 56, 792, 448, 206, -436, -2, 25, -239, -218, 172, 169, -320, 344, 705, -83, 271, -25, -70, -116, 23, -198, -493, -496, -258, 88, 702, -29, 230, -89, -239, -13, -324, 19, -284, -471, 49, -10, 111, -406, 556, 301, -602, 456, -42, -178, -214, 362, -299, 476, 44, -324, -413, 60, 110, -22, -583, 130, 63, 330, -890, -191, 28, 87, 799, 228, 306, -32, -81, -408, -581, 91, 125, 528, 103, 216, 227, 254, -68, -66, -188, -423, -126, -73, -518, -235, -97, -365, 124, -160, 487, 233, 349, -607, -485, 409, -87, 685, -81, 267, -443, 430, -118, 412, 494, 376, 419, 623, -660, -232, 480, -204, 499, -587, 720, 493, -368, 100, 47, -227, 429, 263, 358, -627, -54, 271, -202, -471, 50, 79, -128, -866, -685, -151, -36, -85, 116, -346, 523, -649, 298, -163, 572, -208, 1263, 126, -578, -576, 193, 19, -161, 500, -656, -99, -313, 412, 510, -572, 154, 225, -95, -1327, 365, 393, 13, -219, -535, -146, 309, -368, 208, 605, -60, 648, 18, 203, -141, -200, -42, -101, 28, -805, -2, -629, 81, 16, -569, -623, -193, 88, -21, -528, 222, 145, 119, 189, 159, -1215, -436, -176, -272},
{-160, 276, -54, 428, -227, 468, 572, -435, 45, 344, 395, -895, 233, -156, 1400, 171, -792, 506, 303, 229, -152, -240, -26, -17, 346, 64, 350, 317, -60, 12, -961, 105, -1133, -382, -854, -263, -627, 493, -634, 245, -13, 128, 35, -107, -139, -9, 313, -371, 569, 305, 79, 513, 269, -172, -175, 114, 450, -267, 197, -70, -327, 43, -69, -184, 181, 410, 418, 112, 346, 591, -372, 685, 205, 476, -93, 126, 65, 48, 275, 185, -456, -280, -37, -164, -832, 540, 325, 789, 281, 158, 197, 105, 777, -439, 290, 270, -196, -52, -509, -814, 420, 119, 319, -202, 53, -138, -251, 60, 133, -1, 439, 180, 26, 103, 260, -880, -406, -286, -423, 71, 139, -62, 178, -569, -130, 76, 59, 9, 116, 203, -431, -101, -132, -454, 18, 449, 161, -793, -258, -1237, -432, 325, -288, -586, 296, 340, 357, -353, -562, -9, -340, -452, -305, -194, 15, -486, 94, -215, 253, -181, 936, 85, -120, 1930, -4, -28, 288, -201, -7, 156, 1135, 49, 207, -260, 27, 139, -273, 39, 331, 248, -138, -160, 332, 362, 204, 281, -625, -168, -250, 21, 140, 357, 624, -472, -606, -265, 121, -489, 97, -33, -702, -761, 240, 422, 662, -25, 28, -82, 501, -267, -411, 103, 239, 156, -22, -234, -257, 57, 166, 464, -442, 320, -302, 136, -341, -99, -2, 291, 89, 336, 528, -743, -567, -518, -504, -220, -296, -144, -95, -350, 86, -563, 179, -121, 500, 223, 215, 667, 49, 909},
{581, 428, -757, -203, 496, 216, -440, 417, -240, 197, -275, 425, -199, -2, 27, -100, -115, -14, -281, -162, 293, 18, 317, 572, -63, 456, -270, 525, -461, 257, -23, -452, -242, 179, 915, -93, 524, -282, 346, 264, 525, -582, -254, -156, 247, -208, 83, 2, -42, 557, 23, 351, 345, -131, -104, 264, 331, -6, -125, -156, -539, -350, 235, -294, -408, 229, -145, 96, -438, 454, -287, -49, -3, -166, 591, -190, 120, -488, -251, -450, -97, 266, -238, 585, -389, 375, 59, -728, -435, -452, 446, -298, 191, 340, -499, -577, 264, -1034, -499, -734, 477, -71, 69, -134, -208, -425, -302, 188, -149, -83, -534, -3, -591, 143, 92, 101, 154, -41, 129, -92, -155, -302, -73, -23, 677, 61, 18, 627, -385, -209, -462, 113, 297, 198, 147, 181, -483, -177, 380, 146, -407, -23, -39, 347, 23, -205, -853, 332, -67, -44, -209, 380, -274, -232, 179, 533, -15, -363, -168, 648, 1, 485, 15, 424, -26, 55, -12, 112, -558, -186, 247, 5, -250, -71, 32, -134, 102, -73, -302, -58, -866, 82, 337, 317, 264, -104, 462, 649, -664, -433, -334, 196, 691, -381, 169, -28, -431, -176, -462, -55, -878, 695, 262, 181, 66, -800, -75, -618, 236, -439, 336, -19, 196, 307, 848, 368, -482, 12, -78, 145, -83, 119, -584, 651, -1044, 633, -118, -352, 462, 219, -414, -239, -180, -215, 520, -149, -269, -12, -707, -412, -68, -983, 637, 57, -295, -364, 462, 316, 56, -326},
{424, 238, 457, -420, 261, -540, -314, 0, 22, -695, -831, -407, 690, -171, -355, 61, 290, -68, 11, -153, 613, 332, -60, -472, -423, -70, 440, 219, 188, -31, -221, -67, 326, -692, -244, 18, 252, -284, 268, -38, -132, 160, 443, 1031, 83, -170, -83, 493, 456, 95, -341, -95, -728, -238, -674, -194, -131, 68, -365, -459, -112, -475, -451, 435, -159, 190, 186, -122, 63, -473, 503, -43, 114, 83, -430, -115, 51, 124, 415, -243, 560, -83, 219, 189, 276, -61, 183, 179, 39, 274, -434, 300, -361, -86, -239, -330, 454, 345, -824, -72, 226, 237, -127, 317, -38, -594, 127, 150, -105, 230, -660, -46, -182, -1104, -380, 172, -428, -804, 96, -9, -587, -532, 64, -580, -66, 44, 352, 425, 620, -313, -282, 61, -38, -374, -343, 185, 91, -39, 207, 442, -279, -37, -19, -485, -514, 286, 660, 499, 808, 20, -120, -331, -586, -278, -31, -610, -44, -189, -9, 286, -132, 309, -328, 267, -81, 108, 445, 123, -106, 113, 88, 1213, -493, 213, 656, -204, 194, -660, 340, -188, -107, 36, 503, -380, -49, 573, 80, -269, 342, -818, -348, -484, 46, -35, -328, 146, -723, 473, -141, -99, -309, -118, 669, 143, -205, -462, 155, -611, 45, 10, 57, 257, 163, -391, 133, -176, 620, 160, -118, 10, -159, 154, -527, 305, -544, -246, -688, 36, -198, 191, -711, 181, -139, -816, 703, -195, -69, -383, 283, -686, -243, 326, -38, 93, 70, 791, 629, 115, 855, -33},
{498, 44, -365, -246, -289, 479, 93, -115, -243, -298, -266, 158, -149, -598, -104, 587, -36, -25, -228, -333, 437, -151, 44, -281, 275, -89, 279, -582, -363, -164, -190, -175, 53, -27, -134, 87, -2, -538, 248, -31, 195, -450, -198, -259, -121, -182, -82, 117, 230, -496, 363, 139, 182, 266, 604, 18, 134, 125, -128, -166, 127, 96, -279, -302, 375, -87, 36, 201, 260, -193, -106, 272, -154, 104, 445, -121, 522, 22, 333, 374, 361, -282, -145, 124, 257, -230, -573, 26, 347, -143, 9, 176, -311, 13, 162, -260, -600, -110, -204, 0, 156, -248, -38, -412, 79, 163, 80, 143, -290, -715, -211, -385, -212, -458, -234, 36, -238, -80, -650, -240, -46, 374, 426, 241, -158, 183, -253, -231, 554, 80, -180, -326, -260, 736, -276, 188, 548, -23, -36, 591, 600, 10, 301, -106, -176, 319, -313, -763, -195, -298, -54, 327, 170, 229, -128, 240, -108, -315, 309, -340, -392, 73, 254, -305, -591, 214, -183, -342, -198, 88, -145, -221, -170, -130, 53, 464, -123, -50, 303, 437, -363, 113, -231, 126, -68, -274, 270, -311, -142, 13, 114, -41, -278, -33, -31, 406, -192, -84, -372, -498, 228, -11, 262, -496, -759, 289, -312, -254, -81, -250, -367, 222, -364, 181, 474, 218, -82, -80, 389, -509, 62, -371, -139, -184, -177, -196, 37, -207, 265, -518, 181, -1070, -80, 683, 165, 50, -520, -43, 26, -650, 223, 121, -370, -439, -199, 317, -36, 14, 296, -218},
{-48, 468, -15, 121, 174, -66, -157, -86, -302, 127, -238, -52, -169, -243, -710, 146, -199, -159, 174, 362, 44, -254, -43, -688, -197, 26, -202, -571, -169, -445, 711, 45, 176, -415, 232, 149, 100, 574, -568, -559, 230, -12, -670, -374, -208, -295, 80, -61, 263, -82, -96, -153, -616, -181, -9, 140, -591, 127, -105, 185, -48, 181, 201, -45, 240, -559, -115, 144, -99, -118, 59, -571, 27, -707, -677, -31, 175, 363, 322, 185, 182, -218, 116, 284, 227, 14, -236, 237, 484, -139, -184, 147, -210, 448, -342, 310, 443, -215, 242, 223, 115, -659, 433, 280, 109, -211, -117, -14, -155, 122, -71, -159, -164, 534, 44, 150, -325, -72, 228, -80, 296, -204, 192, -580, 91, 523, -441, -143, -523, 226, -637, -241, 467, 144, 293, -94, -244, 376, -263, 512, 493, 202, -986, -550, 86, -253, 355, 46, 190, 32, -57, 486, 147, -14, -389, -172, -303, -390, 351, 229, -327, 71, 260, 89, -46, -50, 523, -54, -15, -144, -95, 217, 221, 20, 159, -6, -318, -141, 21, -378, -222, -139, 273, 229, 81, 83, -339, -162, 320, -64, 290, -549, -205, 2, 91, 318, 270, 14, 17, -77, -505, -116, 333, 46, -510, -383, 180, 28, 632, 107, 635, 5, -237, -299, -223, -30, 129, 11, 673, 178, 176, 325, 314, -464, -382, -91, 208, -113, -428, 284, -271, 98, -424, 350, -177, 518, -597, -15, -573, -84, -107, 77, -402, -265, 268, 177, -8, -241, 524, 204},
{458, -197, 143, -101, -485, 158, 544, 13, 552, 956, 347, -66, -21, -343, 71, 413, -374, -215, 570, -143, 192, -657, 37, -207, -92, -1036, 190, 840, -165, 234, 625, 258, -205, -322, 93, -76, -136, -94, 289, -509, -562, 411, -27, 315, -292, -212, -735, -780, 319, -265, -494, -722, 249, -826, -109, -612, -20, 324, -346, 172, 155, -122, -28, -165, 7, -750, -210, -599, -664, 115, -315, -14, 138, 587, 506, 585, 296, 58, -525, 357, 498, 448, 435, 613, -459, 17, 617, 141, -282, -474, -12, 189, 314, -283, -194, 373, 13, 639, 494, -178, -563, -222, -189, 350, -249, 177, -561, -260, 67, -114, 244, 141, 513, 647, -296, 304, -50, -176, 896, -564, -316, -113, 1052, 521, -158, -2, -490, 147, 379, -353, 236, -782, -199, -57, -1, -108, 73, -588, 45, -549, 898, -394, 265, -24, -1, -387, -46, -465, 347, 95, -280, -97, -517, -530, 122, 806, 141, -333, -573, -1036, -45, -382, 574, 497, -307, -203, 443, -104, 109, -268, 96, 783, -125, -253, 493, -61, -289, -35, 365, -67, 474, 168, -36, -178, -109, 234, -601, 302, 66, -136, 320, -445, -28, -218, -37, 591, -559, 306, -109, 120, 753, -26, -57, -487, 146, -104, -87, -63, -542, 238, 385, -356, -108, 373, -140, 40, -398, -280, 644, -147, 240, -382, 146, 29, -752, -553, 13, 216, 353, -273, -125, -91, 311, -207, 982, 308, 10, -236, 106, -543, 324, 424, -158, -258, -397, -843, 4, 74, -409, -118},
{209, 760, -92, -75, -800, 438, -571, 373, -390, 187, -562, -502, -361, -54, -535, 151, 270, -876, 236, -593, 253, -822, -112, 253, 363, 503, 490, 276, -154, 295, -55, -29, 31, -87, -334, -424, -181, -1058, 596, 213, 315, -533, 781, 208, 323, 97, 375, 278, 34, -388, -447, -70, -37, 1245, -46, -772, 86, 334, 215, 312, 67, -81, 195, 18, -481, 76, -572, -1028, 481, -664, -450, -39, 638, -62, -194, -511, -111, -183, -514, -89, -266, 26, 233, -238, -136, -521, 94, -366, -94, -346, 96, -104, -616, -93, 843, 133, -385, 120, -427, -303, -65, 126, 36, 232, -392, -35, -341, -661, 533, -318, -84, 103, -25, -528, -82, 113, 347, -13, -128, 97, 165, -2, -47, 57, 194, 90, 68, -747, 30, 404, 105, -145, 405, -598, 152, 367, -61, -252, 105, -109, -369, 275, -496, 650, 130, -359, 597, -140, 246, 29, 387, 77, 120, -127, 153, 93, 490, 78, -46, -25, -373, -562, 185, -42, 382, 327, 64, 156, 453, 32, 53, 401, 343, 271, -224, 516, 985, 553, 392, 248, 45, 188, 408, 161, -445, 302, 178, -511, 162, 83, -677, -521, -829, 208, 697, 76, -694, -693, -239, -248, 113, -24, 662, -926, -114, 608, -399, -144, 318, 379, 127, 410, 290, -622, -203, -199, 448, -146, 405, -253, 559, -9, 348, -290, 564, -153, -245, 288, -232, 108, -37, -303, -54, -37, -139, -225, -349, -59, -14, -933, -361, 398, -607, 53, 387, 238, 0, -23, -903, 87},
{485, -564, 438, 492, -30, 51, -717, -195, -336, -119, 74, -685, -1120, 407, -172, 56, -1234, -205, -600, -522, 386, 103, 155, 301, -617, 222, -462, -244, 574, -407, 616, -139, -296, -597, -663, 321, 604, -57, -323, -230, -228, -492, -6, -3, 266, 188, -277, -446, 239, 731, 555, 422, 235, 350, -334, -474, -218, 270, -523, 0, -264, -138, 489, 142, -116, 355, 454, 63, -503, 694, 1008, 94, -88, 426, -418, -142, 11, -635, -73, -683, -241, -169, 36, 96, -282, 162, 113, 565, 135, -316, -371, -233, 334, 171, -320, -189, -199, -186, -372, 439, 39, -81, -671, -591, -272, 178, 266, 38, -327, 152, -2, 153, -285, -408, 509, -40, -45, -166, 358, 101, 354, 296, -95, 410, -230, -1179, 228, -470, -300, 313, -90, 466, -69, -876, -17, 452, 78, -36, -144, 603, 147, 29, 217, 746, 299, 368, -850, 138, 609, 98, 180, 102, -371, 133, -597, 539, -58, -155, 194, 167, -104, -226, -109, 141, -165, 267, 181, -147, 452, -248, -516, 394, -132, -243, -392, 140, 295, -16, -364, -860, 487, 117, 1056, 347, -562, 67, 72, -152, 81, 82, 141, 447, 87, 23, 201, -530, 62, -101, -34, -159, 146, 364, -248, 561, -118, -323, -272, 684, 142, 335, -820, -173, 327, 500, 463, -218, -1014, -24, 232, 98, 293, 303, 289, 133, -95, -185, 61, -190, 97, -398, -499, 647, -165, -448, 178, -372, 285, -76, 76, 747, 394, 238, 95, -532, -302, -502, -1208, -132, 574, 151},
{-216, 592, -171, -58, 350, 164, 291, 370, -160, -470, 185, 385, 340, 152, 686, -12, -164, -320, -231, 293, 207, 265, -108, 148, -206, -235, 174, -98, 333, 7, -166, 1070, 257, -38, -424, 206, 112, 290, -6, -756, -958, 43, 95, 444, 150, -23, -653, -285, -341, -158, -318, 41, 565, 493, 209, 292, -247, -26, -149, 98, -177, -96, -313, -253, -93, -44, -608, 140, 223, 236, 433, -117, -342, -293, -80, -107, 352, 9, -202, -768, -203, 82, -525, -220, -164, -1225, 71, 79, -338, -221, -616, 775, 1132, -323, 326, -452, -218, -231, -248, 894, -411, 51, 73, -258, -346, -636, 112, 0, 123, -567, 170, 249, 110, -719, 364, -82, -119, 704, -660, -686, 205, 119, -134, 465, -552, -272, 85, -12, -280, 328, -552, -204, 40, 221, 132, -333, -659, -549, -1187, -8, 553, -214, -306, -209, 396, 103, 137, -121, -297, -44, -190, 77, 146, 44, 685, 368, -313, -200, 399, 35, 769, 205, 215, -274, 212, 265, 222, 300, 206, -39, 128, -432, 64, 252, -148, 467, -142, -44, 566, -385, -329, -483, -157, -833, 456, 335, -476, -252, -376, 82, -677, 566, -500, 156, -40, -62, -383, -344, 79, -219, 125, -105, -290, 519, 425, -319, 323, 255, -91, 304, -89, -65, -63, -543, 438, 14, -366, 410, 144, 234, -470, 317, -102, -568, 255, 4, -437, 231, 171, -8, 97, 326, 22, -396, 118, 18, 362, 207, -338, 348, 104, 184, 244, -189, -598, -263, 752, 100, -602, -200},
{-618, -436, -1765, -86, 482, 849, -574, -323, 65, -366, 357, -250, -116, 267, -313, 406, 150, 404, 179, 849, 88, -448, 451, -470, -340, -21, 405, -443, 126, -463, 652, -582, 77, -22, 183, 933, -637, -69, -36, -363, 253, 18, -12, -225, -144, -169, -88, 56, 362, -619, -454, 774, 275, -361, 133, 489, -339, 270, 1113, 217, -101, 1207, 202, -46, -161, 285, -221, -13, -547, -272, 402, -31, -136, 266, -250, -166, 240, 347, -680, 57, -163, 0, -147, 336, 111, 115, 146, -39, 79, 230, -182, -127, 1131, -349, -281, -159, 260, 373, 217, -241, 654, 491, -252, 188, 827, 5, -61, -243, 173, 218, -127, 62, -469, 1061, 271, -3, 381, 180, -239, 103, 201, 191, -442, 142, 211, -49, 386, 154, -185, -154, -898, -616, 745, 118, -720, 234, -291, -149, -670, 502, 272, 4, -469, -120, 18, -456, -192, -362, 207, -337, -344, 559, -284, 558, 1, -452, -764, -349, 150, -296, -582, -151, 353, -136, 153, 161, 107, -331, 107, -223, -463, -312, 472, 387, -172, -783, -409, -400, 64, 99, 102, 256, 135, -766, -297, -432, -462, 1199, 559, -64, 501, 416, -530, -114, 407, 118, -104, -94, -55, 272, -99, -38, -512, 149, -115, -76, -407, -174, 174, -136, -203, 247, 208, 500, -79, 534, -406, 315, 276, 412, 141, 128, -168, -369, -105, 368, -376, 55, 625, -584, 236, -87, -447, 200, 10, 1201, -328, 92, -984, 15, 130, 332, -297, -256, -82, -224, -164, -163, -508, 290},
{-258, -807, 31, -172, 298, 384, -75, 159, 16, -116, -295, -598, -260, -1160, -686, 582, -200, -631, -697, -294, -327, -109, -142, -95, -396, -52, -739, -526, 285, 146, -107, 569, 563, -139, 588, 369, 411, 516, -98, 284, -887, 112, 146, 322, -53, -217, 302, -612, 283, -193, -857, -247, 125, 234, -444, -167, -37, -10, 62, 84, 296, 968, -113, 521, 120, -106, -440, -52, 163, -152, 653, 106, -608, 742, 691, -158, 269, -429, 89, -1, 313, -142, -476, -26, -624, -431, 346, 104, -51, 31, 33, 741, -110, -287, -180, 357, -279, 511, -143, -360, -155, -107, 30, -104, -36, 166, -656, 647, 199, -234, 75, -208, -166, 366, -362, -367, 186, -245, -533, -746, -313, -58, 416, -327, -76, 110, -140, -316, 597, -312, 313, -420, -305, -619, -301, -217, -324, -357, 816, -874, 742, -440, -67, 726, 509, -36, 199, 66, 120, 65, -218, 230, -400, -199, 123, 278, -78, 116, -825, -29, 19, -555, 142, 175, -380, 614, 572, -241, 98, -288, -18, 86, 116, 361, 415, -926, 106, 625, -1230, 1191, -88, 240, -125, -219, -54, 326, -638, -149, -808, -90, -293, -269, 220, 389, -38, 329, -88, 166, -26, -459, -827, 357, -126, -237, -148, -449, 310, 398, 72, -453, -108, 157, -20, -345, -117, 138, -507, -1049, -206, 454, 130, 172, -771, 241, -314, -308, -282, -683, -170, -453, -681, -229, 220, -230, -335, 55, 100, -80, 465, 59, 66, 447, -168, -83, -229, -104, 203, 1076, 248, -354},
{59, -704, -245, 550, -597, -157, 11, 313, -259, -158, 52, -559, -272, 620, 114, -95, 49, -516, 356, -467, 146, 40, 713, 618, -341, -105, 515, 700, -848, -7, -474, 84, 230, 206, -66, -803, 301, 243, 1066, -336, 143, 469, 800, 107, -104, 276, -458, 1020, -204, -230, 113, 383, -101, 600, 32, -1006, -656, -675, 187, -408, -120, 233, -271, 44, -143, 213, -247, 159, -341, 173, -618, -465, -482, -292, -318, -114, 389, 73, 376, -307, 5, -259, 203, -250, -520, -571, -484, 406, 296, -5, -547, -72, -264, 349, -1086, 199, 44, -413, -156, 225, -63, -173, -118, 504, -1313, -82, -341, 1417, -41, -721, 105, 918, -292, 81, -67, 154, 69, 234, 72, 299, 283, 204, -574, -22, 532, 127, 45, -117, 241, -300, -31, -436, 331, 334, -97, -213, -524, -492, 0, -154, -757, -180, -57, 393, 310, -94, -57, -704, -890, -189, 346, -51, 68, 234, -730, -22, -180, 105, -24, -292, -321, -764, 592, -148, -519, -181, 140, -11, -13, -359, -145, -238, 523, -90, -281, -156, 343, -232, 326, -243, 68, -226, 915, 608, -367, 1065, -116, 786, -625, -890, -271, -921, 404, -290, -521, 299, 372, -435, -345, -494, 253, 264, 680, -3, -464, 84, -383, 419, 669, -196, 371, -278, -288, 289, -522, 24, 160, 315, 399, -186, -178, 79, -341, 116, 314, -94, -73, 40, 350, 162, -563, 387, -272, 145, 97, -411, -10, 771, -437, -917, -574, 127, 18, -106, 177, 439, -915, 185, -146, 1},
{68, 383, -189, 406, 259, -231, -315, -195, 664, 864, 344, -227, 11, 152, 847, -221, -939, -1588, -98, 718, -28, -293, 184, 990, -598, 367, -18, 196, 32, -674, -175, 508, -529, -633, -443, 227, -3, 1019, -14, 217, 533, -435, -235, -402, 51, -24, -228, -224, 21, -33, -279, 177, -295, -231, 519, -392, 19, 325, -66, 565, 70, -743, 229, 52, 239, 156, -13, 654, -168, 381, 551, 60, -556, -840, -115, 328, 438, 33, -593, -709, 334, 301, 212, -236, 18, 195, 226, 237, 189, 237, -535, -81, 180, 150, -74, 564, 372, -55, -415, -361, -44, 317, -650, 179, 102, 525, 84, 20, -94, -431, 69, -39, -176, 24, 1362, -187, -2, -586, -95, -276, 470, -51, -629, -158, 121, 727, 188, -1023, -256, 650, -191, 359, -347, -1028, -755, 679, 20, 279, 155, 320, 308, -354, -129, 98, -111, 258, -265, 139, -100, -557, 99, -26, 195, -182, 141, 281, 90, 58, -290, 29, -113, -353, -313, -108, -788, 170, -34, -463, -46, -211, -427, -500, -225, 441, -176, 191, -368, -436, -291, -34, -267, -505, 96, 190, 215, -613, -38, -520, 205, -171, 257, 105, 493, 208, -197, -222, -166, -40, -450, 111, 765, 829, -477, 652, 293, -378, 338, -839, -95, 324, -133, 32, -375, -1265, 98, -163, -620, 566, 314, 239, 368, -253, 411, -263, 247, -137, 121, -557, -139, 116, -675, 226, -512, 5, -1, -553, 331, -27, -287, 477, 95, 671, -21, -289, -106, -133, -227, -193, 231, 55},
{-149, -113, -43, -558, 243, 442, -383, -677, -165, -54, 205, 241, 390, -312, 181, 694, -368, 47, -147, 240, 244, -313, 267, 194, -214, -451, -1057, -68, -95, 359, -485, 329, 78, 239, -634, 684, 41, 52, -1005, -260, 563, -224, -5, -15, -1, -300, -144, 215, -542, -684, -218, -757, 551, 385, 97, 111, 32, -285, -668, -325, -55, -254, -687, -859, -105, 196, -443, 33, 514, 439, 483, 585, -193, -580, -50, -201, 471, 469, 104, -807, -41, -1165, 27, 640, 247, -82, 444, -169, -151, -435, 602, -595, -82, -276, -21, -300, -6, 27, -721, 141, -35, -154, 52, 206, 240, -455, 538, 201, 390, 566, 363, 134, 598, 179, -902, 99, -275, -304, -673, -392, -194, 233, 370, 504, 616, -114, -420, -69, -316, 540, 11, -183, 409, 174, 128, -489, -688, -344, 498, 278, -39, -295, -116, -270, 118, -758, 445, 161, -118, 115, -685, 234, 715, 43, -203, -310, 156, 47, -611, -441, 625, 837, 103, -321, 74, 223, 566, -199, 33, -177, -483, -110, 532, -647, 222, -186, -430, 199, -246, 408, 570, 186, -575, -162, -42, 166, -177, 179, 122, 495, -391, -411, -169, 715, 146, -439, -290, -93, -177, -187, -583, -227, -393, 197, 179, -420, -343, -92, 780, 372, 290, 132, -97, 930, -321, -83, 99, -208, 360, -80, 221, -311, 189, -655, -98, -178, 173, 870, -17, -1590, -8, 258, 79, 303, -117, 112, 433, 181, -1, 206, 225, 240, -83, -154, -255, 214, -37, 426, 429, -318},
{-367, 126, -1811, 277, 203, 357, 172, 19, -495, -556, -60, -570, -319, -233, 565, 183, 98, 236, 87, 4, -146, -532, 782, -492, -786, 518, 80, 47, -613, -288, 319, 194, -311, -433, 484, 477, 82, -400, 686, 182, 126, -414, -831, -305, 303, 543, 53, 109, 429, -220, -172, 993, 645, -82, 82, 120, 85, 130, 237, 355, 153, -814, -226, 20, 103, -125, 374, 420, -459, 37, 506, 195, -317, -177, -284, 332, 62, -425, -270, 211, -420, -255, 166, -945, 195, 96, -382, -588, 437, -230, 129, 393, 410, -353, -260, 530, -202, 90, -77, 534, 419, 226, 516, 125, 29, -924, 223, 280, 256, 54, 333, -72, -515, 388, 356, 167, 210, -361, -512, 301, -402, -184, 225, 747, -423, 425, 5, -15, -321, -192, -244, -67, 269, -137, 321, 291, 26, 18, -226, 132, -463, 599, 17, -418, -356, -371, 450, -168, 103, -209, 217, -134, 108, -770, 180, -106, -140, -162, -195, 277, -152, -462, 66, 18, 374, -504, 335, -68, -67, -341, -245, 53, 364, 315, -354, -509, 127, 219, 533, 205, -156, 440, -120, -116, -29, -441, -69, -463, 277, 171, -26, 100, 154, -117, 286, 238, 633, -39, 64, -445, 11, 46, -77, 327, -178, 468, -393, 111, -20, 163, -606, -78, -251, -185, 220, 198, -232, 63, 75, -581, -1481, 530, -156, 274, -280, -446, -40, 140, -150, 92, -250, 153, 58, 329, -398, 621, -280, 703, -831, 0, 14, 130, -273, -970, 215, -218, 19, -429, 453, 11},
{-244, 339, -368, -255, -158, 460, -175, -115, -79, -202, -182, -363, 102, 290, 151, -177, 172, -543, -395, -851, -127, -594, -40, 40, -18, -85, 106, -404, 163, 206, 264, 2, -118, -382, -258, -515, 311, 55, -135, -588, -380, 263, 116, -167, -131, -251, 630, -235, -287, -118, -345, 422, 290, -93, -17, -421, 82, 94, -466, -557, 440, 409, 157, -152, 541, -252, -208, 227, 167, -93, 173, -410, -148, 244, -264, 947, 709, -218, -409, 0, -543, 140, 326, 451, -133, -199, 482, -426, 225, 6, 739, -76, 202, 460, -383, 209, -304, 355, 68, -557, -63, 78, 311, 448, -735, -258, 232, 191, 337, -43, 373, 19, -391, -96, -202, 281, 158, 318, -365, -526, -130, -331, -431, -216, 498, -270, 276, -456, 61, -494, 298, 261, 460, 114, 327, 265, -215, -295, -263, 105, 97, -43, 371, -173, 407, -32, 81, -30, -57, 300, -278, 83, -562, -545, -1170, 228, 291, -8, -371, 171, -88, 268, -212, 2, 534, -138, 187, 12, -1016, -75, 510, 35, -410, 1018, -493, -58, 442, -376, -309, 89, -90, -415, 71, 529, -111, -372, -131, -102, 202, 233, 382, -473, 563, 526, 358, 417, -685, 255, 623, -493, 1045, 20, 69, -1049, 321, 26, -12, -478, 460, -173, 24, 56, -437, -318, 295, 645, -200, 602, 570, 83, 581, 303, 68, -436, 23, -655, 152, 483, -228, -300, -499, -364, 140, -654, -347, 90, 632, 127, -238, 189, -360, -33, -204, -490, -381, -652, -76, -754, 21, -254},
{-271, -1113, 202, 305, -876, 418, 217, -472, -285, -149, 244, 38, -327, 473, -354, 414, 542, 232, 395, 170, -228, 202, -278, 97, -66, 56, 146, 437, 264, 468, -378, 40, -1010, 195, -346, 195, -1315, -295, -339, -613, 699, 413, 297, 404, 71, -353, -160, 84, 1, -733, 73, 483, -334, -837, 213, -793, 616, 217, 86, 210, -27, -434, 547, 532, -744, -62, -448, 172, -184, -587, -192, -1005, -556, -8, -462, -147, 191, -958, -36, -411, 500, -360, 308, 103, -353, -26, -287, 161, 390, -154, 32, -169, 856, 63, 448, 228, -112, 29, -132, 101, 167, 236, 6, 65, -264, -152, -453, 517, 929, -263, -116, 399, -351, 120, 354, -311, -296, -96, -142, -437, -494, -847, -76, -85, 652, 5, -179, 109, -593, -342, 148, 822, 114, 570, 29, -209, -419, -323, 1003, 249, 153, -346, -190, 298, 315, -163, 180, -423, -542, -254, 414, 306, 552, 772, 1027, -475, 336, -111, -267, -791, 301, 255, -135, -581, -495, 218, -357, 105, 92, 153, -777, 736, 688, 637, -330, 270, -44, -196, 235, 47, 167, -441, 133, -434, 109, 178, -185, 917, 151, -83, 13, -44, 99, -394, 339, 321, 539, -614, -148, 649, -175, 213, -243, -347, 46, 307, -72, -859, 90, 238, 586, -62, 420, -50, -221, -195, 260, 254, 237, 607, 640, 655, -359, 76, 323, 174, 25, -347, 504, 417, -320, 139, -26, -315, 137, -80, -231, 566, -244, 505, 36, -393, -190, -228, -423, -133, 107, -174, -38, -612},
{-118, 55, -3, 559, 119, -7, -691, 363, 425, 110, 335, 305, -218, -21, 286, -113, -514, 455, 73, -269, -68, 404, 100, -415, 71, 147, -9, -596, -87, 363, -563, -492, 393, -595, -292, 78, 28, 248, 225, -165, 439, 347, -764, -656, 185, -63, 347, -253, 79, 368, -390, -506, 140, 99, 178, -490, 410, -79, 229, 779, -292, -589, -179, 199, 149, 278, 79, -107, -97, 791, 490, -665, -318, -204, -340, -152, 158, 439, -396, 165, -113, -584, -288, 379, -136, -569, 282, 907, -632, -362, -304, 767, -256, 243, 99, 56, 556, -72, -456, -445, 406, -231, -139, -11, -120, 43, -240, -98, -21, 663, 0, -94, -37, -57, 12, -279, -216, 67, -470, -67, 318, -186, -92, 707, -279, 316, -67, 326, 326, 611, 348, 626, -218, 99, -94, 74, 999, -93, 247, 804, -933, 70, -67, -31, 382, -258, -68, 33, 495, 297, -3, 479, 265, -162, -173, -234, -502, -492, -505, 466, 159, -30, -457, 7, -579, -59, -428, 482, -103, -278, -407, -84, -320, -811, 547, -128, 425, 181, -44, -157, 392, 76, 1379, -57, 566, 241, 380, 177, 522, -83, 404, 906, -208, 286, 172, -524, 373, -246, -420, -176, 480, 111, -581, -252, 16, 511, 23, -738, -146, 348, -8, 225, -67, 509, -28, 109, -608, -397, -121, 632, 216, 388, -426, 496, 530, -602, -139, -48, -199, -308, -384, -122, 8, -227, -12, -253, 257, -372, -243, -310, 164, 65, -152, -66, -159, 414, -1268, -207, 594, -97},
{222, -182, 349, 213, 204, -92, 190, 153, -596, -3, 72, -170, 83, -378, 33, 699, 117, 480, 376, 260, 95, -192, 19, 95, -121, -457, -80, 645, -59, -328, 123, -639, -202, 164, 115, 280, 173, 479, -219, -752, 62, -85, 289, 377, 160, 62, 110, -441, -96, -67, 310, -404, 255, 447, 191, 279, 62, 66, 77, 382, -29, -251, -58, -427, 60, 297, 340, 205, 118, 114, -279, -148, -169, -106, 366, -383, -304, -342, 364, -42, -547, 113, -106, -305, 227, 39, 358, -304, -271, 447, -186, 60, -590, -109, -47, -663, 209, -137, -107, -353, -543, -121, -226, 412, -285, 268, 150, 228, -103, -273, 38, 191, -338, -119, -79, -140, -33, -221, -241, -445, -373, 234, 9, 72, 220, 334, 243, -345, -138, 398, -110, -596, 680, -128, -105, -30, -587, -3, -518, -13, -176, 245, 43, 229, 293, 111, 96, -147, -263, -300, -384, 203, 80, -215, -104, -88, 43, 88, 222, 391, 1052, -67, 470, 179, -396, 138, 438, -126, 58, -272, 322, 444, -728, -339, -594, -131, -366, 153, -424, 466, 171, 321, -335, -49, -273, -411, -494, -235, -173, 29, -419, -128, 117, 309, 284, 20, 300, -106, -149, -49, 135, 34, 82, -86, -50, 30, -603, 262, -155, -8, -257, -163, -229, -170, -475, 228, -92, 121, 136, 347, -55, 86, 567, -343, 92, -185, -165, -327, 354, -326, 143, 319, -87, -497, 238, 31, 168, -40, -26, -170, -148, 228, -584, -156, -127, 325, -111, -345, 143, -338},
